[
  [0.042367, 0.044091, 0.058219, -0.006053, -0.030094, -0.046677, 0.008447, 0.143925, 0.036149, 0.127551, 0.019749, 0.067208, 0.029251, -0.577352, -0.285182, 0.021279, -0.108631, 0.080362, 0.093677, -0.074933, -0.395739, -0.216722, -0.136756, -0.169608, 0.039113, 0.034828, -0.480625, -0.275631, -0.212825, -0.075341, 0.082321, -0.363517, 0.160187, -0.091344, 0.051954, -0.084515, 0.032659, 0.019680, 0.001529, -0.051382, 0.035177, 0.317483, -0.089790],
  [-0.082936, -0.018538, 0.009708, -0.110560, 0.032272, -0.059268, -0.141183, -0.032884, 0.145549, 0.078847, -0.040210, -0.080682, -0.052921, 0.233527, 0.111418, 0.148022, 0.012606, 0.030793, 0.073610, 0.169786, -0.032490, 0.107984, -0.096843, 0.073830, 0.028996, 0.025679, -0.085423, 0.258322, -0.046052, -0.003977, -0.018703, -0.084994, 0.067340, -0.438481, 0.042517, -0.169002, -0.122427, -0.023476, 0.016520, -0.039073, 0.103570, 0.000690, 0.119302],
  [0.132621, -0.182543, 0.267674, -0.177564, 0.336020, 0.207542, 0.126393, -0.068279, -0.010401, -0.023729, 0.185675, 0.048577, -0.249435, 0.040470, 0.012540, -0.002362, 0.311517, -0.310018, -0.064353, -0.023492, 0.041525, 0.011431, 0.261748, -0.368555, -0.086150, 0.067900, -0.043615, 0.027588, -0.166779, -0.184357, -0.132462, 0.018234, 0.032692, 0.064749, 0.146240, -0.058694, 0.134927, -0.180940, 0.186387, 0.062040, -0.515324, 0.024487, 0.167440],
  [-0.020640, -0.017504, -0.026392, -0.080949, -0.019659, -0.037780, 0.043429, -0.136791, 0.138732, 0.179724, 0.064012, -0.077662, 0.088672, -0.160095, 0.010925, -0.181864, 0.034938, -0.025490, 0.179428, 0.076167, -0.389222, 0.428371, -0.004939, 0.087652, -0.033456, -0.143728, 0.286809, -0.662735, -0.373480, -0.131541, -0.001968, 0.033711, 0.006759, -0.089930, -0.228932, -0.165032, 0.001707, 0.037138, -0.012503, 0.011407, -0.028837, -0.171055, 0.118998],
  [0.263061, -0.193836, -0.104697, -0.304942, 0.109453, -0.048558, -0.078219, -0.021698, 0.007074, 0.048916, 0.362038, -0.560244, 0.121068, 0.035733, 0.029676, -0.103706, -0.020339, 0.198466, -0.013773, 0.011546, -0.002555, 0.058550, 0.090932, 0.299455, 0.030231, -0.015215, -0.037786, 0.032478, -0.058734, 0.416484, -0.093441, -0.018965, 0.007600, 0.068264, -0.156397, 0.311747, 0.049132, 0.241026, -0.292827, -0.097985, 0.383358, -0.329252, -0.105930],
  [-0.097415, -0.421448, -0.180460, -0.124846, -0.029987, -0.142834, -0.139337, -0.034146, 0.214550, 0.101224, 0.136683, 0.033626, -0.027172, -0.069189, -0.035685, -0.168069, -0.236126, -0.115445, 0.145103, 0.011389, 0.033734, 0.113088, 0.114968, -0.088257, -0.100089, 0.000253, -0.076064, 0.081204, 0.232267, -0.051789, 0.184649, 0.004312, 0.154195, -0.100066, -0.197502, -0.371014, -0.104561, -0.062409, -0.228774, 0.100661, -0.209678, -0.014335, 0.117096],
  [-0.092601, 0.143633, -0.087171, -0.136497, 0.371275, -0.070134, 0.251192, 0.034873, -0.060050, -0.078976, 0.055055, 0.125599, 0.109322, -0.058016, -0.123795, 0.051485, 0.021056, -0.408046, -0.004845, 0.024936, -0.060739, 0.073081, -0.047385, 0.092353, 0.105930, -0.010598, -0.088319, 0.013502, 0.030501, 0.139369, 0.107539, -0.116120, 0.037301, -0.027165, 0.195189, -0.070230, 0.075590, 0.166376, -0.047443, -0.162717, -0.364839, 0.201611, -0.110525],
  [0.006685, 0.150895, 0.119872, 0.041026, -0.538527, 0.446061, -0.003350, -0.074930, 0.029680, -0.092204, -0.131969, -0.220998, 0.063700, -0.028424, 0.036898, 0.003928, -0.390700, -0.272416, 0.064149, 0.002069, 0.066188, 0.025527, 0.099078, -0.040607, 0.153089, -0.040912, 0.031633, -0.110791, -0.128187, 0.159107, -0.212393, -0.012509, -0.184707, 0.289948, -0.128872, 0.357503, 0.136086, 0.085292, -0.336712, 0.051444, -0.396336, 0.087317, -0.047152],
  [0.414112, 0.107745, 0.097437, -0.052385, -0.348189, 0.108562, -0.180879, 0.030266, 0.020300, 0.055678, -0.040638, -0.055436, -0.106686, 0.031185, -0.092886, 0.035335, -0.062582, 0.040903, -0.089741, -0.010466, -0.036672, 0.093207, -0.093146, 0.046490, 0.099172, 0.028647, -0.052092, 0.049153, -0.414332, -0.181049, -0.053383, -0.004875, 0.002247, -0.002860, 0.318803, -0.653438, -0.132800, 0.101096, -0.046493, -0.009297, -0.085676, 0.247665, -0.049198],
  [0.020938, 0.024067, 0.086496, -0.000666, 0.105032, -0.131272, 0.020386, -0.016191, 0.050754, 0.066727, 0.195430, 0.091815, 0.040830, -0.304583, 0.255694, 0.259356, -0.120327, -0.017048, -0.079992, -0.173706, -0.127482, 0.376480, 0.035658, 0.233570, 0.062907, 0.090245, 0.015409, -0.044195, -0.037600, -0.066512, 0.039906, -0.038400, 0.084692, 0.072472, 0.110129, -0.300178, -0.002142, 0.085194, 0.045364, 0.051332, -0.060101, 0.102030, 0.060136],
  [-0.054688, -0.024997, -0.049094, 0.019604, -0.008220, 0.001281, -0.021554, -0.199442, -0.066458, 0.011169, -0.059196, -0.000150, -0.055076, -0.099162, 0.398405, -0.145162, 0.057530, -0.117923, 0.180122, 0.171037, 0.157384, -0.026027, 0.059509, -0.067910, -0.119869, 0.181489, -0.444753, 0.090878, 0.214949, -0.189439, -0.049120, -0.257224, -0.027199, -0.205105, 0.067892, 0.168920, 0.041548, -0.030732, 0.073850, -0.036835, -0.011922, -0.069868, 0.105092],
  [-0.038970, 0.009401, 0.183548, 0.031523, 0.062982, -0.080364, 0.163325, 0.090098, 0.177502, 0.043568, 0.065812, -0.041154, 0.001505, -0.157630, 0.109077, -0.118566, -0.142187, 0.053314, 0.122536, 0.039455, 0.007505, -0.000530, 0.039348, -0.031036, 0.150865, 0.036174, -0.089560, 0.039247, -0.115751, 0.053337, 0.167632, 0.003058, 0.162437, 0.000549, -0.189817, 0.028124, -0.168386, 0.066825, 0.090121, -0.204732, -0.127133, -0.180110, -0.001302],
  [-0.003420, -0.050452, -0.088343, -0.003977, 0.053832, 0.020659, -0.004788, -0.060318, 0.038053, -0.129006, 0.022030, -0.025810, -0.141934, -0.111283, 0.344429, -0.030570, -0.032839, -0.028650, -0.054276, 0.314818, 0.020288, 0.083590, -0.054699, 0.118378, -0.055083, -0.063876, -0.149372, -0.170037, -0.010972, 0.083988, 0.074122, 0.057562, 0.034915, -0.044477, -0.007716, -0.063405, -0.014858, -0.045585, 0.071166, -0.068800, -0.078302, -0.022345, 0.062133],
  [0.009604, 0.268260, 0.094855, -0.102556, 0.142353, 0.050731, -0.126383, -0.081453, -0.202139, 0.048085, 0.011886, -0.283025, 0.070866, 0.086627, -0.096217, 0.017405, -0.081300, -0.173783, -0.091843, 0.018785, 0.059054, -0.014984, 0.043985, 0.241903, -0.103073, 0.004928, -0.114038, -0.047768, -0.043020, -0.121847, 0.000087, -0.083400, -0.075994, 0.067290, 0.039500, 0.274303, 0.117732, 0.111906, 0.161133, 0.078210, 0.024096, 0.135673, 0.016130],
  [0.074285, 0.145628, -0.006303, 0.006329, 0.105388, 0.014296, 0.065062, -0.039951, -0.073164, -0.036298, 0.127199, 0.064122, 0.056957, 0.139142, 0.037951, 0.153138, 0.033054, -0.153153, 0.032663, 0.161508, -0.006425, -0.072592, -0.147513, 0.144650, 0.161677, 0.148847, -0.157428, -0.030614, 0.077139, 0.045792, 0.013472, -0.173705, 0.171568, 0.106722, -0.395097, -0.042933, 0.042773, 0.080607, -0.026841, -0.115143, -0.385286, 0.240294, -0.079837],
  [0.070752, 0.054114, -0.064127, -0.114548, -0.131701, -0.362896, -0.104132, 0.015333, -0.255423, -0.216013, 0.094288, -0.262070, -0.214795, -0.016235, -0.020786, -0.020263, -0.177698, 0.123517, 0.049294, -0.044377, 0.042377, 0.041120, -0.439618, -0.401565, 0.118447, 0.003755, 0.149449, -0.065030, 0.114677, -0.386076, 0.096284, 0.003847, -0.050872, 0.011774, -0.148048, 0.018521, 0.230900, 0.097246, -0.147644, 0.125222, -0.591022, 0.586675, -0.125551],
  [-0.018683, -0.029780, 0.071565, -0.020160, 0.082825, -0.106911, -0.111750, 0.016524, 0.040866, 0.122083, 0.112589, -0.009420, -0.037273, 0.296696, -0.416710, 0.143190, 0.024287, 0.075880, -0.005722, 0.140538, 0.022193, 0.100150, 0.073585, -0.078579, -0.046357, -0.415921, 0.290904, 0.162504, 0.078352, -0.096842, -0.013623, 0.028925, 0.025020, -0.239747, -0.010563, -0.351026, -0.001627, 0.016838, 0.008633, 0.061529, 0.026628, -0.470195, 0.001548],
  [-0.239694, -0.114167, -0.142849, -0.042962, -0.066296, 0.066452, 0.112236, -0.005913, -0.004053, 0.126845, 0.090327, -0.636854, 0.132669, -0.006480, -0.051502, 0.045581, 0.150888, -0.383733, 0.089640, 0.064250, 0.025118, 0.118522, -0.122844, 0.393452, -0.035024, -0.040030, 0.027922, 0.092269, 0.172785, 0.194070, -0.047939, 0.008065, -0.017715, -0.042287, -0.133488, 0.020612, 0.008916, 0.277683, 0.116699, 0.054495, -0.206169, 0.281654, -0.101551],
  [0.127561, 0.047969, 0.037307, -0.050568, 0.117062, 0.156122, -0.005807, 0.091700, 0.055460, -0.056579, 0.087833, 0.114969, -0.088137, -0.027556, 0.049794, -0.429157, -0.017887, -0.048251, 0.082609, 0.015934, -0.111855, -0.402151, -0.114792, 0.057402, 0.119653, 0.082476, -0.025358, 0.044117, 0.190265, 0.073994, 0.124644, 0.148550, 0.177369, 0.069890, 0.031180, -0.146365, 0.060984, 0.157500, 0.077688, 0.088435, 0.137065, 0.077813, -0.075044],
  [-0.143189, -0.047223, 0.037326, -0.322449, -0.032301, 0.280735, -0.000026, -0.069980, -0.101707, 0.140188, 0.298260, 0.056101, -0.106926, -0.046223, -0.140733, -0.048550, -0.188394, 0.042507, -0.047993, -0.062897, -0.080092, -0.064206, 0.059748, 0.297634, 0.143817, -0.040102, -0.107613, 0.011306, 0.199875, 0.127443, 0.179193, -0.080927, 0.123248, 0.071576, -0.010576, 0.152040, 0.080942, 0.167029, -0.001049, 0.113770, 0.035446, -0.034048, 0.036002],
  [0.069523, 0.090990, 0.038341, -0.161003, 0.035665, 0.109696, 0.064310, 0.139274, 0.124996, -0.180788, -0.027528, 0.141481, 0.028574, 0.169276, 0.075615, 0.135855, 0.150855, 0.124348, -0.216657, -0.548162, 0.278279, 0.180453, 0.094688, 0.086928, 0.067470, 0.157275, -0.070251, 0.212487, -0.033851, -0.188021, 0.100434, 0.049096, 0.236649, 0.104193, 0.174566, 0.065749, 0.082068, 0.101894, 0.134519, 0.139416, 0.128377, -0.342481, 0.025430],
  [-0.029693, -0.305306, 0.184383, 0.036107, -0.461526, 0.002261, -0.266156, 0.051091, 0.007991, 0.043113, -0.120597, 0.198703, 0.193293, -0.001606, -0.018050, -0.043858, -0.351044, -0.219759, 0.040763, 0.004152, 0.025782, 0.003351, -0.015925, -0.198487, 0.001265, 0.036316, -0.035093, 0.012083, -0.329326, 0.193485, 0.152733, -0.054554, -0.008049, 0.015595, -0.086450, -0.000780, 0.282971, -0.136566, -0.368539, -0.010113, -0.159958, -0.129209, 0.012469],
  [0.006977, 0.048023, 0.132222, -0.038011, 0.065822, 0.259940, -0.036181, 0.093460, 0.029677, -0.022373, 0.141978, 0.066567, -0.001625, 0.191676, -0.452674, -0.161690, 0.226895, -0.034810, 0.028981, 0.241795, -0.009609, -0.433345, 0.110273, -0.415945, 0.037614, 0.131400, 0.004707, -0.357419, 0.033050, 0.023603, 0.038127, 0.164315, -0.052819, -0.289602, 0.174868, -0.354684, 0.059463, 0.042438, -0.037780, -0.096110, 0.045611, -0.007192, -0.094463],
  [0.033051, 0.102528, -0.005648, -0.111922, 0.079970, 0.091415, -0.031729, -0.193474, 0.214914, -0.323342, 0.029926, 0.051304, -0.037451, 0.141414, 0.081004, 0.108204, 0.193359, 0.049229, 0.187905, -0.039840, -0.387802, -0.174203, 0.254731, -0.064267, 0.103170, 0.209305, -0.082741, 0.081248, 0.128427, 0.038897, -0.051188, 0.055544, 0.096121, -0.066433, 0.125549, 0.196337, 0.053371, 0.086594, -0.000243, -0.088110, -0.024843, -0.012405, -0.114514],
  [-0.058881, -0.001605, 0.125858, -0.053833, 0.002786, -0.060222, 0.125553, -0.075646, 0.069088, 0.153074, 0.115182, -0.102264, -0.118323, -0.073787, -0.243208, -0.052709, 0.240118, 0.134423, 0.219867, 0.209842, -0.006799, 0.152705, -0.128691, 0.009076, -0.092435, -0.111292, -0.174498, 0.042557, 0.190741, 0.199427, 0.095006, -0.057661, -0.047636, 0.098005, 0.057997, -0.196155, -0.081328, 0.096255, 0.061805, 0.111798, -0.039893, -0.047147, 0.023630],
  [-0.082291, 0.017374, 0.162112, -0.140688, -0.003816, 0.137818, 0.067125, -0.042029, 0.031729, 0.019142, 0.043873, -0.069665, -0.069108, 0.089170, 0.060602, -0.086340, -0.057391, -0.013241, -0.031684, -0.022956, 0.047138, 0.013582, 0.143891, 0.109341, 0.062896, -0.004268, -0.193602, 0.014544, -0.029182, 0.327231, 0.174856, 0.025621, -0.082574, 0.090190, -0.056812, -0.220615, -0.118313, 0.083523, -0.152156, 0.008107, -0.315674, 0.244809, -0.032695],
  [0.043554, -0.001955, 0.017658, 0.043015, 0.039742, 0.075654, -0.012819, 0.049435, -0.144353, 0.113913, -0.078117, -0.060846, -0.038844, -0.392337, -0.376682, 0.036292, -0.144696, -0.116721, 0.085302, -0.268871, 0.259516, 0.225226, 0.085480, -0.029206, 0.041549, 0.036527, 0.263458, 0.150161, 0.147615, -0.051027, -0.003416, 0.147570, 0.209947, 0.282019, 0.083067, 0.082031, 0.033553, -0.012020, 0.026381, 0.067602, 0.036037, 0.068172, 0.082690],
  [0.135657, 0.076022, 0.180739, 0.020878, -0.264222, -0.520503, 0.023456, -0.105060, 0.049492, -0.002074, 0.193322, 0.000101, -0.028411, 0.136690, 0.015720, 0.083595, 0.123390, 0.068767, 0.076092, 0.008616, -0.061106, 0.030325, 0.026499, -0.635768, 0.160826, -0.041035, -0.194218, 0.027426, -0.246494, 0.336428, 0.028810, -0.224895, -0.048365, -0.011186, -0.331441, 0.222326, 0.120958, -0.063177, -0.214527, -0.412067, 0.301455, -0.257394, 0.149278],
  [-0.032031, 0.202126, 0.084699, 0.157651, 0.149935, 0.184711, 0.010510, 0.102863, 0.193440, -0.102852, -0.089692, 0.319195, -0.113493, -0.006217, 0.071167, 0.061212, -0.123623, 0.500060, -0.072829, 0.038715, -0.018448, 0.168907, -0.031603, 0.150805, -0.070458, 0.137205, -0.015975, 0.114550, -0.061555, 0.091527, 0.049524, 0.119385, 0.067059, 0.008699, -0.377913, 0.074773, -0.501288, -0.372716, 0.024370, -0.015446, 0.235794, -0.098238, -0.045266],
  [0.264436, 0.021179, -0.132864, 0.046779, -0.077153, -0.522214, 0.117990, -0.054246, -0.053720, -0.025654, -0.135173, 0.288019, 0.164326, -0.055436, -0.002260, -0.115429, -0.083944, -0.044647, 0.116356, -0.025378, -0.026296, 0.012430, -0.035580, -0.206672, -0.186877, -0.055059, 0.066550, -0.093345, -0.065634, 0.378955, -0.072024, -0.028271, -0.068923, 0.005205, -0.098986, 0.202454, -0.081183, -0.015546, 0.184343, -0.246734, -0.103668, -0.158840, -0.124888],
  [0.137544, -0.159905, 0.069040, -0.219622, -0.207460, -0.017584, 0.072507, -0.070746, -0.001802, -0.198868, -0.208904, -0.000536, 0.091167, -0.003464, -0.112814, 0.073355, -0.019020, 0.009192, -0.051734, 0.161741, 0.001595, 0.156098, -0.131618, -0.135922, 0.151624, 0.000158, -0.094180, 0.101365, -0.005616, 0.129900, -0.138061, 0.115523, 0.046933, -0.033353, -0.281070, -0.150926, 0.173130, 0.066942, -0.039680, 0.012009, 0.019398, -0.144852, 0.093172],
  [-0.296581, 0.008845, 0.009787, -0.284273, -0.041252, 0.184828, 0.003078, 0.082783, -0.062317, -0.081706, 0.062665, 0.470399, -0.044913, 0.065866, 0.019070, 0.051936, 0.226999, 0.115483, -0.074583, -0.016300, -0.106890, 0.225212, 0.133380, -0.362996, -0.126150, -0.078251, 0.157286, -0.077940, -0.204773, -0.142739, -0.196515, 0.021467, 0.033758, 0.122186, 0.399400, -0.005060, 0.082771, 0.370703, 0.211625, 0.043525, -0.102867, -0.059371, -0.081520],
  [0.034723, 0.087352, -0.074731, 0.191151, 0.295276, -0.202909, -0.284708, -0.013876, -0.034679, -0.035104, 0.086588, 0.094865, -0.013795, -0.016455, -0.380820, -0.094619, 0.130015, -0.075994, -0.033115, 0.012516, -0.060126, 0.070919, 0.352392, -0.641779, 0.141696, -0.037276, -0.053947, -0.102234, -0.285273, -0.048065, 0.226527, 0.002684, 0.002539, -0.035105, -0.353253, -0.060551, 0.015054, 0.022824, 0.121125, -0.420679, -0.136466, -0.048896, -0.012953],
  [-0.099220, -0.066898, 0.111430, 0.106381, 0.065275, 0.061630, 0.141157, 0.007089, -0.146016, -0.100922, 0.178277, 0.028432, -0.076744, 0.041225, 0.168581, 0.140496, 0.009441, 0.045970, -0.163389, -0.109688, -0.330880, -0.078198, 0.011157, 0.139109, 0.095475, 0.157670, 0.164854, 0.128170, 0.209241, -0.087947, 0.039772, -0.093307, 0.030672, 0.210134, 0.108934, 0.056850, 0.116755, 0.109969, 0.125441, 0.103565, -0.014355, 0.017311, -0.049531],
  [0.088934, -0.037800, 0.171865, -0.036559, 0.064290, -0.198743, 0.112331, -0.060169, -0.168416, -0.021400, 0.197357, 0.235312, 0.139989, -0.100899, -0.113231, 0.014366, 0.038324, 0.008976, 0.089311, 0.027146, -0.031232, -0.027550, 0.045945, 0.254469, -0.214001, 0.072182, 0.046281, 0.061959, -0.250498, 0.126221, 0.165286, 0.074250, 0.143083, 0.003094, 0.077534, -0.083632, -0.059738, -0.258682, -0.034846, -0.229392, -0.037837, -0.000318, 0.060337],
  [-0.079686, 0.062970, -0.045434, -0.079683, 0.007646, -0.340202, 0.196108, 0.167014, 0.033965, -0.068357, 0.020889, -0.139336, -0.051747, 0.030069, -0.147267, 0.083406, -0.137030, 0.055535, 0.105892, 0.097230, -0.167429, 0.149696, 0.120907, 0.146268, 0.092023, 0.074845, -0.092578, -0.060461, -0.399548, 0.016480, 0.082712, 0.004599, -0.033490, -0.019581, 0.063405, -0.060375, 0.113528, 0.063785, -0.068539, -0.156328, -0.408716, -0.125511, 0.082700],
  [0.106445, 0.155825, -0.026892, -0.175088, -0.077025, -0.218962, 0.110637, 0.044208, 0.147664, -0.145128, -0.078496, -0.050359, 0.078387, -0.036139, -0.136997, 0.102299, 0.010855, -0.222277, 0.151392, 0.173847, 0.081614, -0.052214, -0.025149, 0.068714, -0.029038, -0.056774, 0.026746, -0.157917, 0.108951, -0.348418, 0.004231, -0.021585, 0.140633, -0.112502, -0.006680, -0.065309, 0.125371, -0.030162, 0.135541, 0.069884, -0.096542, -0.394185, 0.112462],
  [-0.248712, 0.125210, -0.230610, -0.338854, 0.130755, -0.309475, 0.154646, -0.083541, -0.083167, -0.009654, -0.022305, 0.003009, 0.173242, -0.031034, -0.065652, 0.038149, -0.122048, -0.448407, 0.065241, 0.043239, 0.045770, 0.204467, 0.030844, 0.119941, 0.200772, -0.054738, 0.015387, -0.011499, -0.175750, -0.076055, -0.079501, -0.035846, -0.023529, -0.122159, -0.044640, -0.151477, -0.052883, -0.083965, 0.222977, 0.020857, 0.140122, -0.199354, -0.106319],
  [0.056379, 0.063369, 0.064835, 0.058457, 0.013986, -0.030937, 0.001212, -0.532923, -0.219146, 0.100824, -0.156894, 0.035834, -0.015111, 0.108325, -0.361410, 0.051189, 0.048151, -0.026886, 0.066795, -0.356722, 0.436890, 0.224283, 0.101736, 0.031127, 0.041075, 0.014981, 0.275995, 0.218992, 0.139303, 0.059996, 0.025961, 0.008910, -0.294927, 0.299067, -0.134433, 0.157428, 0.047379, 0.023693, 0.033198, 0.032250, 0.019725, 0.019121, 0.048620],
  [0.043035, 0.124837, -0.100809, 0.087301, -0.021116, 0.095051, 0.081863, -0.020009, -0.120648, 0.031148, -0.086435, -0.035060, 0.019308, 0.150084, -0.165985, 0.096850, -0.032699, 0.130601, -0.011127, 0.082239, 0.042792, 0.027796, 0.162044, -0.027865, 0.092387, 0.050886, -0.105135, 0.036165, -0.070206, -0.339718, 0.045673, -0.185338, 0.094510, -0.006667, 0.029589, 0.038549, -0.084059, 0.075028, 0.079726, -0.148526, -0.304036, 0.265813, 0.109671],
  [0.048284, 0.012565, 0.016677, 0.028853, 0.032671, -0.059991, 0.033104, -0.236496, 0.337995, -0.026649, -0.051383, -0.081427, 0.008626, 0.023326, -0.485506, -0.055099, -0.295241, -0.137442, 0.032890, 0.314897, 0.114857, 0.118471, -0.007385, -0.008290, 0.119265, -0.370142, 0.238009, 0.011551, -0.049124, -0.099360, 0.025195, 0.067288, 0.122316, -0.289119, -0.049529, 0.033221, 0.023512, -0.058201, -0.057822, 0.007830, -0.047801, 0.143459, -0.012377],
  [0.148301, -0.132379, -0.023143, 0.080962, 0.037254, -0.219447, 0.117638, -0.087850, 0.202934, 0.000000, -0.040822, 0.042775, 0.030325, 0.028161, 0.110042, 0.145911, -0.115497, -0.152953, -0.023058, 0.086698, -0.021235, 0.189344, -0.153609, 0.049455, 0.064898, -0.059578, -0.041901, 0.138105, -0.135140, -0.121728, -0.060766, -0.088161, -0.177912, 0.068735, -0.047842, 0.033999, 0.060889, -0.120934, -0.099157, 0.004775, -0.285642, 0.012658, 0.112148],
  [0.020704, 0.019750, 0.077918, -0.164227, -0.038160, 0.050668, -0.063915, 0.268276, -0.104886, -0.243623, -0.103752, 0.085842, 0.040110, 0.207922, -0.124770, -0.432627, 0.227913, -0.038906, 0.176686, 0.112912, -0.040427, 0.160555, -0.030108, 0.016021, -0.085243, -0.134241, 0.198492, -0.138897, 0.145793, -0.033473, 0.032295, -0.461252, -0.155108, -0.069595, -0.136884, -0.143438, 0.009091, -0.022068, -0.039902, 0.024764, 0.084281, -0.015499, -0.109511],
  [0.023523, 0.126642, 0.088269, -0.092270, 0.052649, -0.006259, 0.001560, -0.069952, -0.022024, -0.010589, -0.032320, 0.179598, 0.119259, -0.018168, -0.142726, 0.002066, 0.108291, 0.055009, 0.126903, 0.206584, -0.084212, 0.175562, 0.016720, 0.055365, 0.080943, 0.082642, 0.009752, 0.118815, 0.098810, -0.079604, 0.108448, -0.214297, -0.094964, -0.071820, -0.074063, 0.183127, 0.109944, -0.049326, -0.047052, -0.093728, -0.376943, -0.074290, 0.046833],
  [0.166533, 0.068536, 0.011371, 0.075610, -0.448407, 0.533879, 0.098945, -0.079774, -0.076099, 0.016858, 0.166088, 0.273169, 0.059627, -0.016425, -0.077489, 0.027934, -0.001673, 0.403691, 0.005394, -0.022969, 0.016870, 0.015807, -0.014224, 0.275463, -0.283225, 0.041313, 0.000938, 0.022089, 0.013065, 0.132702, -0.048635, -0.054876, 0.100981, 0.061971, -0.379737, 0.055374, -0.077458, 0.137784, -0.258377, -0.368312, 0.097106, -0.238746, 0.064171],
  [0.040138, 0.096411, 0.065887, -0.142841, -0.223395, -0.146537, -0.075189, 0.086735, -0.061184, -0.019219, -0.075082, 0.051763, 0.104169, 0.133615, -0.177896, -0.181328, 0.030402, 0.072450, 0.104929, 0.042499, -0.055707, 0.074617, -0.079876, 0.058248, -0.174292, -0.101890, 0.055663, 0.050969, 0.038447, 0.006812, 0.010198, -0.040556, 0.221619, 0.081756, 0.034859, -0.172382, -0.005910, -0.022955, 0.019636, -0.087288, 0.073497, -0.300557, -0.008826],
  [0.025603, 0.013439, -0.037747, -0.076169, 0.005188, -0.015819, -0.080451, -0.107032, -0.104092, -0.207956, 0.240803, 0.012692, -0.180625, 0.013248, 0.216168, -0.355332, -0.138245, -0.182799, -0.070496, 0.174942, 0.253510, 0.247923, -0.144797, -0.081548, 0.035086, -0.294347, -0.229785, -0.112159, -0.141458, -0.002610, -0.059914, -0.364623, 0.096047, -0.025719, 0.155351, -0.138453, -0.012071, -0.145762, -0.027019, -0.034652, 0.014812, -0.008725, 0.156753],
  [-0.085352, -0.039474, 0.007794, 0.123138, -0.061493, 0.158837, -0.015451, 0.136160, 0.091251, 0.073098, -0.268422, -0.209496, 0.113659, 0.058879, 0.004188, 0.164293, -0.010495, 0.129117, 0.141493, 0.118098, -0.118270, -0.050212, 0.026830, -0.230313, 0.076835, -0.126560, -0.012189, -0.150732, -0.048689, 0.225258, -0.028623, -0.029572, 0.117235, -0.157614, 0.059909, 0.071195, 0.001179, 0.005818, -0.114723, -0.063275, -0.204708, 0.036805, -0.128568],
  [0.176496, 0.057618, 0.144170, 0.067489, -0.091954, -0.090861, 0.061991, -0.080887, 0.009402, -0.035278, 0.074172, -0.172719, -0.091538, -0.117694, 0.007209, -0.076363, -0.290533, 0.281615, -0.091459, -0.032727, 0.075309, 0.169067, 0.180773, 0.003251, -0.184235, 0.009437, -0.041437, 0.109605, 0.160923, -0.061662, 0.105189, 0.003978, 0.093478, 0.088061, 0.073873, 0.012510, 0.187771, 0.003444, 0.117721, 0.049586, -0.184734, 0.003379, 0.111409],
  [-0.043222, -0.009895, 0.004059, 0.042416, -0.012024, 0.009587, -0.053075, 0.235436, -0.141146, 0.051433, -0.067703, 0.006979, 0.064421, -0.238954, 0.077802, 0.004564, 0.079750, 0.067184, 0.199962, -0.234354, 0.400726, -0.232338, -0.032994, -0.035330, -0.026456, -0.164902, 0.279064, -0.127221, 0.046458, 0.016178, -0.030882, 0.202999, -0.197639, 0.026850, -0.044218, 0.019987, 0.025886, -0.023125, 0.029092, 0.122543, 0.342950, 0.033709, -0.049577],
  [-0.022153, -0.031351, 0.226906, -0.015031, -0.003738, -0.099998, 0.077349, -0.060006, 0.150638, 0.042724, 0.109571, 0.027041, -0.025154, -0.053235, -0.165615, 0.009469, 0.182219, -0.302740, 0.137457, 0.238398, 0.085103, 0.154783, -0.125694, -0.043718, -0.102756, 0.136043, -0.004146, 0.036148, 0.123664, 0.000613, 0.124829, 0.083299, -0.106824, -0.016207, 0.177617, -0.366980, -0.151983, 0.057046, -0.119381, -0.020495, -0.140989, 0.015481, 0.029216],
  [0.081793, 0.090697, 0.082398, 0.076225, 0.003090, -0.080873, 0.066648, -0.602506, -0.170768, -0.007408, -0.067085, -0.106719, 0.036876, 0.086009, -0.193961, 0.104166, -0.058708, 0.078093, 0.082142, 0.106682, -0.408750, -0.000027, -0.198725, 0.114641, 0.022680, 0.097875, -0.054132, 0.094284, 0.021135, -0.001257, 0.016619, -0.420715, 0.273167, 0.040416, 0.030133, 0.011121, 0.013803, 0.120523, 0.070915, 0.071648, 0.092775, -0.162351, -0.127338],
  [0.028983, 0.186833, 0.065785, 0.105545, -0.096021, 0.001700, 0.164713, -0.096762, 0.090178, 0.042785, 0.078403, 0.024031, -0.089053, 0.050650, 0.094371, 0.120717, 0.109200, 0.030292, -0.004884, 0.108945, -0.060923, 0.044023, 0.085555, 0.093162, -0.120233, -0.086458, -0.013489, 0.090679, -0.035394, -0.013884, -0.079348, -0.101075, -0.059980, -0.033578, -0.047555, -0.148166, 0.107362, 0.041057, 0.095597, -0.129588, 0.010012, 0.218272, 0.034509],
  [0.076986, 0.031053, -0.062289, -0.039484, 0.099583, 0.123425, 0.083502, 0.066327, 0.033939, -0.198058, 0.155129, 0.106536, 0.051419, 0.239212, -0.163070, -0.261207, 0.129422, 0.039471, -0.358123, -0.048081, 0.249683, 0.191328, -0.029000, 0.053868, 0.091348, 0.143929, -0.367510, -0.357343, 0.221291, -0.118670, 0.076018, -0.122793, 0.094740, -0.076769, 0.092187, -0.214135, 0.080348, 0.026197, -0.058886, -0.040877, 0.074330, 0.094354, 0.061363],
  [0.076717, 0.097669, 0.035539, 0.215829, -0.023616, 0.151892, -0.079770, 0.203616, 0.124182, 0.116812, 0.020884, 0.152627, 0.047232, -0.027027, 0.155527, 0.149965, 0.116081, 0.101980, -0.115899, -0.499394, -0.245259, -0.077922, -0.052191, 0.151805, 0.070987, -0.374720, -0.354876, -0.073905, 0.286358, -0.086742, 0.043155, 0.217467, 0.112652, 0.126529, 0.030519, -0.223505, 0.021756, 0.044051, 0.013666, 0.036602, 0.090696, -0.127949, -0.000093],
  [0.064518, 0.153492, 0.036288, -0.275064, 0.433960, -0.554113, -0.354907, 0.068147, 0.025563, 0.201084, 0.307475, -0.493558, 0.082541, 0.028663, 0.023465, -0.034383, -0.268171, 0.044378, 0.039218, 0.091057, -0.064675, 0.066588, 0.046087, -0.070020, -0.064848, 0.086658, -0.053724, -0.093187, -0.273760, 0.233301, 0.031983, -0.012621, 0.054862, 0.030667, 0.271616, -0.248005, -0.048225, 0.032971, -0.079596, -0.029417, 0.442510, -0.419388, -0.077604],
  [-0.028518, -0.003652, -0.022177, -0.096334, -0.021749, -0.023427, -0.052107, 0.016447, -0.087259, 0.188125, -0.127319, 0.009542, -0.013802, 0.380824, -0.141511, 0.199958, -0.116880, 0.004499, 0.206967, -0.353702, 0.463465, -0.045522, 0.119230, 0.038308, -0.014837, -0.227075, -0.306071, -0.488271, -0.180250, 0.027303, -0.050032, -0.239558, -0.194426, 0.207866, -0.001207, -0.207019, -0.016068, -0.009670, -0.075441, -0.045452, -0.024738, -0.042067, 0.026165],
  [0.024421, 0.008061, 0.036339, 0.006780, 0.009681, -0.112747, 0.001211, 0.019658, -0.029914, -0.272383, -0.004747, -0.018169, -0.046266, -0.296982, 0.386032, 0.120564, 0.020237, -0.059458, -0.015419, 0.278703, -0.068353, 0.075402, 0.073005, -0.226547, 0.028101, -0.279278, 0.148833, 0.201435, 0.026651, 0.044623, -0.016147, -0.246869, 0.032645, 0.014792, 0.026142, -0.036369, 0.023427, -0.013539, 0.022911, 0.027187, -0.061309, 0.269163, 0.034238],
  [-0.053457, 0.050002, 0.128812, -0.316104, -0.307798, -0.134769, 0.164791, -0.034797, 0.009975, 0.042375, 0.007719, -0.002945, 0.133341, -0.079280, -0.013400, 0.072895, -0.350139, -0.184452, -0.067917, 0.034336, -0.055975, 0.235072, 0.049234, 0.179799, 0.025044, 0.096734, -0.003597, -0.016024, 0.037819, 0.122640, 0.008143, 0.090464, 0.070052, 0.052470, 0.036989, -0.469133, 0.125964, -0.402357, -0.212402, -0.162518, -0.148649, 0.046913, -0.116545],
  [0.178702, -0.079588, 0.111888, -0.029724, 0.150645, 0.162791, -0.278760, 0.029727, -0.039816, 0.029600, -0.083061, 0.219342, 0.157376, -0.009780, -0.012956, -0.066238, 0.032270, 0.195235, 0.016478, 0.040517, 0.045133, 0.030614, -0.031478, -0.074235, 0.148866, -0.005405, 0.083333, 0.022939, 0.104800, -0.152712, -0.265678, -0.022660, -0.076595, 0.079116, -0.011058, 0.249330, 0.180019, -0.106249, -0.100532, -0.015901, -0.430374, 0.194884, -0.005457],
  [-0.066525, 0.127008, 0.046203, -0.008676, 0.045419, -0.067921, -0.019779, 0.067406, 0.131308, 0.095146, -0.144282, -0.053065, -0.158854, 0.172208, -0.072797, -0.115936, 0.133792, 0.088525, 0.150616, -0.029543, -0.081437, 0.127002, 0.000696, -0.139069, 0.020233, 0.181816, 0.081503, 0.003945, 0.003287, -0.125575, 0.147844, -0.057963, 0.058669, 0.212114, 0.060059, -0.109121, 0.067413, -0.015588, 0.168200, 0.124549, 0.031752, -0.089529, -0.094707],
  [0.045610, 0.024882, 0.048963, 0.049119, 0.037233, 0.030378, -0.012250, 0.192894, -0.425797, 0.079715, 0.125096, 0.017387, 0.043055, -0.518854, -0.245205, 0.133192, 0.015845, 0.032754, 0.057682, 0.114739, 0.333263, 0.061069, -0.035563, 0.079908, 0.027836, 0.101393, 0.043199, 0.100604, -0.015371, 0.138500, 0.022706, 0.174239, -0.194590, -0.128241, 0.099185, -0.132105, 0.037109, 0.066622, -0.021996, 0.030462, -0.067449, -0.060270, 0.084505],
  [-0.011996, 0.006359, 0.143331, 0.098973, 0.005582, 0.184808, 0.179892, -0.078180, -0.021255, 0.004116, 0.095407, -0.049143, -0.013134, 0.041059, 0.033146, 0.026529, 0.113039, -0.103842, 0.092749, 0.217366, -0.054332, 0.037404, -0.136274, 0.064441, 0.090043, 0.130119, 0.072249, 0.132849, 0.031181, -0.062141, 0.129858, -0.025431, -0.058871, -0.065653, -0.277600, -0.173964, 0.042156, 0.113892, 0.057502, -0.080593, 0.002378, -0.248882, 0.030505],
  [-0.045708, 0.055690, 0.016233, 0.182014, 0.315283, 0.059857, 0.141953, -0.060800, -0.013689, -0.014789, 0.275410, -0.512581, -0.131524, -0.043187, -0.102300, 0.022733, -0.236583, 0.250547, 0.017629, 0.063908, 0.069440, 0.046395, -0.100993, -0.471187, -0.134911, 0.103547, -0.138742, 0.092376, 0.119447, -0.469379, -0.014229, -0.083644, 0.011839, -0.110919, -0.052359, 0.080385, 0.283584, 0.233898, 0.017680, -0.145751, 0.020818, -0.644950, -0.044606],
  [0.135670, -0.015761, -0.207900, -0.287364, -0.188405, -0.042722, 0.047008, 0.056298, -0.050567, -0.107868, -0.276575, 0.229675, 0.153344, -0.018500, 0.017300, 0.107445, 0.059934, -0.647269, 0.093984, 0.030137, -0.005093, 0.201774, -0.019201, -0.413756, -0.054103, -0.097644, 0.029964, 0.141266, 0.284036, -0.676378, -0.083811, -0.037199, -0.025998, -0.068706, -0.283902, 0.260489, -0.211861, 0.184419, -0.492503, 0.061601, -0.438908, 0.338647, 0.107391],
  [-0.225931, -0.029478, -0.180351, -0.477091, 0.087609, 0.000625, -0.268037, 0.001539, -0.089517, -0.009719, -0.394332, -0.507043, -0.075392, 0.081722, 0.069470, 0.089404, 0.183518, 0.055664, 0.085527, 0.040927, 0.019508, 0.213489, -0.115306, 0.227238, 0.222479, -0.079205, -0.083177, 0.058068, 0.227850, -0.543809, 0.146262, 0.014226, 0.091147, 0.039400, -0.173108, 0.238159, 0.198943, 0.307052, -0.007566, 0.054264, -0.055112, 0.082928, 0.154042],
  [0.232820, -0.549293, -0.235745, 0.047550, 0.028228, 0.041320, -0.124455, -0.029478, -0.030724, -0.041289, -0.024667, 0.030044, -0.138619, -0.031367, 0.036977, -0.057930, -0.084588, -0.217448, 0.060164, -0.031166, 0.017284, 0.023083, 0.034268, 0.291024, 0.191796, -0.052521, -0.025440, -0.028438, -0.213835, 0.069955, 0.142414, 0.026374, -0.031150, -0.021411, -0.374758, 0.311302, 0.141103, -0.102250, 0.101131, 0.128275, 0.215396, -0.002300, -0.065080],
  [-0.203978, -0.030447, -0.427585, -0.278448, -0.048866, 0.080800, 0.156151, 0.119224, 0.209941, -0.086268, -0.124204, 0.009654, 0.041361, 0.156825, -0.070717, 0.135340, -0.079490, -0.295269, 0.167641, 0.081595, -0.029532, 0.015903, 0.059240, 0.036030, 0.004987, -0.068829, -0.102762, -0.084261, 0.181894, 0.119264, 0.104363, -0.010220, 0.110347, -0.097857, 0.074183, -0.067695, -0.026205, -0.195206, 0.073020, -0.249621, -0.071546, -0.131288, 0.001538],
  [0.041850, -0.007076, -0.047961, -0.030203, -0.005987, 0.025511, -0.135213, 0.052201, -0.003145, -0.323291, 0.047479, 0.131841, 0.118326, -0.350991, -0.011166, -0.293177, 0.202765, -0.074537, 0.212862, 0.312448, 0.005528, 0.043639, -0.036144, -0.060863, -0.022158, 0.162973, -0.526805, -0.212390, -0.404582, 0.078011, -0.034110, 0.043676, 0.005931, 0.171913, -0.042311, 0.148552, 0.010246, -0.008043, 0.004394, -0.074130, 0.107907, 0.039163, 0.069323],
  [-0.091241, -0.064132, -0.155756, 0.045033, 0.058401, -0.258752, 0.115438, 0.121721, 0.041470, -0.042886, 0.017140, -0.118817, 0.090895, 0.016127, -0.060800, 0.109209, -0.181246, 0.088014, 0.081053, 0.085859, -0.007814, -0.041057, 0.206467, 0.070512, 0.059887, 0.038532, 0.007887, -0.085416, -0.096196, 0.228349, -0.035583, -0.128309, 0.085203, -0.073035, 0.074552, 0.161963, 0.153764, 0.125072, 0.118252, 0.012239, -0.143394, -0.341033, -0.104416],
  [-0.114395, -0.021016, -0.009570, 0.044345, -0.076374, 0.118955, 0.016035, -0.015993, -0.274018, -0.142969, 0.104646, 0.146854, 0.007491, 0.253790, 0.127538, 0.052743, -0.025815, 0.083365, 0.203441, -0.037494, 0.033937, 0.115667, -0.135697, -0.078935, -0.158548, -0.390862, -0.455958, 0.118666, -0.179194, -0.121315, 0.040657, 0.148495, -0.006054, -0.000216, 0.029085, 0.064625, 0.029678, -0.023778, 0.081013, -0.163684, 0.036728, -0.089840, 0.050654],
  [-0.004500, -0.069988, 0.014987, -0.153659, -0.107105, 0.360969, -0.048145, 0.004703, 0.067840, 0.091525, 0.019080, 0.059528, -0.095342, -0.000571, 0.128265, 0.083369, -0.007443, -0.048129, 0.130830, 0.055026, 0.070639, 0.191575, -0.229989, -0.163308, 0.073106, 0.022377, 0.088936, 0.017912, -0.316304, 0.034039, 0.116606, -0.029098, 0.138504, 0.153300, -0.088611, -0.374867, -0.044942, -0.019450, -0.140431, -0.189908, 0.037818, 0.479798, -0.030493],
  [-0.084893, -0.284780, -0.141588, 0.074780, 0.004087, -0.076691, 0.163668, 0.174676, 0.040227, -0.009272, -0.099819, -0.002987, 0.048848, 0.120547, 0.045463, -0.024013, -0.134071, 0.068332, 0.034888, 0.191201, -0.023203, 0.032564, -0.036110, -0.353554, 0.016739, -0.094157, 0.061770, 0.041704, -0.279109, 0.438200, 0.005024, 0.093106, -0.008370, -0.128897, 0.107720, -0.238715, -0.124208, 0.159574, 0.146137, -0.010024, 0.145991, -0.061676, -0.085608],
  [0.071207, -0.097341, -0.119604, -0.138549, 0.022715, 0.175031, 0.015223, 0.203703, 0.039504, -0.071132, 0.087338, -0.075247, -0.095395, 0.029619, -0.104542, -0.011671, -0.001319, -0.000204, -0.012563, 0.201701, 0.088252, 0.045558, -0.051280, -0.040467, 0.002739, -0.309796, 0.074933, -0.152480, 0.140177, -0.182993, -0.028240, -0.146822, 0.005418, 0.233107, 0.218334, -0.238961, 0.000860, 0.035004, -0.100401, -0.004513, 0.004455, 0.078187, -0.079312],
  [0.008065, 0.031474, 0.127581, 0.090391, 0.146831, 0.176230, -0.047785, 0.210528, 0.162777, 0.189475, 0.244530, -0.155259, -0.068369, 0.141926, 0.105265, -0.489023, 0.028024, -0.033957, -0.009481, -0.420562, -0.496943, -0.321847, -0.075331, 0.004988, 0.000901, 0.296705, 0.311387, 0.122096, -0.024552, -0.080435, 0.082757, -0.170986, 0.027085, -0.153373, 0.192051, -0.203730, -0.009173, -0.009093, 0.007315, 0.108093, 0.087180, 0.066387, 0.127943],
  [-0.086204, -0.061571, 0.068057, -0.063526, 0.048438, 0.037506, -0.072283, 0.110778, 0.086942, -0.041965, -0.202543, -0.138238, 0.137086, 0.103255, 0.048827, 0.032417, -0.027437, 0.137945, -0.076587, 0.108611, -0.354899, 0.202657, 0.063295, 0.315183, 0.170685, 0.050976, 0.140104, 0.109411, 0.085873, 0.088766, 0.052815, -0.068209, 0.151568, 0.063672, -0.170803, -0.238280, -0.094517, 0.046023, 0.141234, 0.074900, 0.050875, -0.029071, 0.078554],
  [0.087609, -0.056009, -0.361236, -0.099893, -0.001329, -0.084439, 0.027540, 0.070013, 0.110054, -0.062957, 0.209595, -0.079253, 0.004803, 0.116782, -0.047876, 0.007763, 0.110737, -0.376541, 0.068864, 0.045640, -0.021361, -0.037219, 0.148735, -0.068681, 0.009586, -0.021115, -0.125962, -0.012411, 0.384282, 0.001983, 0.043553, 0.060488, 0.106009, -0.003397, 0.069361, -0.065873, -0.277458, -0.333592, -0.096248, -0.013030, -0.014409, -0.062112, 0.083919],
  [0.248081, -0.026596, 0.094715, 0.068128, 0.112060, 0.021437, 0.076036, -0.021971, 0.001957, 0.064403, -0.034174, -0.460308, -0.044088, -0.047732, -0.102006, 0.003057, -0.225477, 0.171196, 0.049693, 0.019827, 0.006199, 0.014342, -0.280509, 0.228645, 0.211561, 0.050625, 0.104019, 0.001629, -0.093267, -0.267732, -0.132948, -0.057910, -0.032685, 0.017800, 0.318693, -0.574702, 0.085711, -0.024968, -0.058485, -0.042444, -0.422566, 0.165780, 0.046592],
  [-0.253793, -0.199537, -0.348869, -0.189051, -0.033035, 0.008589, 0.209770, 0.056356, 0.106960, 0.069495, 0.127654, -0.353769, 0.029849, 0.110709, 0.060472, 0.096173, -0.122088, 0.124777, 0.111138, 0.027499, -0.090265, 0.056594, 0.081539, 0.075557, 0.012883, 0.025114, 0.010576, 0.087233, -0.381634, -0.062172, 0.163049, 0.091685, 0.146560, 0.097408, -0.081658, -0.284189, -0.216388, -0.251914, -0.399649, -0.109212, -0.009515, -0.124346, 0.150904],
  [0.051840, 0.154674, -0.162439, -0.115811, 0.280246, 0.040041, -0.001219, 0.042182, 0.055173, 0.111406, 0.068135, 0.129866, 0.032456, -0.045922, -0.075807, -0.057076, 0.192258, -0.132438, -0.078883, 0.009989, -0.073957, -0.001943, 0.130535, 0.146679, 0.017238, -0.095020, -0.057250, -0.075475, 0.109448, 0.106061, -0.183239, 0.046069, -0.199707, 0.015833, 0.084499, 0.143254, 0.205040, -0.025320, 0.140166, -0.117286, 0.080103, 0.021749, 0.124620],
  [-0.359999, -0.436022, -0.090763, -0.201159, 0.031864, 0.055976, -0.119022, 0.026836, 0.127115, 0.051672, -0.026687, 0.317768, -0.068564, 0.058556, 0.063068, -0.084372, 0.295540, 0.332915, 0.002955, 0.042630, 0.094931, -0.043241, -0.046680, 0.098389, 0.155012, 0.090136, 0.140331, -0.088195, 0.149837, -0.332805, 0.077998, 0.075454, -0.077113, 0.111643, 0.252130, 0.185564, 0.110246, 0.097981, -0.075024, 0.031995, -0.392272, 0.363331, 0.137403],
  [0.137328, 0.042001, 0.099156, 0.069952, -0.126309, -0.502808, 0.103362, 0.053844, -0.163863, -0.073822, 0.071738, 0.017486, 0.116383, -0.100636, -0.101579, 0.078273, -0.140313, -0.378342, 0.038676, 0.164074, -0.091288, 0.008196, -0.054204, -0.044839, -0.005099, 0.102467, -0.128304, 0.036314, 0.112822, -0.150429, -0.002460, 0.117673, 0.121582, -0.044927, 0.073922, -0.080379, 0.007270, -0.246733, -0.002665, -0.408581, -0.203140, -0.133144, -0.017342],
  [0.114467, -0.219537, -0.144725, -0.051588, -0.286720, 0.055335, 0.070772, 0.083193, -0.052038, 0.033128, 0.064201, -0.015415, 0.132959, 0.017173, 0.064006, 0.032410, 0.014707, -0.082264, 0.075586, 0.066010, -0.041432, -0.050216, 0.103150, -0.124826, -0.129555, -0.085411, 0.073214, 0.047341, 0.004431, 0.088480, -0.024796, 0.009984, -0.016620, -0.129772, 0.044847, 0.000694, 0.104186, 0.092122, -0.108679, -0.004146, -0.029293, -0.303655, 0.107101],
  [0.140084, 0.082933, 0.050498, 0.012336, 0.071636, -0.015757, 0.017243, 0.035201, -0.049647, -0.023627, 0.048742, 0.099059, -0.061736, 0.140095, 0.008312, 0.156449, 0.064076, 0.120932, 0.040915, 0.056810, -0.017716, 0.062504, 0.005450, 0.057247, -0.027748, 0.180286, -0.159343, 0.034311, -0.016744, 0.082159, -0.098493, -0.115275, 0.013026, 0.153255, 0.061773, 0.070687, 0.019831, 0.104506, 0.017275, 0.008931, -0.058585, -0.141416, 0.007304],
  [0.034588, 0.060433, 0.046535, -0.057225, -0.010493, 0.025526, 0.038420, 0.097999, -0.029411, 0.158009, -0.059041, -0.070408, -0.187514, -0.305391, 0.365011, -0.031506, 0.022348, -0.010492, 0.078392, 0.049863, 0.075016, 0.043986, -0.105174, -0.031646, -0.016777, 0.133025, -0.351538, 0.070427, -0.005136, -0.127931, 0.000370, 0.033592, -0.164209, 0.108703, 0.048357, -0.227338, -0.002764, -0.028314, 0.071795, 0.022847, -0.029747, -0.019847, -0.021573],
  [-0.090871, 0.024435, 0.043800, -0.021033, -0.170884, -0.013019, 0.056429, -0.044274, 0.092056, 0.113043, 0.014447, 0.043436, 0.009128, 0.149695, -0.188948, -0.126736, 0.082250, 0.059533, 0.212093, -0.121948, -0.164379, 0.306895, -0.002478, -0.277738, -0.164737, 0.010126, -0.041234, 0.049758, -0.240065, 0.127507, 0.028804, -0.078233, 0.144342, 0.001709, -0.115845, 0.250821, 0.105775, -0.130917, 0.085046, -0.029186, -0.057836, -0.078655, -0.045043],
  [0.090118, 0.027754, -0.024699, 0.053829, 0.381189, 0.066285, -0.324722, -0.090575, -0.060774, -0.045461, 0.283583, 0.534467, -0.113092, 0.084217, 0.053815, 0.035243, -0.265794, -0.429738, -0.216874, 0.142873, 0.052335, 0.023941, -0.074002, 0.126705, -0.208445, 0.039973, 0.114776, 0.047434, 0.315939, -0.551692, -0.256705, -0.099437, 0.017064, 0.156095, -0.297765, 0.010588, -0.023998, -0.027450, 0.471226, 0.184694, 0.244754, 0.121509, 0.142035],
  [0.001555, 0.081375, 0.003560, -0.006143, 0.205217, 0.358392, -0.039567, -0.054836, -0.022232, 0.093944, 0.196818, 0.261923, 0.051027, -0.010494, -0.053238, -0.203177, 0.011068, 0.120564, -0.017373, 0.159967, 0.060575, -0.015986, -0.039269, -0.096233, 0.002314, -0.226911, 0.146483, 0.045567, 0.190941, 0.133302, 0.114615, 0.180448, -0.020527, -0.030779, 0.222237, 0.206326, 0.062508, 0.068946, 0.157209, -0.026937, 0.088145, 0.336619, 0.165942],
  [-0.077767, 0.162856, 0.218183, -0.345737, -0.111555, 0.405245, -0.030327, 0.023832, -0.027890, 0.078737, -0.390298, -0.229082, -0.034018, -0.067535, 0.040856, -0.113676, -0.203536, -0.019896, -0.037659, -0.043149, -0.359918, 0.123963, -0.050195, 0.133366, -0.031820, 0.008838, -0.021218, 0.054577, 0.157181, -0.028906, 0.179238, -0.055172, -0.078179, -0.091951, -0.000438, -0.219604, 0.050416, 0.091257, -0.309652, 0.321312, -0.630253, 0.152106, -0.027055],
  [-0.066573, -0.016322, -0.069207, 0.064362, 0.013073, 0.065146, -0.091412, -0.135763, 0.222960, 0.160249, 0.080087, -0.091123, 0.049175, -0.254938, 0.121239, -0.195332, -0.428469, -0.123203, 0.025888, 0.300646, -0.123144, 0.140541, 0.007629, 0.090773, -0.059645, 0.324710, -0.270472, 0.129520, -0.007428, -0.015708, 0.079652, 0.129386, 0.096823, 0.033998, 0.003532, -0.067971, 0.034005, 0.043153, 0.172220, -0.085792, -0.063731, -0.038184, -0.038056],
  [-0.033964, 0.198798, -0.509979, -0.531679, -0.128504, 0.001999, 0.167394, 0.036689, 0.161911, 0.041938, 0.020749, 0.080464, -0.311405, 0.088272, 0.050299, -0.019510, 0.011937, 0.144165, -0.100640, 0.005630, 0.025387, -0.001347, -0.008148, 0.032009, -0.057115, 0.093625, -0.051629, -0.016457, -0.408244, 0.221393, 0.090938, 0.155065, 0.035577, 0.106589, 0.025350, -0.187964, 0.134106, 0.133772, 0.000993, -0.063087, 0.215897, 0.118176, -0.042265],
  [0.026406, 0.084439, -0.058533, 0.028971, 0.040428, 0.122469, 0.121472, 0.010616, 0.017417, 0.029263, -0.105691, 0.085250, 0.119877, -0.171937, 0.062263, -0.037793, 0.042689, -0.004251, -0.075104, 0.023878, -0.075581, -0.021802, -0.055511, 0.164509, 0.039235, -0.137595, -0.025392, -0.233932, 0.116982, 0.250798, 0.148539, -0.055871, -0.131573, -0.237459, -0.224558, 0.055365, 0.017251, -0.133312, -0.113463, 0.055592, 0.008595, 0.231816, -0.120961],
  [-0.042993, -0.034070, -0.109964, -0.008376, 0.131698, -0.000847, -0.086944, -0.045479, -0.087915, 0.360890, 0.082705, -0.026676, -0.006942, 0.335672, 0.165154, 0.099100, 0.060267, 0.046293, -0.134015, 0.382871, 0.008785, 0.023798, -0.023246, -0.016643, -0.057636, -0.069127, -0.094303, -0.397493, 0.154672, -0.059193, 0.048022, -0.047185, 0.084161, -0.035738, -0.073786, 0.102691, -0.020394, -0.041577, 0.015902, -0.039188, 0.087404, -0.127095, -0.026905],
  [0.136740, -0.025404, 0.020608, -0.008764, -0.513419, -0.045917, 0.020445, 0.051357, 0.003570, 0.050850, 0.068657, -0.172668, 0.021652, 0.026352, 0.032360, 0.011752, 0.041461, -0.439905, 0.104792, -0.003286, 0.169108, 0.036997, 0.082487, -0.251797, 0.084612, 0.006565, 0.141417, 0.003510, 0.119277, -0.045826, 0.118371, -0.000292, 0.048874, 0.036406, 0.005738, 0.050873, -0.426354, -0.268003, 0.191097, -0.211177, 0.145300, -0.080472, -0.011926],
  [-0.034184, 0.117040, 0.036729, 0.000490, 0.015536, -0.062977, 0.068477, -0.008247, -0.162201, 0.033857, 0.010490, 0.093979, 0.156081, 0.090377, 0.047103, -0.133621, 0.146590, 0.040509, -0.082484, -0.117501, -0.048841, 0.005702, 0.148982, -0.024298, 0.068984, 0.086713, 0.048913, -0.083026, 0.182654, -0.005397, -0.112879, 0.150475, 0.157642, 0.005349, 0.080826, -0.149185, -0.128907, 0.162819, 0.078484, -0.051310, 0.123608, -0.012522, -0.030510],
  [-0.005768, 0.027604, -0.049029, -0.092049, 0.056972, 0.003412, 0.085044, -0.040372, 0.097369, 0.080720, 0.040684, -0.062723, -0.142753, 0.026923, -0.104425, 0.106821, -0.217948, -0.005651, 0.047811, -0.020173, 0.018920, -0.012211, -0.090579, 0.130439, -0.032110, 0.067109, -0.028407, -0.044699, 0.181340, -0.057259, 0.065944, 0.126709, 0.145850, -0.036279, 0.013528, -0.032093, 0.124119, 0.076873, 0.140177, -0.106926, 0.060777, -0.106063, -0.023195],
  [0.009294, 0.033241, 0.048411, 0.035257, 0.038609, 0.019340, 0.019996, -0.216265, 0.032557, -0.134775, 0.225390, -0.113461, -0.194935, 0.284146, 0.058193, 0.028377, -0.019004, 0.214434, 0.269122, -0.536333, -0.445621, -0.288848, -0.087507, -0.010108, 0.011123, 0.208409, -0.080778, -0.223351, -0.014887, 0.150075, 0.026291, 0.029943, 0.065026, 0.065324, 0.017400, -0.008308, 0.011399, 0.026217, 0.090731, 0.040472, -0.004298, 0.022552, -0.146236],
  [-0.075357, 0.141501, 0.012242, 0.023358, -0.037952, 0.102529, -0.001037, -0.206433, 0.119819, 0.173448, 0.112395, 0.074121, 0.024964, -0.155572, 0.199552, 0.042080, 0.095033, 0.095352, -0.543224, -0.385294, 0.092248, -0.090591, 0.412516, 0.022865, -0.127038, 0.064502, -0.341280, 0.044773, -0.054747, 0.026655, 0.118627, 0.109958, -0.052200, 0.006431, 0.086747, -0.175391, 0.099084, 0.090594, 0.084925, 0.031370, 0.057416, -0.087867, -0.096243],
  [0.059818, -0.068983, 0.084781, 0.052463, 0.149579, -0.146636, 0.102900, -0.081309, 0.206842, 0.077088, -0.003130, -0.037442, -0.045592, -0.036231, -0.011510, 0.200917, -0.062548, -0.032524, -0.105884, 0.228348, 0.011454, 0.048327, -0.006801, 0.014324, -0.063782, 0.102127, -0.098052, -0.028327, 0.044842, -0.037530, -0.054318, -0.076637, -0.044774, 0.159352, -0.005410, -0.299858, 0.102322, -0.077738, -0.181989, -0.056904, 0.098091, -0.055264, 0.125112],
  [0.085765, -0.331866, -0.080564, 0.036969, -0.223086, -0.076451, 0.070337, 0.097676, -0.016878, -0.061946, -0.418700, -0.184764, -0.017555, -0.018553, -0.024326, 0.047143, 0.066666, 0.131140, 0.005592, -0.045945, 0.011409, 0.037913, 0.112538, -0.516375, 0.127646, 0.000477, -0.128453, 0.022454, -0.335782, -0.147021, 0.049473, 0.032928, 0.060401, -0.116886, -0.117786, -0.030678, 0.055901, 0.039392, -0.020631, -0.400802, -0.205607, -0.048429, -0.035273],
  [-0.475174, -0.131052, 0.261005, -0.181356, 0.024761, -0.167273, 0.074720, 0.028037, 0.038775, -0.034635, 0.066442, 0.052265, 0.121464, 0.031137, 0.068946, -0.029243, -0.326219, 0.157868, 0.138624, 0.011629, 0.049564, 0.048171, 0.253473, -0.075027, -0.033330, -0.048302, 0.081651, 0.000163, -0.005881, 0.483930, -0.094970, 0.046508, 0.025282, 0.200370, -0.374309, -0.177449, 0.002495, 0.021409, 0.012510, 0.116666, 0.035717, -0.010904, -0.054867],
  [0.002877, -0.022669, -0.015613, -0.106652, 0.041996, 0.015823, -0.032477, 0.005774, -0.100034, -0.093399, 0.050434, 0.124008, -0.032720, 0.165317, -0.219797, 0.055891, 0.045012, -0.045222, -0.012477, 0.235034, 0.169507, -0.584207, -0.105089, 0.141203, 0.053577, 0.083462, 0.208699, -0.038520, 0.002306, 0.041041, 0.027050, -0.232085, -0.117241, -0.068252, 0.144551, -0.023886, 0.000220, -0.048804, -0.073767, -0.038009, 0.087537, -0.048732, -0.123556],
  [0.162069, 0.109337, -0.068702, -0.073370, -0.083412, -0.188446, 0.114404, 0.124357, 0.148773, 0.129229, -0.051776, -0.209245, -0.109366, -0.091687, -0.093589, 0.108604, 0.118678, -0.109932, 0.062484, 0.036457, -0.037592, 0.133505, 0.116130, 0.150769, 0.098346, 0.049284, -0.042295, 0.019987, 0.081589, 0.049575, -0.044049, 0.031618, -0.009360, 0.055014, 0.108590, -0.290400, 0.074793, -0.024353, -0.194781, -0.266493, -0.177846, -0.090661, 0.128905],
  [0.153606, -0.138153, -0.181594, -0.301889, -0.163538, -0.102199, 0.026200, -0.096199, -0.151394, -0.027906, -0.096170, -0.194082, 0.290335, -0.066832, -0.066169, -0.075739, 0.081940, 0.154742, 0.149016, -0.072838, -0.087048, 0.110562, -0.147945, -0.195720, 0.194529, -0.127694, -0.026667, 0.124505, 0.071928, 0.057297, 0.018891, -0.140481, -0.069797, -0.026228, 0.266471, -0.560402, -0.050233, -0.291430, 0.148457, -0.144348, -0.458422, -0.086050, 0.041105],
  [-0.009681, 0.237888, -0.307318, -0.404535, -0.043357, -0.368057, 0.122873, 0.010820, 0.036503, 0.053662, 0.052954, -0.098051, -0.088377, 0.061312, 0.011560, 0.025440, 0.149284, 0.030977, -0.051823, -0.021044, 0.053164, 0.006931, -0.086865, -0.287592, -0.065755, -0.006528, 0.068043, -0.006339, 0.008497, -0.113783, -0.155516, 0.027776, 0.037800, 0.019359, 0.025529, 0.401140, 0.133365, -0.460724, -0.261312, -0.423036, 0.071096, 0.566480, 0.009455],
  [0.171129, 0.149916, -0.108524, 0.123932, -0.115745, 0.015988, 0.076248, -0.149546, -0.198699, 0.056776, -0.021919, -0.189916, 0.023826, 0.014572, 0.072597, -0.094619, 0.116467, 0.059492, 0.010457, 0.099216, -0.125343, 0.030460, -0.107466, 0.098028, -0.052965, -0.055575, 0.023691, 0.082778, 0.070230, 0.015480, 0.090542, -0.247576, 0.078988, -0.029019, -0.209469, 0.264575, 0.077387, 0.027331, -0.032640, 0.048399, -0.000394, -0.232044, 0.138840],
  [-0.025532, 0.113788, -0.063708, 0.032061, -0.189107, 0.398834, -0.195749, 0.075495, 0.084183, -0.045203, 0.219517, 0.003045, -0.105495, 0.059647, 0.065355, -0.038640, 0.155308, 0.012553, 0.023928, 0.093120, 0.058743, -0.004478, 0.153104, -0.171191, -0.000198, -0.009376, -0.027382, -0.067129, -0.356271, 0.352844, 0.104545, -0.029895, -0.011039, -0.158872, 0.074732, -0.123238, 0.371468, -0.224772, 0.049740, -0.110031, -0.463228, 0.314349, -0.146119],
  [0.174927, 0.226081, 0.159111, 0.023930, 0.003804, 0.293769, -0.352714, 0.109129, 0.080939, -0.040186, -0.575079, -0.298673, -0.321113, 0.068609, 0.118671, 0.097830, 0.148602, 0.064877, -0.234854, 0.123247, 0.098343, 0.105542, 0.201259, -0.014779, -0.309802, 0.033018, 0.059349, 0.126414, 0.233417, -0.133154, 0.166267, 0.116090, 0.067494, 0.092560, 0.010461, 0.212525, 0.176467, 0.124784, 0.092590, 0.013854, 0.183095, 0.017293, 0.010585],
  [-0.059392, -0.036553, -0.067716, -0.064625, -0.062306, -0.164905, 0.051642, -0.051543, 0.091345, -0.007933, 0.068866, 0.025472, 0.182630, 0.071443, -0.044104, 0.147366, -0.018198, 0.116624, -0.020322, 0.139967, 0.014621, 0.084697, 0.123294, 0.140986, 0.044496, 0.144029, 0.001500, 0.067558, -0.054320, 0.015326, 0.057046, 0.073133, -0.082426, 0.173634, 0.115608, -0.358850, 0.074789, -0.144740, 0.115040, 0.025210, 0.094590, -0.038096, -0.135910],
  [0.061575, 0.149678, 0.110023, 0.024514, -0.094678, -0.720202, 0.112085, -0.079143, -0.218252, -0.105627, 0.008010, 0.138975, 0.137134, -0.168093, -0.194482, -0.063807, -0.045260, 0.282143, 0.099995, -0.061221, -0.139325, -0.121905, 0.016448, 0.060874, 0.077957, -0.011638, -0.034682, -0.018709, 0.248941, -0.186867, 0.034649, -0.197364, -0.237581, 0.077475, 0.022226, 0.255067, 0.136994, 0.049646, 0.188518, 0.056569, -0.083456, 0.164654, 0.059429],
  [-0.420408, 0.153765, 0.039131, 0.157223, 0.027287, -0.011143, -0.325188, 0.089206, 0.110047, 0.130296, 0.163552, 0.043509, -0.260918, 0.125859, 0.126677, 0.111590, 0.087283, 0.117455, -0.220871, 0.091436, 0.086965, 0.095576, 0.042932, 0.188119, 0.196476, 0.128334, 0.100312, 0.097397, -0.447977, -0.240186, 0.118852, 0.140983, 0.112063, 0.115593, 0.179365, -0.436271, 0.110545, 0.110842, 0.110902, 0.106291, 0.072410, 0.120349, 0.071166],
  [-0.208248, 0.380390, 0.219009, -0.072433, -0.436084, -0.540858, 0.068349, 0.049290, -0.040504, 0.013385, -0.369502, -0.017246, -0.004646, 0.042155, -0.038913, 0.025825, 0.154343, -0.485761, 0.003756, 0.008145, 0.014141, 0.041686, 0.060658, -0.054827, -0.045175, -0.043298, 0.001142, -0.000939, 0.015738, 0.416976, -0.049176, -0.041471, 0.077871, -0.070363, -0.305893, 0.140262, 0.206146, -0.457763, -0.335753, -0.188316, -0.049981, 0.039206, 0.124680],
  [0.205200, -0.248538, -0.282834, 0.067118, -0.274376, 0.046839, 0.059870, 0.066854, 0.036668, 0.100069, -0.303959, -0.470143, -0.068957, 0.080875, 0.025789, 0.079528, -0.044701, -0.356036, -0.022970, 0.110862, 0.051042, 0.016007, -0.245525, 0.389765, -0.432277, 0.066143, 0.048287, 0.096514, -0.214274, 0.367430, 0.005327, 0.021309, 0.109132, 0.009199, 0.244379, -0.173580, 0.159518, 0.145144, 0.048021, 0.064503, -0.014459, 0.035400, 0.101604],
  [-0.022322, 0.017382, -0.071500, -0.350980, -0.235104, -0.053486, 0.096338, -0.019585, 0.041951, 0.007216, -0.412668, 0.109944, 0.096305, 0.105043, -0.079917, -0.106327, -0.234339, 0.312353, -0.005740, 0.048938, -0.010259, 0.294109, 0.036182, 0.124119, -0.013670, 0.004826, 0.122850, -0.028001, 0.073859, 0.011492, 0.037991, -0.097098, -0.042971, 0.003632, 0.143354, -0.070860, -0.038478, 0.064576, 0.096729, 0.050592, -0.070186, -0.053934, 0.052706],
  [0.080690, 0.012780, 0.109681, 0.048286, 0.104212, 0.081340, -0.002437, 0.001916, 0.136270, 0.003857, 0.069813, 0.047466, -0.073864, -0.062655, 0.045093, 0.058394, -0.031539, -0.067893, 0.061088, 0.173641, -0.453671, 0.034177, 0.059658, 0.083227, -0.001324, -0.259880, 0.290079, -0.142016, 0.018255, -0.075173, -0.035155, -0.048928, 0.179153, 0.103431, -0.179713, 0.129566, -0.026699, 0.027223, 0.046400, 0.025382, -0.090089, -0.006796, 0.099487],
  [0.081039, 0.167335, -0.272989, -0.035760, -0.409925, -0.110371, -0.171089, 0.040587, -0.074076, 0.138315, 0.243545, -0.098853, 0.064366, 0.018132, -0.099721, 0.071695, 0.117345, -0.312622, 0.073096, -0.010346, 0.049531, -0.038530, -0.175610, 0.110579, -0.216244, 0.105966, 0.128861, 0.118911, 0.240033, 0.012526, 0.169732, 0.085481, 0.052065, -0.113382, 0.080186, -0.055832, 0.008320, -0.121117, -0.333522, -0.123130, -0.026822, -0.152296, -0.140162],
  [0.097428, -0.029450, -0.040603, -0.077462, -0.092410, 0.098887, -0.203036, 0.205340, -0.618351, -0.175549, -0.003785, -0.075803, 0.051471, 0.142687, 0.209789, -0.234874, -0.014600, -0.024082, -0.139412, 0.284653, -0.185693, 0.156590, -0.012379, -0.357781, 0.169687, 0.077364, -0.052270, 0.104857, -0.005954, 0.125294, -0.240222, 0.096667, 0.053505, -0.201998, -0.153299, -0.237202, -0.030454, -0.057308, 0.161789, -0.071092, 0.185849, -0.558151, -0.127805],
  [0.199323, 0.268202, 0.104347, 0.098141, 0.064863, -0.117305, -0.024365, -0.065698, -0.198140, 0.081215, -0.011411, -0.285204, -0.026540, -0.059018, 0.013572, -0.035584, 0.307805, 0.076084, 0.023335, 0.001009, -0.021816, 0.018505, -0.056360, 0.052988, 0.062032, -0.073837, -0.088828, -0.041496, -0.160364, 0.328036, -0.031170, -0.078529, -0.144766, -0.036536, 0.203969, -0.192162, -0.324664, -0.191879, 0.019226, 0.273537, 0.489812, -0.664464, 0.035561],
  [0.026531, 0.050182, 0.014124, -0.120141, -0.010359, 0.107752, -0.003662, 0.160482, -0.055939, -0.179411, 0.005179, 0.065997, -0.064245, 0.205100, 0.085735, 0.012543, 0.091734, 0.057703, 0.007319, 0.136798, -0.444361, -0.162741, -0.249163, -0.005915, 0.016197, -0.541325, 0.118404, 0.128060, -0.065514, -0.040631, 0.101714, 0.180794, 0.148709, -0.037602, 0.187383, -0.249102, 0.054954, 0.074858, 0.130196, -0.007532, 0.124774, 0.078409, -0.079697],
  [-0.046660, 0.182601, 0.035941, 0.080582, -0.053025, -0.155662, 0.160631, -0.080099, 0.028126, 0.016105, 0.164836, 0.014053, -0.109608, 0.140081, 0.026692, 0.217738, 0.072483, 0.041056, 0.133217, 0.211511, -0.095865, 0.105675, -0.047703, -0.375219, -0.106535, 0.124041, 0.064437, 0.120572, -0.075167, 0.047948, -0.149248, -0.025271, -0.066269, 0.132522, 0.313523, -0.485816, 0.087883, -0.083229, 0.064210, -0.011455, 0.238107, -0.400422, -0.008668],
  [-0.132709, 0.057824, 0.365531, 0.134091, 0.113140, 0.075005, -0.256310, 0.095306, 0.052069, 0.032483, 0.266037, 0.175931, -0.002836, 0.063419, 0.091292, -0.015997, 0.191776, 0.160887, -0.015103, 0.114631, 0.001702, -0.012532, -0.138625, 0.038895, -0.019233, -0.008884, -0.208244, -0.089316, -0.318022, 0.013889, 0.042636, -0.001933, 0.168567, -0.119057, 0.184641, -0.477289, -0.297442, 0.214700, 0.205344, 0.082532, 0.265102, -0.671357, 0.009977],
  [-0.030451, -0.151049, 0.215284, -0.213513, -0.306143, 0.188691, 0.127122, 0.036213, -0.060148, -0.059717, -0.032851, 0.122031, 0.164219, -0.055697, -0.077843, 0.071552, -0.022820, -0.142421, -0.019350, 0.165544, 0.032080, 0.197258, -0.040370, 0.082487, 0.036489, 0.056748, -0.020127, -0.044483, 0.092081, 0.143032, 0.008700, 0.108354, 0.185562, 0.095981, -0.151602, -0.187094, -0.086364, -0.114629, 0.153370, 0.030306, -0.172434, -0.161103, -0.035415],
  [0.174946, 0.094276, 0.122184, 0.074675, -0.066162, 0.040100, -0.019405, -0.043187, -0.150150, -0.002505, 0.036151, 0.293481, -0.131500, 0.081559, 0.135375, -0.076888, 0.062351, -0.065006, 0.123068, 0.024550, -0.041957, 0.021504, 0.100740, 0.173415, 0.152696, -0.061434, 0.075377, -0.132961, 0.153471, -0.004015, -0.064051, -0.101569, 0.118828, 0.159060, 0.065153, 0.007275, 0.035107, 0.086505, -0.267063, -0.180198, 0.039184, 0.257818, 0.103949],
  [-0.003036, -0.066505, 0.116580, -0.113702, 0.035498, 0.095990, 0.125557, 0.157302, -0.065312, 0.106767, 0.000693, 0.010917, 0.003598, -0.089513, 0.011389, -0.023202, 0.045957, -0.262210, 0.071378, 0.182153, -0.049766, 0.015961, 0.089756, 0.019930, 0.054073, 0.085334, -0.133321, -0.052622, 0.089240, -0.035379, 0.134525, 0.115231, 0.040614, 0.078157, 0.048006, -0.105724, 0.061749, -0.161090, -0.073249, -0.115780, -0.147070, -0.019128, 0.136753],
  [0.250584, 0.036226, -0.043559, 0.141822, -0.058915, -0.312703, 0.193154, -0.106311, -0.007072, -0.071649, -0.148292, -0.098865, 0.011649, -0.086958, -0.056295, -0.057821, -0.092991, 0.129465, 0.104284, -0.001408, 0.030879, -0.056063, 0.100798, -0.183269, 0.141887, 0.108512, 0.140877, -0.068225, 0.095439, -0.031169, -0.074584, -0.002575, -0.189492, -0.000904, -0.430254, 0.405661, -0.199340, 0.058965, -0.116839, -0.361725, 0.152043, -0.164372, -0.100394],
  [-0.016578, 0.025758, 0.031873, 0.064492, 0.057244, -0.043398, -0.015416, -0.145911, 0.161929, -0.059010, 0.034966, 0.004243, 0.035897, -0.052015, -0.100897, 0.273026, 0.015175, -0.064307, -0.248080, 0.438639, -0.143681, 0.301818, 0.033770, 0.042865, 0.008486, 0.284139, -0.116551, -0.031659, -0.072713, 0.027314, 0.003766, -0.073394, 0.125591, 0.226560, -0.010938, -0.190429, 0.009487, -0.009623, 0.036086, 0.053634, 0.009892, -0.061841, 0.042523],
  [0.163310, -0.093913, 0.153162, -0.100379, 0.093272, -0.043921, 0.086703, -0.168569, 0.052151, -0.039370, 0.073934, 0.094729, -0.034220, -0.019092, -0.105095, 0.146615, 0.034425, -0.077476, 0.137186, 0.153929, 0.075310, 0.036837, 0.092852, -0.111948, -0.016287, -0.025251, -0.138756, 0.041247, 0.199262, 0.169874, 0.106578, -0.170433, 0.175899, 0.100160, 0.112385, -0.186061, -0.018483, 0.019771, 0.052834, -0.153163, -0.175538, -0.232989, 0.073124],
  [-0.116603, -0.259328, 0.147424, -0.555446, -0.255739, -0.066708, 0.174491, 0.051967, -0.055505, 0.030159, -0.282965, 0.185521, -0.021655, 0.004989, 0.080872, -0.074925, -0.065086, 0.208343, -0.042011, -0.007975, 0.076942, -0.048695, 0.055256, -0.028181, -0.357136, -0.024792, -0.008861, 0.098241, 0.236810, -0.302601, 0.122816, -0.014139, -0.016476, -0.077270, -0.417810, 0.134140, 0.026079, -0.320986, 0.151834, -0.588489, 0.029002, -0.181084, 0.132567]
]
