[
  [0.012555, -0.127996, -0.046241, -0.261719, 0.094434, 0.073853, -0.050434, 0.076305, -0.087356, 0.108162, 0.131936, 0.054405, -0.142759, 0.076188, 0.074558, -0.071490, 0.088378, -0.124916, 0.068517, -0.180195, 0.096199, -0.241800, 0.069577, 0.019711, 0.121876, 0.008846, 0.170449, -0.101737, 0.111185, -0.131418, -0.068225, 0.249646, -0.002095, -0.008408, 0.399578, -0.103065, -0.052050, 0.022222, -0.044810, -0.104455, -0.164897, -0.070702, 0.021834, 0.059559, 0.411055, 0.066080, -0.126564, 0.111933, 0.035812, 0.086125, 0.086916, 0.088969, 0.043067, 0.056091, -0.082772, -0.164814, 0.011760, 0.085845, -0.001402, -0.126925, 0.020695, -0.021926, 0.076279, 0.147037],
  [0.032602, -0.099036, 0.026699, -0.319691, 0.077738, 0.048285, 0.132109, -0.037188, -0.310592, 0.054958, 0.398041, -0.139341, -0.095858, 0.339126, -0.190691, -0.451828, -0.432993, -0.049520, -0.246423, -0.046190, -0.005922, -0.108247, 0.405436, -0.046507, 0.256277, 0.061183, -0.204717, 0.114557, -0.029473, -0.167447, -0.156965, 0.142705, 0.010828, 0.244084, 0.228120, 0.149587, 0.165668, 0.310775, 0.171228, -0.005577, 0.002602, 0.039631, -0.043192, -0.167015, 0.490927, -0.050336, -0.186822, 0.084403, -0.317788, 0.176023, 0.056672, 0.367899, -0.089970, 0.085280, -0.163518, -0.477298, -0.191123, 0.309649, 0.205866, -0.221155, 0.042443, 0.308332, 0.075853, -0.344490],
  [-0.072745, 0.163685, -0.089497, 0.292562, -0.087010, 0.011576, 0.050996, -0.015974, 0.152578, -0.006996, -0.339133, 0.024723, 0.224865, -0.202114, 0.220976, 0.412896, 0.331571, 0.114979, -0.052934, 0.271438, -0.008728, 0.200993, -0.333434, 0.001236, -0.183294, -0.042958, 0.015000, -0.038503, 0.038897, 0.195121, 0.137928, -0.152357, -0.064535, -0.066043, -0.244807, -0.011558, -0.051033, -0.273740, -0.083410, 0.153316, 0.138040, -0.113440, -0.080554, 0.175365, -0.418338, -0.003214, 0.007221, -0.027579, 0.444733, -0.069986, 0.060793, -0.209087, -0.048877, -0.087620, 0.187480, 0.333077, 0.201067, -0.436446, -0.180478, 0.209479, 0.192179, -0.128116, -0.077859, 0.441804]
]
