[
  [-0.004156, 0.051680, -0.079984, -0.014373, -0.052049, 0.034037, -0.034892, -0.047438, 0.085857, -0.052990, -0.030804, -0.075735, 0.013318, -0.082120, -0.024694, 0.036427, 0.001585, 0.009238, 0.041146, -0.067664, -0.024214, -0.051147, -0.083299, -0.048238, -0.020615, 0.008941, -0.023119, -0.024559, -0.058010, 0.049101, 0.013205, 0.010884, -0.066360, -0.093751, 0.037402, -0.034288, -0.042252, -0.058035, 0.067110, -0.060706, 0.068781, 0.059302, -0.061521, -0.032467, 0.026196, 0.041788, -0.081572, 0.034694, -0.024950, 0.030312, -0.077997, -0.044796, 0.000918, -0.081648, 0.002202, -0.037171, -0.073992, -0.162259, -0.009866, -0.036759, -0.035889, -0.053326, -0.037269, -0.051198, 0.055462, -0.057983, 0.039208, 0.065433, 0.018108, -0.095690, -0.039035, -0.083103, -0.089855, 0.021905, 0.051003, 0.024749, -0.047818, 0.049743, -0.060991, 0.045983, 0.066284, -0.020412, 0.032028, -0.000309, -0.032785, 0.000161, -0.054368, -0.052406, -0.024160, -0.018515, -0.061989, 0.017277, 0.027725, 0.057173, -0.039528, 0.025319, -0.064523, 0.054579, -0.093611, -0.053448, 0.051388, 0.016976, 0.030453, 0.057558, 0.024675, -0.050626, 0.009950, -0.085982, -0.078173, 0.049606, -0.008346, -0.002257, -0.097867, -0.087613, -0.066809, -0.030199, 0.062644, -0.035099, -0.079751, -0.086148, -0.092662, -0.009354, -0.022258, 0.041397, -0.076845, -0.053634, 0.062444, 0.033729],
  [-0.254655, 0.023905, 0.225247, -0.128787, 0.199281, 0.084296, 0.088796, 0.000016, 0.249726, -0.091446, -0.177978, 0.091677, -0.041489, -0.024311, 0.028416, 0.128022, -0.008596, 0.132570, -0.059014, 0.041028, -0.020093, -0.016662, -0.132076, 0.035646, 0.083653, -0.070990, -0.142291, 0.008325, 0.222287, 0.101369, -0.020142, 0.214479, 0.082086, -0.027323, 0.115824, 0.004378, 0.091862, 0.040615, -0.093755, -0.032347, -0.057919, 0.092688, -0.079660, -0.046452, 0.028466, 0.054786, -0.040660, -0.056884, -0.042356, -0.254490, 0.120795, -0.151983, 0.096682, -0.114726, -0.070664, 0.087137, -0.102851, -0.226634, 0.077381, 0.003232, 0.014120, -0.129766, 0.091709, 0.211582, 0.039268, 0.259635, 0.132273, 0.028109, -0.023827, 0.081915, -0.119050, 0.085687, 0.082611, -0.030588, -0.068665, 0.095168, 0.137355, 0.062829, 0.046714, -0.010712, 0.077804, 0.016415, -0.047287, -0.028831, -0.017059, 0.040176, 0.110861, 0.069210, 0.010910, -0.033706, 0.090339, 0.066529, 0.043672, 0.090624, 0.068361, -0.037909, -0.155924, -0.113256, -0.056407, 0.087947, -0.006460, -0.109557, -0.042012, 0.167610, 0.019631, -0.015636, 0.095323, 0.258490, 0.070132, -0.054834, 0.113675, 0.108125, 0.199868, -0.009336, -0.105931, 0.107249, 0.099934, 0.040901, -0.137058, 0.059330, 0.276265, -0.030007, 0.009011, 0.089483, 0.113516, -0.130323, -0.038741, 0.032286],
  [-0.023176, -0.049512, -0.040582, -0.024265, -0.048655, 0.007014, 0.034077, -0.019722, -0.022489, -0.037875, 0.045943, -0.034822, 0.011452, 0.055003, -0.052674, 0.011096, 0.024081, 0.016442, -0.015556, 0.060630, 0.000143, 0.027381, 0.058636, -0.044941, 0.052423, -0.098949, -0.061506, -0.067602, 0.061561, 0.010613, 0.014957, -0.011763, -0.068613, -0.079145, -0.083999, -0.044037, -0.043144, 0.045624, -0.046135, -0.029649, -0.024897, -0.030079, -0.017149, -0.036084, -0.094162, 0.025290, -0.059018, -0.075989, 0.052892, -0.039441, 0.046992, -0.036469, 0.036225, -0.095347, 0.019090, 0.057467, -0.074414, -0.131151, 0.001406, 0.046910, 0.019456, -0.002768, 0.037064, -0.095968, -0.047361, 0.040455, 0.020230, -0.059031, -0.010944, 0.034952, 0.023728, -0.099502, -0.064332, -0.100763, 0.045957, -0.068163, -0.024533, -0.065511, 0.050005, -0.043963, -0.003648, -0.083814, 0.047929, 0.062872, 0.019586, -0.085103, -0.100954, -0.046224, -0.013500, -0.008441, -0.031476, -0.043467, -0.005695, -0.052565, -0.018118, -0.091774, 0.017502, -0.001514, -0.006705, 0.053550, -0.075328, 0.001176, -0.097291, 0.065921, 0.036075, 0.024108, -0.000698, -0.001382, 0.051164, 0.039295, -0.095737, -0.038020, -0.019684, -0.043791, -0.059843, -0.030005, 0.008911, 0.044319, -0.101748, -0.056194, -0.098893, -0.090940, -0.008417, 0.000803, 0.023784, -0.086220, -0.086819, -0.086021],
  [-0.361801, -0.066547, 0.280187, -0.107420, 0.142988, 0.181300, 0.112749, -0.006171, 0.258144, -0.036296, -0.243715, -0.001322, -0.107867, 0.085978, 0.046667, 0.122723, -0.119244, 0.205944, -0.093425, -0.019512, -0.138253, 0.186045, -0.150928, -0.018102, 0.084475, -0.027264, -0.182095, 0.025942, 0.151916, 0.106466, 0.098251, 0.291651, 0.221938, -0.065909, 0.029955, 0.104112, 0.065030, 0.114674, -0.304939, 0.086145, -0.159919, -0.027526, -0.074391, 0.029013, 0.046247, -0.041643, -0.035033, -0.009569, 0.076464, -0.275017, 0.120664, -0.150000, 0.058671, -0.179740, -0.116368, 0.150267, -0.206012, -0.292848, 0.074712, 0.087830, -0.026170, -0.123224, 0.034283, 0.221010, 0.113919, 0.174772, 0.235146, 0.127895, -0.166763, -0.016159, -0.020852, -0.010291, 0.010447, -0.005447, -0.161135, 0.066944, 0.031816, 0.086636, 0.270919, -0.019846, 0.168572, 0.045039, -0.021170, 0.004753, -0.125783, 0.026021, 0.251278, -0.021704, 0.087821, -0.108388, 0.249239, -0.105305, -0.097017, 0.313788, 0.045310, -0.055733, -0.264566, -0.279969, 0.062623, -0.043370, 0.077610, -0.159840, -0.020160, 0.245558, 0.208910, 0.063209, 0.173302, 0.305471, 0.061212, 0.044730, 0.219872, 0.289566, 0.149669, -0.003921, -0.174565, 0.103398, 0.109122, 0.113366, -0.157741, 0.100412, 0.208279, 0.147768, 0.066164, 0.055607, 0.086017, -0.202322, 0.000755, 0.148410],
  [0.045214, 0.050798, -0.064472, 0.072825, -0.078763, -0.003647, 0.026092, 0.054201, -0.018478, -0.005264, -0.086633, -0.050867, -0.078531, -0.031770, -0.096594, -0.067836, -0.004617, -0.065827, 0.060384, -0.069387, 0.034905, -0.066715, 0.030136, 0.054312, 0.064785, -0.034591, 0.075001, 0.054404, -0.027388, 0.071824, -0.083166, -0.036723, 0.033795, -0.071406, 0.021524, -0.012141, 0.072798, -0.058018, 0.077236, 0.020847, 0.003657, 0.052107, 0.039674, -0.067355, 0.032066, -0.055130, 0.046062, 0.070998, -0.074573, -0.093895, 0.066071, 0.031851, -0.037221, 0.042980, -0.080545, 0.059890, -0.011859, 0.038988, 0.008329, 0.075406, -0.054651, -0.093619, -0.060079, -0.042302, 0.053423, 0.003699, 0.062926, -0.045563, -0.043686, -0.031677, 0.035117, -0.032802, -0.063038, 0.072544, 0.038532, -0.031343, -0.092023, 0.021151, -0.069778, -0.045099, 0.028047, -0.017914, 0.040186, -0.016916, 0.046420, 0.027106, 0.037496, -0.051227, 0.070826, -0.050149, 0.058831, -0.093397, -0.062794, -0.023200, -0.066328, 0.049916, -0.021895, 0.060672, 0.025783, 0.034995, -0.032836, -0.090837, -0.049780, 0.039256, -0.068344, -0.097103, -0.094949, 0.028736, -0.007343, -0.040717, 0.006759, -0.037696, -0.034200, -0.000867, 0.050910, -0.045324, -0.079698, -0.088575, 0.065721, 0.064065, 0.005226, 0.052635, -0.064521, 0.013109, -0.039900, -0.067591, -0.096536, -0.002899],
  [0.033275, -0.069697, -0.046317, -0.012687, -0.056322, -0.043156, -0.032672, 0.053410, 0.024265, -0.026374, 0.030802, -0.029294, 0.008541, -0.010677, -0.034261, -0.063683, 0.072134, 0.001951, -0.035227, -0.027663, 0.042025, 0.034422, -0.062963, -0.035733, -0.067119, 0.043173, 0.046784, -0.025703, 0.035815, -0.055594, -0.009543, 0.046308, 0.012010, 0.042494, -0.064185, -0.018260, 0.048599, -0.071103, 0.064991, 0.074121, -0.017792, -0.000315, 0.024361, -0.005594, -0.078694, 0.012722, -0.034094, 0.012771, -0.074224, -0.097102, -0.017224, -0.020113, 0.059532, -0.077177, 0.009567, -0.080106, -0.075239, -0.048222, 0.055564, -0.041140, -0.054070, -0.035440, 0.001790, -0.081979, -0.084617, -0.026505, -0.083910, -0.035728, -0.031300, -0.009545, -0.029391, 0.075280, -0.069394, 0.034363, -0.062795, -0.099200, -0.041044, -0.078379, -0.020608, 0.018509, -0.064954, -0.096015, -0.034756, 0.026981, -0.014718, -0.093691, 0.009518, -0.080562, -0.081800, 0.029399, 0.023011, -0.008320, -0.090882, 0.049819, 0.032895, 0.025445, -0.044320, -0.065631, 0.008050, 0.062208, -0.092762, -0.090142, -0.058365, -0.032157, -0.062283, -0.074188, -0.053873, 0.063869, -0.006436, 0.074898, -0.001648, 0.057954, -0.061519, 0.030499, -0.071856, 0.017828, 0.072472, -0.001229, -0.069125, -0.082633, -0.048084, -0.048811, -0.049901, 0.030083, 0.015428, -0.075869, 0.024681, -0.046962],
  [-0.043803, -0.051882, -0.059126, 0.121022, -0.126971, 0.004900, -0.103756, -0.039547, -0.138789, 0.053808, -0.133665, -0.020720, 0.080343, 0.061327, 0.067655, -0.071250, -0.051930, -0.107505, 0.086208, 0.014344, 0.017555, -0.048997, 0.159469, 0.068888, 0.143543, 0.068187, 0.076144, 0.093095, -0.055591, -0.078408, -0.043944, 0.092602, 0.004491, 0.087555, 0.082963, 0.051321, 0.025401, -0.039961, -0.003379, 0.067091, 0.064149, -0.057703, -0.013298, 0.064566, -0.024357, 0.077590, 0.224938, 0.090313, 0.062740, -0.152097, -0.020449, -0.014701, 0.024461, 0.132350, -0.054415, -0.078894, 0.042287, 0.103076, 0.074684, -0.065662, 0.064785, 0.108687, 0.060432, -0.126412, 0.066834, -0.059858, 0.008520, 0.076257, 0.098622, 0.058813, 0.135781, -0.041595, 0.098818, -0.042084, 0.116904, 0.041544, -0.020753, 0.071949, -0.044528, -0.074262, -0.121847, 0.000668, 0.092215, 0.069522, -0.039846, 0.082796, -0.046145, 0.050330, 0.049802, -0.014034, -0.046370, -0.025333, 0.111822, -0.248459, 0.064755, 0.074222, 0.100125, -0.069206, -0.033292, 0.022144, 0.023123, 0.068529, -0.004404, -0.124352, -0.118136, -0.024337, -0.118873, -0.157990, 0.064423, -0.190056, -0.085061, -0.021757, 0.098813, 0.059166, -0.027929, 0.061093, 0.278143, 0.036768, 0.144092, -0.029794, 0.021736, 0.128653, -0.012056, 0.074992, -0.042432, 0.157991, -0.045730, 0.014246],
  [-0.089105, -0.053132, 0.049193, -0.063863, 0.014778, -0.092256, 0.067378, 0.030359, -0.014917, 0.043070, 0.035951, -0.034557, 0.039570, 0.038938, -0.023353, 0.031141, -0.029956, -0.001043, -0.004714, -0.096253, 0.061997, -0.098600, -0.055745, -0.095990, -0.012797, -0.012581, -0.088625, -0.077748, -0.103056, -0.025433, 0.032520, -0.040682, -0.030394, -0.028448, -0.094604, -0.017478, -0.099145, 0.014178, -0.026063, -0.044211, -0.007447, -0.043906, 0.040949, 0.075522, -0.078086, -0.072577, -0.027399, -0.004461, 0.059432, -0.085636, 0.074413, 0.153857, -0.022695, 0.058130, -0.082484, 0.029821, 0.015215, -0.098759, 0.018138, 0.049016, -0.035015, -0.001841, -0.072045, -0.030467, 0.062447, -0.003753, -0.091624, 0.039052, 0.079364, -0.002287, 0.051882, -0.017381, -0.085254, 0.045876, 0.074263, 0.042328, 0.024057, 0.037639, 0.011235, -0.055488, 0.033103, -0.066240, -0.032842, -0.046944, 0.012289, 0.066186, 0.002685, -0.031641, 0.062971, 0.061088, 0.003207, -0.001936, 0.038378, -0.078754, -0.000454, 0.001883, -0.104031, -0.006629, 0.066150, 0.048235, -0.071867, 0.068629, -0.073096, -0.008696, -0.016205, -0.035740, 0.066759, 0.012494, -0.058088, 0.053336, -0.067896, -0.027181, 0.012903, -0.007620, 0.066038, -0.056014, 0.029573, -0.098589, 0.038421, -0.064230, 0.190422, 0.020667, 0.017692, -0.081216, 0.010908, -0.072076, -0.020865, -0.066069],
  [-0.390267, 0.021437, 0.340008, -0.262047, 0.117837, -0.007535, 0.120504, 0.038109, 0.332875, -0.005616, -0.145105, 0.062911, -0.081260, 0.000827, -0.000959, 0.037667, -0.198045, 0.123848, 0.030244, 0.041651, -0.218756, 0.124751, -0.269273, -0.064950, -0.008656, 0.132499, -0.121549, 0.154382, 0.149665, 0.092220, -0.012501, 0.135179, 0.225646, -0.046375, -0.006002, 0.047552, 0.009591, 0.177278, -0.256169, -0.003207, -0.278910, 0.071766, -0.072061, 0.115538, 0.089301, -0.032407, -0.161709, -0.001863, 0.040309, -0.130446, 0.089705, -0.231711, 0.007575, -0.196498, -0.237448, 0.164526, -0.172329, -0.276742, 0.097882, 0.102564, 0.015242, -0.121283, 0.043693, 0.247193, 0.150918, 0.175801, 0.153579, 0.159417, -0.136593, -0.053797, -0.038719, 0.005537, 0.059858, -0.048044, -0.128127, -0.041745, 0.084804, 0.163859, 0.186153, 0.009833, 0.173040, 0.069357, 0.107891, 0.089611, -0.163563, 0.001385, 0.227247, -0.019661, 0.124517, -0.005889, 0.169462, 0.089887, -0.051308, 0.257103, -0.045497, 0.097954, -0.244482, -0.266635, -0.014493, 0.105981, 0.247727, -0.041036, 0.014326, 0.152370, 0.132202, 0.067553, 0.273290, 0.287058, 0.067625, 0.212006, 0.167394, 0.190864, 0.215439, 0.123940, -0.216472, 0.120481, -0.024151, 0.113537, -0.134914, -0.055616, 0.249000, -0.028153, -0.009132, 0.047532, 0.084126, -0.251613, -0.016414, 0.132370],
  [-0.009533, 0.071554, -0.004729, 0.057826, 0.067735, -0.016521, -0.082384, 0.037236, -0.068250, -0.072660, -0.099284, -0.019852, 0.071953, -0.101845, -0.101258, -0.100695, -0.026234, -0.053266, 0.023864, 0.020132, 0.038059, 0.059994, 0.065771, -0.006060, -0.094905, -0.028535, -0.040583, -0.098668, -0.090667, 0.024066, -0.045272, -0.007989, -0.095403, -0.017178, 0.007245, 0.013860, 0.019402, 0.007757, 0.026503, -0.072646, 0.040912, -0.073175, -0.024299, 0.050889, -0.065036, -0.087182, -0.057210, 0.032479, -0.023925, -0.083504, -0.072998, -0.063496, 0.013920, -0.069300, -0.013950, 0.034252, 0.039877, -0.041328, 0.036106, -0.020239, -0.088182, 0.000112, 0.050104, -0.062713, 0.038841, 0.021144, 0.040588, -0.070458, 0.048831, 0.028459, 0.065800, 0.024520, -0.053809, -0.014450, -0.023280, 0.014756, 0.001323, 0.005266, 0.073090, 0.068423, -0.028204, -0.023906, 0.038823, 0.043266, 0.056409, 0.015489, -0.066657, -0.012729, -0.042910, -0.081910, 0.071456, 0.008581, 0.000817, -0.073832, -0.037043, -0.093018, -0.038272, -0.035120, 0.052623, -0.008740, -0.046211, -0.001422, -0.075823, 0.021669, 0.019151, 0.017374, 0.037388, 0.016383, 0.037188, -0.002329, -0.012982, -0.034187, -0.055008, -0.042937, 0.039704, -0.026654, -0.084597, -0.004206, -0.071911, 0.015399, -0.048934, 0.043522, -0.099039, 0.000225, -0.061422, 0.029288, 0.013187, -0.083632],
  [0.262940, 0.078395, -0.200131, 0.166217, -0.214682, -0.100466, -0.025977, -0.078600, 0.060691, 0.148240, 0.064688, -0.099701, 0.040722, 0.002013, -0.023253, -0.221617, 0.206666, 0.054786, 0.035259, -0.046631, 0.210360, -0.061414, 0.137516, 0.096390, 0.004440, 0.073353, 0.096756, -0.052128, -0.192464, -0.175737, 0.012964, -0.115575, -0.196815, 0.136418, 0.005490, 0.091928, 0.000388, -0.108772, 0.228996, -0.041765, 0.092473, 0.067657, 0.138957, -0.032264, -0.183822, 0.090542, 0.170934, -0.002885, -0.093610, 0.019452, 0.001852, 0.238028, 0.072913, 0.251388, 0.116075, -0.121269, 0.334004, 0.097603, -0.095360, -0.050973, -0.004030, 0.182810, 0.085309, -0.146419, -0.182051, -0.026457, -0.149298, 0.045152, 0.136771, -0.077075, 0.070352, -0.092433, 0.031104, 0.025811, 0.205524, 0.086972, -0.016693, -0.006226, -0.083449, -0.015638, 0.030022, -0.039474, -0.025445, 0.023371, 0.042971, -0.009534, -0.174294, 0.038800, -0.090923, 0.174567, -0.053476, 0.062197, 0.098936, -0.143842, -0.008607, -0.056140, 0.186946, 0.140160, 0.055235, 0.013430, -0.090488, 0.156473, -0.061566, -0.005029, -0.195559, 0.077456, -0.172420, 0.016857, 0.063891, 0.007273, -0.256313, -0.070604, -0.142407, -0.050059, 0.119038, -0.075851, 0.014012, -0.052432, 0.293191, -0.009314, -0.089158, 0.019225, -0.075297, -0.096105, -0.105639, 0.268552, 0.065230, -0.091394],
  [-0.035137, -0.080862, 0.139153, 0.018195, 0.200890, -0.047370, -0.001439, -0.067823, 0.397115, 0.006241, -0.120557, 0.018891, -0.022570, 0.043171, -0.068579, 0.076956, -0.029192, 0.053041, -0.036040, -0.007167, -0.000515, -0.044384, 0.019651, 0.076091, -0.116950, -0.013927, -0.153515, 0.049775, 0.028270, 0.123310, 0.014626, 0.041846, -0.025956, -0.038831, -0.013326, -0.091041, 0.007761, -0.080724, -0.108924, 0.059836, -0.144556, -0.083721, 0.017735, -0.072463, 0.130798, 0.050123, -0.061954, 0.038015, 0.085635, -0.113172, 0.019047, 0.017731, 0.072474, -0.143637, 0.009452, -0.012556, -0.098264, 0.025093, -0.030556, -0.077525, -0.155969, -0.076873, 0.063252, -0.022575, -0.040126, -0.095485, -0.057018, -0.000244, -0.043434, 0.035244, 0.108285, -0.014317, 0.003338, -0.030863, -0.074659, -0.036460, 0.002623, -0.072795, 0.067929, 0.002313, 0.014418, 0.005588, -0.019971, 0.054313, -0.015749, -0.037493, 0.086542, 0.073869, -0.053344, -0.145333, -0.023201, -0.000313, 0.072879, 0.179147, 0.064318, -0.114733, -0.104650, -0.054765, 0.037448, 0.046737, -0.088036, -0.094997, -0.095665, 0.066818, 0.086101, 0.052664, -0.004603, 0.288484, 0.006971, 0.114732, -0.157986, 0.061873, 0.116333, 0.070352, 0.054706, 0.134696, 0.030796, 0.062467, -0.033915, 0.059445, 0.121928, 0.003449, 0.040573, 0.031623, -0.027520, -0.022631, -0.022649, -0.084333],
  [-0.251771, 0.084280, 0.167991, 0.002676, 0.140870, 0.095516, 0.119868, -0.022540, 0.205567, -0.065091, -0.276950, -0.020178, -0.112049, 0.090389, 0.016896, -0.006656, -0.028316, 0.097728, -0.015598, -0.023397, -0.086882, 0.052786, -0.189009, -0.012705, -0.018768, 0.009464, -0.035156, 0.001075, 0.122859, 0.054030, 0.107028, 0.239405, 0.096975, 0.018662, 0.011082, 0.095004, -0.046516, 0.096367, -0.128753, -0.028199, 0.030098, -0.005434, 0.048810, 0.026249, 0.130639, -0.070388, 0.099040, -0.022570, 0.034560, -0.095438, 0.120797, -0.191420, -0.018956, -0.063360, -0.121530, 0.055049, -0.206352, -0.126002, 0.062023, -0.048472, 0.002248, -0.169285, 0.021685, 0.095470, 0.067731, 0.188714, 0.085114, 0.139364, -0.067671, 0.012243, -0.087339, -0.005514, 0.107725, -0.058387, -0.042606, -0.038042, 0.005488, -0.039103, 0.221271, 0.028736, 0.077966, 0.064323, 0.010339, -0.066892, -0.125955, 0.048823, 0.145683, 0.009528, 0.089604, -0.004096, 0.071317, -0.073924, -0.081719, 0.148679, -0.016742, -0.007437, -0.062985, -0.140805, 0.026467, -0.012139, 0.028913, 0.038307, 0.073799, 0.104250, 0.059083, 0.063381, 0.122782, 0.237113, -0.057112, -0.042016, 0.218868, 0.171861, 0.205054, 0.035604, -0.102129, 0.158328, 0.131207, 0.074668, -0.225701, 0.107627, 0.176767, 0.043096, 0.033559, -0.023210, 0.126967, -0.012049, 0.029937, 0.010298],
  [0.206729, -0.075597, -0.043842, 0.070529, -0.000732, 0.034161, -0.046599, 0.010596, 0.034000, 0.003434, 0.069727, 0.017479, 0.016760, 0.007392, -0.100006, 0.006402, 0.088220, 0.047277, 0.021909, -0.184046, 0.057264, 0.033910, 0.197237, 0.119585, 0.075461, -0.086280, 0.124877, 0.074131, -0.018785, -0.060324, -0.073691, -0.008024, -0.193528, -0.054828, 0.042995, 0.064010, 0.031478, -0.216826, 0.136162, -0.031063, 0.004047, -0.001940, 0.106916, 0.034721, -0.059370, 0.076035, 0.168038, 0.027271, 0.000700, 0.168978, -0.082399, 0.252791, -0.033083, 0.268241, 0.091851, -0.126158, 0.222066, 0.303805, 0.015266, -0.047334, -0.077425, 0.102934, 0.008269, 0.100079, 0.011700, -0.085622, -0.059039, 0.097933, 0.161607, 0.053547, 0.092604, -0.086666, -0.095055, 0.044038, 0.094400, -0.062844, 0.011360, -0.011675, 0.036718, 0.069850, -0.181283, -0.021905, 0.039704, -0.074345, 0.055167, 0.057114, -0.117508, -0.053992, -0.065805, -0.037184, -0.120615, 0.001376, 0.057776, 0.114670, 0.048348, -0.096531, 0.146649, 0.138135, -0.058045, 0.061772, 0.031198, -0.010289, -0.084309, -0.058248, -0.046606, -0.003365, -0.187346, -0.258594, -0.019446, 0.142099, -0.409536, 0.027500, -0.000940, -0.080196, 0.100642, -0.145761, -0.128014, 0.070594, 0.154020, 0.021079, -0.242854, 0.033937, -0.093766, 0.031045, 0.087208, 0.057706, -0.018349, -0.062503],
  [-0.298930, -0.083214, 0.289835, -0.058795, 0.127867, -0.020445, 0.020642, 0.006358, 0.255742, -0.064753, -0.051663, 0.088689, -0.030990, 0.129241, 0.056581, 0.141428, -0.169116, 0.230445, -0.059300, 0.103739, -0.111525, 0.024778, -0.216239, -0.048967, -0.020139, -0.062590, -0.069818, 0.150335, -0.004780, 0.075956, 0.085514, 0.114956, 0.070941, 0.064414, 0.066163, -0.002568, 0.104854, 0.138844, -0.161938, -0.054936, -0.242304, 0.072709, -0.050909, 0.075952, 0.115812, 0.023623, -0.194536, 0.005105, 0.106135, -0.077807, 0.029393, -0.198555, 0.114668, -0.098889, -0.172531, 0.226527, -0.254354, -0.274921, -0.006182, -0.002217, -0.089962, -0.202654, 0.037251, 0.184160, 0.123656, 0.253851, 0.223159, 0.067456, -0.087058, -0.043815, -0.096062, -0.007160, -0.017661, 0.042272, -0.162196, -0.059574, 0.017854, 0.026109, 0.104681, 0.104299, 0.178763, 0.095388, 0.053312, -0.053738, -0.170602, 0.032842, 0.082017, 0.057874, 0.053265, -0.132132, 0.050993, -0.032781, -0.131029, 0.295821, 0.061596, 0.006990, -0.138629, -0.162264, -0.003989, 0.076238, 0.077662, -0.036481, 0.030921, 0.248954, 0.215264, -0.000969, 0.085438, 0.167801, -0.051482, 0.133645, 0.070424, 0.146481, 0.188901, -0.032410, -0.060608, 0.056403, -0.035037, 0.171411, -0.182525, 0.068210, 0.146224, 0.051349, 0.026327, 0.027983, 0.132404, -0.214323, -0.030079, 0.013310],
  [-0.375776, -0.104619, 0.298994, -0.282915, 0.278538, 0.171828, 0.036706, 0.067660, 0.353374, -0.148887, -0.324518, 0.031879, -0.046613, 0.145241, 0.011619, 0.166026, -0.241362, 0.180204, -0.019452, 0.050162, -0.144701, 0.200857, -0.194866, -0.056708, -0.047339, 0.040772, -0.218776, 0.118371, 0.240789, 0.162598, 0.104996, 0.316421, 0.187270, -0.061830, 0.118428, 0.030991, 0.015716, 0.051095, -0.287544, 0.072607, -0.251524, 0.150307, -0.171244, -0.003149, 0.206111, 0.075134, 0.028581, -0.106430, 0.078790, -0.237546, 0.001066, -0.202272, 0.116787, -0.075721, -0.239030, 0.295276, -0.218529, -0.295445, 0.136341, 0.179081, 0.047551, -0.269802, 0.005715, 0.306402, 0.241760, 0.267662, 0.247096, 0.092788, -0.064309, 0.052184, -0.266890, 0.078537, 0.129680, -0.058933, -0.233775, -0.128026, 0.113272, 0.220445, -0.032549, 0.104323, 0.221143, 0.163015, 0.026467, 0.071850, -0.110702, -0.135857, 0.333998, 0.100400, 0.268880, -0.205325, 0.281589, 0.026498, -0.108177, 0.375748, 0.049434, 0.021489, -0.218321, -0.274585, 0.013881, 0.070492, -0.047596, -0.205471, 0.118830, 0.275944, 0.277402, 0.123352, 0.251285, 0.184937, -0.031650, 0.137645, 0.343365, 0.202887, 0.305297, 0.125969, 0.011367, 0.229264, 0.114744, 0.230710, -0.190639, 0.044109, 0.305148, 0.060614, 0.115089, -0.022815, 0.247264, -0.322747, 0.211483, 0.167211],
  [-0.305734, -0.118472, 0.347869, -0.242814, 0.150973, 0.106873, 0.171365, 0.213514, 0.211740, -0.118974, -0.249437, 0.033226, -0.118488, 0.181085, 0.103818, 0.140487, -0.142027, 0.261998, 0.032589, 0.168024, -0.268203, 0.248327, -0.232607, -0.192289, -0.083268, -0.040786, -0.180961, 0.135876, 0.192400, 0.285726, 0.028499, 0.155989, 0.121197, -0.078253, 0.107308, 0.051657, -0.000949, 0.211713, -0.315866, 0.135420, -0.211421, 0.045571, -0.114482, 0.036203, 0.178087, -0.052878, -0.204145, -0.041128, 0.115943, -0.124957, 0.055032, -0.282317, -0.008594, -0.254242, -0.141014, 0.326800, -0.196092, -0.196931, 0.156854, 0.141502, -0.026265, -0.205061, 0.109795, 0.246600, 0.121088, 0.209011, 0.257759, 0.202001, -0.268771, 0.084412, -0.041188, 0.053214, -0.017257, -0.072850, -0.281740, -0.047153, 0.104659, 0.141768, 0.269207, 0.139060, 0.250304, 0.160050, 0.129259, 0.047743, -0.165302, -0.113489, 0.268482, -0.019536, 0.247597, -0.217704, 0.287894, -0.005238, -0.237326, 0.258298, 0.014550, -0.029237, -0.306104, -0.236406, 0.005946, 0.038004, 0.193334, -0.274227, 0.003714, 0.273474, 0.198559, 0.102753, 0.245761, 0.239086, 0.030834, 0.267687, 0.250255, 0.186561, 0.205617, 0.073602, -0.066162, 0.166362, -0.018128, 0.217279, -0.274076, 0.046463, 0.173393, 0.060350, 0.081413, -0.056370, 0.156124, -0.176768, 0.040283, 0.238176],
  [-0.206484, -0.008346, 0.048996, 0.047737, 0.159569, 0.107457, -0.028281, -0.026471, 0.191072, -0.072491, -0.172113, 0.018893, -0.023198, 0.099172, 0.028121, 0.079555, -0.110868, -0.043105, -0.014211, 0.003121, -0.081807, 0.055073, -0.027179, -0.010525, 0.083157, 0.034025, -0.088160, 0.076386, 0.160691, 0.065300, 0.075992, 0.208800, 0.040328, 0.051616, 0.097931, 0.054516, 0.045613, 0.114264, -0.085920, 0.042474, -0.018084, 0.089173, -0.050913, 0.079012, 0.076609, 0.081490, -0.047299, 0.086440, -0.030854, -0.218009, 0.020234, -0.118556, 0.003431, -0.100830, -0.179720, 0.053957, -0.135070, -0.198956, 0.023556, -0.067390, -0.033204, 0.015276, 0.048307, 0.042198, 0.067582, 0.163338, 0.045594, -0.024608, -0.150446, 0.026180, -0.019421, 0.031082, -0.003131, 0.031539, -0.111784, 0.021377, -0.012395, 0.103278, 0.136875, -0.059180, -0.026147, 0.067741, 0.067399, -0.058564, -0.107041, 0.037810, 0.028280, 0.031820, 0.085649, -0.074566, 0.114481, -0.075547, 0.004580, -0.006632, 0.074239, -0.004451, -0.060644, 0.052132, 0.080789, -0.015795, -0.055842, 0.037431, 0.090895, 0.011150, 0.026375, 0.015724, 0.170410, 0.106428, 0.105479, -0.109087, 0.189413, 0.017563, 0.145688, 0.009624, -0.072907, 0.012680, 0.181356, 0.066812, -0.155180, 0.051934, 0.160535, 0.031061, -0.032789, -0.001762, 0.101203, 0.018288, 0.018078, 0.011567],
  [0.020599, 0.038049, 0.043125, -0.016991, 0.038898, 0.055338, -0.022804, -0.020310, -0.292889, -0.043215, -0.030486, -0.029293, 0.082807, 0.020973, -0.012297, -0.040543, -0.024433, 0.093279, -0.072314, -0.095806, 0.136308, -0.083104, -0.079518, -0.000759, 0.033567, 0.085091, -0.112568, 0.035301, 0.083123, 0.100052, 0.012476, 0.085625, -0.019489, -0.082082, 0.039107, 0.074356, -0.075249, -0.014810, 0.014136, -0.099473, 0.057163, 0.036451, -0.100118, -0.008223, 0.046383, 0.023594, -0.043359, 0.032928, 0.032661, 0.001907, -0.097958, -0.009237, -0.034874, 0.074999, 0.025097, -0.067139, -0.172393, 0.296446, -0.006604, 0.060617, -0.001503, 0.064986, -0.069230, -0.055734, -0.040005, -0.204902, 0.068390, 0.021918, -0.094253, 0.056912, -0.135127, 0.015577, -0.030480, 0.002154, 0.096317, 0.029684, 0.051433, -0.038154, 0.066260, -0.073491, -0.087913, -0.082758, 0.044073, -0.037787, 0.085349, -0.084196, -0.055310, -0.041965, -0.015300, 0.034153, 0.101478, 0.033528, -0.070551, 0.042678, 0.011894, -0.044848, 0.006328, 0.052282, 0.030700, 0.021767, 0.060569, -0.041248, -0.021722, 0.025124, -0.013189, -0.036746, 0.039946, -0.276361, -0.069401, -0.025335, 0.045712, 0.073753, 0.117345, 0.099383, -0.023578, -0.163299, -0.064814, -0.080703, -0.036886, -0.037578, -0.181287, 0.025581, -0.093980, -0.006307, 0.054000, 0.006577, -0.050092, 0.100673],
  [-0.264939, -0.018747, 0.245119, -0.036167, 0.211846, 0.129791, 0.082911, -0.056255, 0.171288, 0.002307, -0.281572, 0.028423, -0.094688, 0.116916, -0.037514, 0.018545, -0.091013, 0.067874, -0.076340, 0.038235, -0.022916, 0.125999, -0.196891, -0.010209, 0.098732, 0.071768, -0.202157, -0.001539, 0.133307, 0.005528, 0.047240, 0.189570, 0.070362, -0.044117, -0.008380, -0.046189, -0.002936, 0.060147, -0.195345, 0.105234, 0.005152, -0.040031, 0.056235, -0.029409, 0.135274, 0.062212, 0.126591, 0.082026, 0.051898, -0.153301, -0.004232, -0.173598, -0.004694, -0.140669, -0.241876, 0.167196, -0.235751, -0.213724, 0.101134, 0.088671, -0.071835, -0.044225, -0.025997, 0.156218, 0.133770, 0.157367, 0.021412, 0.116877, -0.052674, -0.013939, -0.009440, -0.036504, 0.133165, 0.081242, -0.135029, 0.052329, 0.161646, 0.137791, 0.205280, -0.039717, -0.034693, 0.023736, 0.035347, -0.031810, -0.072080, 0.053861, 0.209135, -0.080392, 0.152597, -0.004113, 0.169430, 0.066166, -0.126942, 0.101139, -0.023128, 0.068350, -0.301846, -0.176952, 0.123187, -0.040364, -0.047829, -0.138881, -0.032888, 0.147850, 0.069063, -0.076463, 0.183265, 0.264439, -0.051688, 0.014276, 0.167542, 0.141949, 0.134951, 0.106555, -0.112431, 0.101965, 0.221246, 0.113468, -0.139599, 0.104035, 0.170339, 0.127684, 0.033486, -0.044440, 0.085599, 0.004229, 0.110678, 0.139882],
  [-0.058547, -0.019150, -0.018498, 0.047971, -0.061731, -0.098298, -0.059956, -0.086909, -0.005279, -0.096202, 0.024227, -0.001668, -0.018236, 0.026362, -0.043928, -0.082751, 0.070065, -0.062501, -0.059141, 0.046889, -0.078933, -0.060473, -0.099274, 0.071425, -0.044375, 0.043244, 0.035174, -0.054272, 0.067777, -0.028424, 0.064763, 0.043530, 0.021149, 0.011766, 0.003001, -0.028654, -0.026748, -0.042212, -0.009059, 0.056630, 0.022492, -0.046201, 0.010720, 0.013583, 0.006046, -0.003725, 0.017121, 0.031980, -0.027997, -0.014571, 0.020468, -0.018372, 0.009005, -0.046888, -0.029193, 0.012776, -0.060833, -0.064311, 0.026930, 0.016036, -0.078606, -0.057131, -0.007242, -0.087243, 0.048339, 0.004331, -0.043858, -0.086327, -0.087082, 0.006291, -0.015150, -0.020819, -0.040587, 0.054236, -0.040265, -0.102472, -0.058920, 0.065699, -0.011630, 0.008340, -0.097797, -0.073612, -0.036347, 0.054640, -0.086522, 0.018667, 0.013002, -0.015957, -0.032616, -0.005916, -0.066176, 0.018006, -0.087556, -0.030071, -0.003711, 0.018503, 0.062634, -0.001376, -0.064856, 0.017307, 0.018755, -0.011120, -0.051574, -0.059322, 0.028179, 0.009988, -0.054784, -0.039237, -0.076429, -0.007868, -0.057673, 0.029684, -0.012532, 0.008650, -0.076280, -0.015524, -0.000778, 0.000406, 0.031162, -0.010386, -0.016970, -0.004707, -0.078272, 0.035540, -0.054039, -0.078569, 0.015441, 0.066777],
  [-0.312728, -0.030388, 0.162129, -0.136922, 0.263582, 0.089791, -0.025499, -0.011023, 0.122747, 0.026425, -0.182180, 0.025536, 0.042296, 0.046183, 0.055089, 0.004497, -0.098201, 0.031321, -0.078792, -0.051152, -0.069386, -0.008759, -0.161209, 0.017335, 0.133679, 0.008124, -0.088181, 0.132915, 0.256771, 0.025907, 0.083525, 0.163902, 0.069581, 0.060025, 0.023623, 0.105612, 0.035552, 0.117951, -0.279609, -0.054612, -0.104997, 0.047421, -0.113163, 0.112131, 0.116447, 0.053638, 0.087275, 0.107857, 0.042862, -0.249541, 0.135064, -0.283738, 0.007678, -0.100127, -0.132961, 0.076569, -0.253228, -0.266348, 0.064564, 0.075104, 0.036842, -0.044073, 0.037112, 0.178647, 0.027321, 0.202546, 0.039201, 0.119588, -0.121135, -0.061904, 0.065226, 0.039605, 0.139878, 0.006801, -0.122287, -0.000296, 0.028161, -0.010402, 0.203544, -0.018227, -0.006772, 0.017953, -0.001210, -0.032226, -0.161129, 0.031053, 0.134932, -0.051132, 0.047271, -0.088605, 0.206716, 0.001295, -0.058387, 0.167339, -0.084112, 0.039749, -0.147949, -0.227595, -0.040579, -0.055528, -0.012944, 0.017553, 0.031995, 0.096092, 0.047470, -0.003295, 0.090954, 0.243748, -0.026978, 0.021990, 0.243443, 0.160035, 0.136017, -0.000154, 0.002147, 0.172913, 0.293751, 0.096434, -0.228691, 0.093036, 0.295774, 0.013900, -0.041290, 0.003726, 0.087571, -0.032611, 0.120870, -0.010778],
  [0.286983, 0.002042, -0.210990, 0.219058, -0.199276, -0.155256, -0.079418, -0.151483, -0.277393, 0.139063, 0.335208, 0.054511, 0.232607, 0.008576, -0.043438, -0.150435, 0.143422, -0.092521, 0.154738, -0.159288, 0.192922, -0.126462, 0.285277, 0.200375, 0.112320, -0.056242, 0.206456, -0.049612, -0.201669, -0.229299, 0.053407, -0.282862, -0.094500, 0.118279, -0.006903, 0.055715, 0.090666, -0.124823, 0.300636, 0.002277, 0.251056, -0.073300, 0.201209, 0.038529, -0.227874, 0.069165, 0.220100, -0.010113, -0.028948, 0.344850, 0.070747, 0.324230, 0.113727, 0.287615, 0.340029, -0.237732, 0.310194, 0.232630, -0.173789, -0.120797, 0.078308, 0.234376, 0.039765, -0.119649, -0.035067, -0.231755, -0.187216, -0.122806, 0.267298, 0.031134, 0.213230, 0.007550, -0.102946, 0.028043, 0.318153, 0.115935, -0.064931, -0.061035, -0.150862, 0.040934, -0.150381, -0.030455, -0.043978, 0.145438, 0.268791, 0.111774, -0.257969, 0.126873, -0.216516, 0.158107, -0.229554, 0.035928, 0.180238, -0.320123, 0.031629, -0.032512, 0.184642, 0.224545, 0.099056, -0.073122, -0.142024, 0.224401, -0.046914, -0.172997, -0.306324, -0.025925, -0.190516, -0.325495, -0.048663, -0.121630, -0.195615, -0.284208, -0.082834, -0.014452, 0.267813, -0.167866, 0.057679, -0.247566, 0.298557, 0.109221, -0.112576, 0.051706, -0.014931, 0.099511, -0.153762, 0.244073, 0.036812, -0.149667],
  [0.053643, -0.049675, -0.051327, 0.066280, -0.070631, -0.021927, -0.100926, -0.067679, -0.035441, -0.040185, 0.049348, -0.002637, -0.094862, -0.027084, 0.039380, -0.006606, 0.052969, -0.060531, -0.021619, -0.084265, 0.052819, -0.037579, 0.040073, 0.071226, -0.070128, 0.006036, 0.069380, 0.049743, -0.054079, -0.020686, 0.052352, 0.030117, -0.037866, -0.003373, -0.050935, 0.004833, -0.040640, -0.029602, 0.015750, -0.058106, -0.016623, 0.031721, 0.032451, -0.073706, -0.002806, -0.009526, 0.007858, 0.008160, -0.002267, -0.013103, -0.036008, -0.074671, 0.056312, -0.097019, 0.004331, -0.046141, -0.012533, -0.006555, 0.006754, -0.010030, -0.013071, 0.023766, 0.015520, 0.004533, -0.055905, -0.055686, 0.055368, -0.072485, 0.007401, 0.039883, 0.013423, -0.082443, -0.005759, -0.103508, 0.001842, 0.034116, -0.006541, -0.069489, 0.010166, -0.041684, -0.069296, 0.037809, 0.006628, -0.024607, 0.052330, -0.002178, -0.077421, 0.037689, 0.032603, -0.046125, -0.082500, 0.025144, -0.094756, 0.068991, -0.016645, 0.071149, -0.082385, -0.056212, 0.048982, -0.039315, -0.074078, -0.011496, 0.046701, -0.090861, -0.093365, -0.044608, -0.088412, -0.017777, -0.052536, -0.035938, -0.099449, -0.100846, 0.000711, -0.049765, -0.014200, 0.011884, 0.023731, -0.041795, -0.075105, -0.035905, 0.023663, -0.096880, -0.029373, 0.050486, -0.046815, -0.018344, 0.067660, -0.096360],
  [0.031582, -0.068183, -0.097176, -0.045187, -0.009755, -0.080181, 0.005000, -0.074575, -0.092327, -0.025120, -0.029402, -0.102717, -0.025837, 0.077900, 0.063133, -0.008745, 0.136698, 0.019605, 0.062249, -0.074402, 0.070723, 0.009146, 0.216895, -0.067989, -0.021060, 0.050360, -0.026237, 0.014379, -0.168815, -0.127698, -0.074691, -0.192892, 0.002490, -0.110312, -0.090903, 0.001536, -0.064955, -0.052686, 0.195628, 0.057696, 0.062001, 0.046665, 0.061739, 0.031020, 0.012690, 0.014331, 0.025638, -0.081424, -0.041047, 0.030312, 0.009765, 0.219352, -0.057738, 0.204027, 0.008006, -0.014606, 0.335842, -0.372709, 0.028298, 0.016137, -0.019933, 0.082715, -0.055681, 0.027509, -0.068541, 0.112235, -0.066462, 0.028927, -0.040533, -0.055347, 0.181504, -0.060045, 0.056965, 0.016086, 0.020927, 0.056610, -0.005326, -0.007366, -0.056064, 0.020918, -0.103113, 0.034524, -0.039577, 0.012143, 0.026823, -0.036608, -0.096227, 0.029069, 0.041678, -0.050479, -0.183579, -0.081712, 0.001037, 0.074686, 0.026583, 0.011949, 0.005965, 0.097118, 0.022215, -0.102789, 0.017779, 0.079981, -0.085618, -0.045634, -0.119155, -0.014434, -0.004877, -0.092195, 0.000070, -0.260674, -0.058520, 0.013276, 0.027124, 0.029301, -0.054614, -0.180012, 0.077484, 0.060990, 0.211684, 0.021445, 0.100986, -0.085888, -0.087799, -0.080499, -0.113395, 0.123081, 0.073029, 0.056371],
  [-0.043956, 0.013331, -0.042420, -0.092802, 0.046212, 0.062688, -0.003870, -0.010422, -0.009880, -0.067155, 0.014171, -0.059221, 0.068791, -0.022183, 0.065666, 0.012548, -0.073970, 0.026154, -0.087962, -0.081869, -0.064157, -0.032279, -0.017365, -0.071586, -0.023199, 0.045747, 0.074457, -0.011964, -0.066913, 0.048536, -0.045473, -0.103579, 0.048683, -0.086664, 0.057621, -0.068649, 0.033228, -0.055206, -0.062753, -0.080364, -0.036772, -0.095495, -0.021043, 0.051718, -0.056976, -0.055305, -0.021583, 0.030860, -0.018520, -0.075859, -0.002705, -0.082595, -0.002896, -0.004570, 0.000159, 0.074021, 0.027861, -0.128623, -0.095336, 0.001468, 0.047977, -0.043497, -0.045814, 0.054283, -0.055153, 0.050732, 0.057336, -0.028631, 0.052903, 0.015227, -0.097129, -0.002347, -0.029887, -0.075609, -0.078376, -0.015541, -0.071176, -0.082692, -0.009870, -0.089344, -0.087575, 0.025486, 0.045933, 0.047064, -0.058430, -0.080599, 0.056404, -0.020058, -0.020642, -0.046685, -0.000613, 0.009268, 0.047272, 0.022990, 0.062839, -0.091182, -0.042672, -0.020389, -0.040402, 0.022675, 0.022463, 0.070483, -0.097331, 0.060294, -0.088768, -0.013663, -0.100000, 0.070479, 0.048900, -0.032880, -0.027306, -0.094978, -0.076174, -0.032100, -0.011623, -0.079431, -0.047979, 0.045998, 0.040875, 0.010061, -0.038160, -0.034419, 0.001948, 0.075602, -0.003406, -0.058283, 0.053238, 0.050360],
  [-0.099599, -0.072274, 0.203130, 0.045218, 0.192475, 0.063268, -0.048080, 0.086325, 0.394463, -0.095044, 0.113997, -0.041508, -0.079789, 0.055502, 0.057208, 0.012793, 0.040862, 0.010887, 0.002215, -0.033178, -0.100036, 0.050241, -0.107702, -0.104136, -0.104380, 0.004829, -0.113809, 0.087087, 0.104937, -0.056170, 0.060117, -0.301921, -0.027501, -0.143551, 0.035425, -0.012419, -0.042525, 0.026150, 0.065230, 0.023762, 0.054764, 0.012526, 0.063548, -0.034014, -0.039525, 0.063440, -0.145938, -0.070100, -0.089927, 0.115485, 0.028002, -0.031268, 0.023140, -0.066645, -0.036633, -0.016055, 0.131712, 0.032189, -0.078734, 0.021666, -0.009842, -0.109710, 0.007053, -0.066394, 0.011145, 0.141253, -0.079565, -0.103302, -0.115645, -0.064530, 0.236753, -0.037662, 0.042834, 0.027142, -0.185856, -0.062093, 0.078710, 0.090757, 0.029120, -0.075402, -0.016325, 0.050513, -0.098829, -0.017467, 0.032145, 0.002721, -0.051817, 0.020332, -0.031607, -0.128018, -0.166188, -0.041314, 0.054982, 0.282134, 0.061272, -0.066807, -0.023789, -0.068903, 0.028587, -0.087667, 0.024146, -0.085061, -0.059765, 0.107684, 0.082290, 0.000422, -0.028734, 0.296658, -0.090875, -0.127792, -0.106450, -0.108673, -0.043001, 0.063775, 0.099703, 0.064089, -0.226770, 0.059559, 0.105732, -0.089390, 0.026593, -0.031022, 0.050540, -0.103100, 0.101900, -0.238086, -0.043966, 0.024127],
  [-0.008465, 0.106220, -0.132330, 0.086788, -0.113310, 0.079702, -0.074395, -0.018175, -0.210535, 0.051000, -0.056816, 0.044728, 0.087763, -0.073122, -0.007634, -0.114103, 0.121246, -0.024055, 0.047797, -0.071900, 0.156013, 0.029228, 0.125809, 0.081437, 0.004323, 0.056774, 0.090340, 0.016364, 0.010068, -0.064048, 0.025684, -0.057289, -0.063332, 0.037393, -0.053814, -0.016916, 0.062390, -0.018882, -0.088454, -0.054959, 0.169355, 0.048502, 0.070560, -0.012360, -0.113994, 0.004226, 0.143243, 0.023825, 0.014702, -0.162981, 0.048191, 0.016732, -0.007800, 0.104008, 0.011243, -0.082623, 0.036882, 0.138739, 0.042770, -0.111163, 0.086194, 0.099214, -0.013966, -0.138187, 0.029548, -0.119631, 0.035951, 0.001770, 0.084730, 0.019514, 0.095742, 0.002653, 0.111638, -0.031916, 0.230451, 0.095507, 0.026453, 0.013670, -0.157389, -0.091597, -0.189418, -0.036342, 0.011915, 0.029784, 0.041016, 0.096125, -0.116685, 0.091569, -0.051657, 0.065086, -0.094258, 0.012951, 0.057592, -0.322623, 0.058231, -0.018587, 0.149663, 0.055597, 0.001600, 0.067936, -0.115068, 0.007366, 0.078104, -0.150202, -0.116156, -0.043775, -0.042850, -0.214795, -0.006710, -0.209069, -0.092106, 0.009637, -0.007077, 0.015749, 0.080483, 0.026407, 0.314362, -0.051264, 0.178511, 0.099119, -0.097201, 0.052287, 0.004965, 0.001888, 0.069593, 0.111152, -0.049051, -0.109134],
  [0.071214, -0.067413, -0.092713, -0.010838, 0.061144, -0.058894, -0.078717, -0.032090, 0.028413, 0.073938, -0.001387, -0.064050, -0.019831, -0.057364, -0.040661, -0.047260, -0.002309, -0.079372, -0.062709, -0.073783, -0.036063, -0.069986, -0.034594, -0.077079, 0.006681, -0.047091, -0.048825, -0.005023, -0.053205, 0.065049, 0.010318, 0.037761, 0.018370, -0.024711, 0.042425, -0.045859, 0.054068, 0.030804, 0.072564, -0.025147, 0.054810, -0.084436, 0.065059, -0.068361, -0.022147, -0.061405, -0.037337, 0.061525, -0.049638, 0.006248, -0.079210, -0.041146, 0.033473, 0.071554, -0.059349, -0.033284, -0.030599, -0.056623, -0.089799, -0.049359, -0.016600, -0.042313, -0.085683, -0.034096, 0.021682, 0.031706, -0.041511, -0.047258, 0.059240, -0.057174, 0.062330, -0.040363, -0.020199, -0.078031, 0.005102, -0.071785, 0.068969, 0.003525, 0.062623, -0.078454, 0.070019, -0.072770, 0.029499, -0.067545, 0.077736, -0.047746, 0.054963, -0.048987, -0.048986, -0.071322, 0.029476, 0.003652, -0.036126, 0.043559, 0.015343, -0.055960, -0.094858, -0.007473, 0.037616, 0.047689, -0.026427, -0.043190, 0.038702, 0.048968, 0.016155, -0.071686, 0.042159, -0.078752, 0.019667, -0.049742, 0.002480, 0.050378, -0.087637, 0.032330, -0.018217, 0.009949, 0.016143, -0.079381, -0.022561, 0.029441, -0.103908, -0.003364, -0.058361, -0.008325, 0.026105, 0.070297, -0.014406, -0.057251],
  [-0.227403, -0.063486, 0.176540, -0.082274, 0.191290, 0.136753, 0.080080, -0.016250, 0.256366, 0.069904, -0.199326, 0.067743, -0.063350, 0.047466, 0.001520, -0.016426, -0.131937, 0.025751, 0.074560, 0.023169, -0.181107, -0.017037, -0.147779, -0.102760, 0.102603, 0.107296, -0.091765, 0.126843, 0.092438, -0.010353, 0.074803, 0.113611, 0.123150, 0.063270, 0.082682, 0.100118, -0.053136, 0.096433, -0.143022, 0.052107, -0.134734, 0.037743, -0.029678, 0.018071, 0.141237, -0.074104, 0.085391, -0.017937, 0.075814, -0.133499, 0.072174, -0.060498, 0.037733, -0.117013, -0.192744, 0.098269, -0.213723, -0.227500, 0.019620, 0.117349, 0.097781, -0.094600, 0.063256, 0.059634, 0.157591, 0.102589, -0.001841, 0.110982, -0.176637, -0.006068, -0.045506, -0.042508, 0.026967, 0.063675, -0.164633, 0.031167, 0.138946, -0.044827, 0.058818, -0.048465, 0.048264, -0.052590, 0.079885, 0.073474, -0.135363, 0.056162, 0.222904, -0.051621, -0.017061, 0.029112, 0.131206, 0.058977, -0.093665, 0.141489, 0.043737, 0.026496, -0.139002, -0.033438, 0.018107, 0.001944, 0.077074, -0.022641, -0.019286, 0.142713, 0.042901, -0.055300, 0.196453, 0.289301, 0.093571, -0.007564, 0.103406, 0.084859, 0.207481, -0.016277, -0.037951, 0.064748, 0.042596, 0.017882, -0.226997, -0.054535, 0.211089, 0.124239, 0.018781, 0.102618, 0.028568, -0.026473, 0.096150, 0.019369],
  [-0.259826, 0.009533, 0.150786, -0.041563, 0.233949, 0.137998, 0.007744, 0.017934, 0.271128, 0.060652, -0.202161, -0.060627, -0.097723, 0.104974, -0.003547, 0.010879, -0.113250, 0.049178, -0.057432, -0.011387, -0.150588, 0.078256, -0.114519, -0.051727, 0.114674, 0.032128, -0.130743, 0.098143, 0.118388, 0.056565, -0.020378, 0.215113, 0.041489, -0.001322, 0.052593, -0.008948, -0.013285, 0.072004, -0.163716, 0.088746, -0.205024, 0.047767, -0.015652, -0.014249, 0.116504, 0.053831, 0.003237, 0.005046, 0.083964, -0.232136, -0.008140, -0.269725, 0.089135, -0.196431, -0.209998, 0.160808, -0.228917, -0.213615, -0.008185, 0.076734, -0.049717, -0.194902, 0.050062, 0.153629, 0.162005, 0.174314, 0.097549, 0.069965, -0.118137, 0.100437, -0.052795, 0.029746, -0.017291, 0.059296, -0.173244, 0.025721, 0.092781, -0.020671, 0.153843, 0.087807, 0.134437, 0.095571, 0.098071, 0.089902, -0.025633, -0.025890, 0.205705, 0.038732, 0.150241, -0.136922, 0.151765, -0.082418, -0.075170, 0.183660, -0.007216, 0.034289, -0.231246, -0.019629, 0.068799, 0.021090, 0.167761, -0.042524, -0.043039, 0.150790, 0.110024, -0.025294, 0.210277, 0.252131, 0.094086, 0.105502, 0.080678, 0.122738, 0.097721, -0.049563, -0.132411, 0.157026, 0.059267, 0.106901, -0.150355, 0.011607, 0.269666, 0.124722, 0.038187, -0.008177, 0.139570, -0.100124, 0.015812, 0.064607],
  [0.257525, -0.097417, -0.027919, 0.112383, -0.041698, -0.013866, -0.029747, 0.067424, 0.087103, -0.043622, 0.285318, -0.010474, -0.018175, 0.030268, -0.062143, 0.028033, 0.031797, -0.017027, 0.037778, 0.014899, 0.096304, 0.047657, 0.125952, -0.046525, -0.152499, -0.087632, 0.034921, -0.008318, -0.136035, 0.095300, 0.074563, -0.073402, -0.045608, 0.031993, 0.044824, -0.091986, -0.066670, -0.010577, 0.223049, -0.036724, -0.040077, -0.060629, 0.072089, -0.048939, -0.116212, -0.042307, -0.060269, -0.008539, 0.012758, 0.213109, -0.044593, 0.351005, -0.054103, 0.129299, 0.151857, -0.044440, 0.295434, 0.190746, -0.130685, 0.049528, -0.109621, 0.038255, 0.040311, 0.019312, -0.020726, -0.068044, -0.075907, 0.051704, 0.063249, -0.048263, 0.144287, -0.062335, 0.007157, 0.045154, 0.075553, -0.142917, -0.017975, -0.058683, 0.031450, 0.088168, 0.034079, -0.044762, -0.042129, 0.059800, 0.110646, -0.122832, -0.133697, -0.056371, -0.135860, -0.027756, -0.057108, 0.003325, 0.064749, 0.162020, -0.026518, -0.043337, 0.049868, 0.059908, -0.106188, -0.080527, 0.003102, -0.006619, -0.086262, 0.049545, 0.092015, -0.033253, -0.120938, -0.067917, -0.073393, 0.115360, -0.221729, -0.048078, -0.075295, -0.089378, 0.038637, -0.104252, -0.298913, 0.009825, 0.138932, -0.068027, -0.019789, -0.108972, -0.002060, 0.038808, -0.026914, -0.091575, 0.014300, -0.044506],
  [-0.006513, -0.049345, 0.030449, 0.010466, -0.056623, 0.012300, -0.070092, 0.042760, 0.065826, 0.018593, -0.010550, 0.014682, -0.009012, 0.051795, -0.099799, 0.026973, -0.054315, 0.045983, 0.004128, -0.016429, -0.039568, 0.014404, -0.043990, -0.041905, 0.041419, -0.020071, 0.011344, -0.020660, -0.090898, -0.008873, -0.050575, -0.036427, -0.035164, -0.027916, -0.080489, -0.082104, -0.000305, -0.011116, -0.054885, 0.023163, 0.034002, 0.064380, 0.028639, -0.008933, 0.066564, -0.022012, 0.032940, -0.042462, -0.082343, -0.025973, -0.002689, 0.013783, -0.022138, -0.065932, -0.039860, -0.054962, -0.055932, -0.069954, 0.013896, -0.087687, 0.018689, 0.024238, -0.074166, -0.007616, 0.005974, -0.069980, 0.025635, -0.092956, -0.083134, -0.040710, 0.005611, 0.067554, -0.087718, 0.055773, -0.055519, -0.090236, 0.019735, 0.058417, 0.065804, 0.007573, -0.062434, -0.070914, 0.067928, -0.057336, -0.026796, 0.000391, -0.097163, -0.073964, -0.076044, 0.010966, 0.013126, 0.042513, -0.022413, 0.014444, 0.068875, 0.014670, -0.084907, -0.046733, -0.038265, -0.017858, -0.000701, 0.042997, 0.024301, 0.036432, 0.058518, 0.031560, 0.060230, -0.019997, -0.080174, -0.101394, 0.035946, -0.039185, 0.068897, -0.023136, 0.038424, -0.062191, -0.036357, 0.064224, 0.028565, 0.048842, 0.018962, -0.066271, -0.039623, -0.099130, -0.024420, 0.067186, -0.068832, 0.034856],
  [0.195767, 0.035431, -0.299393, 0.275983, -0.092975, 0.040538, -0.061313, -0.163797, -0.175561, 0.055020, 0.117561, 0.096616, 0.068918, 0.044672, -0.013037, -0.150907, 0.169837, -0.158372, 0.085305, -0.145034, 0.320248, -0.097394, 0.304100, 0.191144, 0.150163, -0.053412, 0.147942, 0.057774, -0.035944, -0.228428, 0.021314, -0.024906, -0.088764, 0.001342, -0.030187, 0.001665, 0.079337, -0.011564, 0.286084, 0.025436, 0.186799, -0.041823, 0.049757, 0.063684, -0.178807, -0.006979, 0.177528, 0.124930, -0.045888, 0.065273, 0.093157, 0.224199, -0.050474, 0.265741, 0.180461, -0.169019, 0.189226, 0.142855, 0.022118, -0.075383, 0.026034, 0.201193, -0.009723, -0.287168, -0.043632, -0.224023, -0.262683, 0.004413, 0.111546, -0.035218, 0.127400, -0.026781, 0.106044, 0.150164, 0.287824, 0.087428, 0.056210, -0.071666, -0.093150, 0.032035, -0.197757, 0.075697, 0.015667, 0.112950, 0.054024, 0.109182, -0.138309, -0.001178, -0.205930, 0.048572, -0.134734, -0.005994, 0.167155, -0.330896, 0.039338, -0.022541, 0.272765, 0.179131, 0.037016, -0.122696, -0.255381, 0.120695, 0.032819, -0.262956, -0.211784, -0.043790, -0.111932, -0.283544, -0.070723, -0.209342, -0.177896, -0.118079, -0.105849, -0.105982, 0.131862, -0.102398, 0.216426, -0.243255, 0.172508, 0.062241, -0.103182, 0.019840, -0.084157, -0.023246, -0.084475, 0.181560, 0.037704, -0.062237],
  [0.198317, -0.078770, -0.118151, 0.153580, 0.103022, -0.126836, -0.024379, -0.073344, 0.055145, 0.067096, 0.263220, -0.045218, -0.113961, -0.011846, -0.012815, -0.097148, 0.052327, 0.057809, -0.042349, 0.011009, 0.087003, -0.005540, 0.182655, 0.059085, -0.074932, -0.115661, 0.031026, -0.054510, -0.141171, 0.028597, 0.007312, -0.051344, -0.157234, -0.089365, 0.043488, -0.129207, -0.008730, -0.073041, 0.236840, -0.045597, 0.105244, -0.023150, 0.045223, 0.042615, 0.020130, -0.112933, -0.110239, -0.132783, -0.067073, 0.241296, -0.201776, 0.297181, 0.011679, 0.149842, 0.230251, -0.072670, 0.248980, 0.157388, 0.031547, 0.025606, -0.032788, 0.030702, -0.028926, -0.075098, 0.022004, 0.083527, -0.051176, -0.034833, 0.082473, -0.081186, 0.180920, -0.117326, -0.140646, -0.031528, 0.029679, -0.085103, -0.018959, 0.019857, 0.066390, 0.015213, 0.131427, 0.021965, 0.080040, 0.028907, 0.129195, -0.001027, -0.100720, 0.046453, -0.095817, -0.059456, -0.185511, 0.050859, 0.065313, 0.153423, 0.040997, -0.096985, 0.085028, 0.116796, -0.059710, -0.097209, 0.002369, 0.109123, -0.004159, 0.156345, 0.055756, -0.001790, -0.156363, -0.135659, -0.064927, 0.090799, -0.212435, -0.017365, -0.057212, -0.070436, 0.082794, -0.191266, -0.298826, -0.021269, 0.184599, -0.131056, 0.044452, -0.135868, 0.016082, -0.054119, -0.040122, -0.046964, 0.009114, -0.199817],
  [0.111167, 0.117801, 0.026141, 0.041842, -0.039805, 0.019851, -0.129727, 0.050936, -0.243123, -0.043733, -0.083594, 0.003450, 0.097199, -0.046051, 0.086142, 0.003369, -0.045799, -0.092591, -0.010107, 0.062635, 0.200358, -0.060102, 0.067522, -0.004492, 0.138689, 0.043405, 0.108336, -0.023465, -0.015955, -0.020443, 0.076798, 0.011013, -0.088979, -0.043677, -0.026128, -0.054406, 0.049258, -0.014152, -0.097825, -0.080234, 0.173148, 0.101282, 0.028803, -0.048477, -0.029603, 0.058106, 0.080752, 0.006421, -0.022448, -0.056407, 0.036800, 0.081359, 0.030239, 0.127107, 0.089205, -0.001631, 0.066062, 0.119262, 0.059039, -0.030033, 0.089925, -0.015256, 0.053929, -0.163044, 0.032324, -0.157556, -0.023199, 0.031142, 0.090032, 0.022794, 0.137905, 0.098858, 0.033954, 0.098160, 0.098019, 0.014664, -0.067157, 0.020483, -0.094770, -0.077961, -0.216892, 0.006031, -0.046507, 0.039314, 0.116625, 0.070865, -0.089925, -0.080056, -0.100721, 0.104205, 0.002984, -0.051194, -0.023889, -0.366113, -0.080616, -0.024676, 0.168374, 0.019606, -0.039943, 0.042772, -0.089705, 0.033662, 0.062198, -0.090710, 0.018230, -0.022713, -0.177307, -0.136895, 0.093597, -0.194906, -0.077770, -0.065882, -0.070725, 0.055955, 0.002681, 0.021251, 0.261557, -0.108467, 0.242087, 0.099657, 0.054422, 0.060132, 0.017308, -0.023242, -0.002396, 0.165896, -0.041197, -0.037593],
  [0.089904, -0.043357, -0.127818, 0.068245, -0.080083, 0.015937, -0.034197, -0.118112, -0.184702, 0.076105, 0.060735, 0.010566, 0.121713, -0.019936, 0.012677, -0.160553, 0.082559, -0.028401, 0.101549, -0.033916, 0.180364, -0.040903, 0.231870, 0.078710, 0.052544, -0.036300, -0.007024, -0.071602, -0.115420, -0.147051, -0.086468, -0.078230, -0.061079, 0.007229, -0.103165, -0.046290, 0.029916, -0.080077, 0.003739, -0.001453, 0.283089, 0.067384, 0.131474, -0.012703, -0.111449, 0.068189, 0.294159, 0.040571, -0.039070, -0.164711, 0.067355, 0.023577, 0.019739, 0.121439, 0.164697, 0.006553, 0.153548, 0.118080, -0.049607, -0.090337, 0.109426, 0.104684, 0.032248, -0.074764, 0.035457, -0.116245, -0.043527, -0.035129, 0.272643, 0.050838, 0.153649, -0.065230, 0.070618, 0.111651, 0.196620, 0.126459, -0.069645, -0.021949, -0.179480, -0.059572, -0.162282, -0.009889, 0.056516, 0.099822, 0.164521, 0.109917, -0.131311, 0.019385, -0.004410, 0.068507, -0.087832, 0.059289, 0.147257, -0.352698, 0.027998, 0.003921, 0.215023, 0.141260, 0.096969, 0.010856, -0.150865, -0.004886, -0.075962, -0.160855, -0.050275, -0.007562, -0.208600, -0.170222, 0.072440, -0.241378, -0.233990, -0.128184, -0.079539, 0.044013, 0.062930, -0.139382, 0.291477, -0.057953, 0.187059, -0.007249, -0.076702, -0.038816, -0.087772, -0.075054, -0.037692, 0.283190, -0.038669, -0.139526],
  [0.384901, 0.122011, -0.258293, 0.208072, -0.312458, -0.046523, -0.084034, -0.050078, -0.332279, 0.141111, 0.248063, -0.054304, 0.279767, -0.096024, 0.102610, -0.183541, 0.299831, -0.145627, 0.096499, -0.086398, 0.357007, -0.242654, 0.330276, 0.282941, 0.117666, -0.041074, 0.281011, -0.047373, -0.193390, -0.239285, 0.032975, -0.261498, -0.312307, 0.099021, -0.077268, -0.008407, 0.017754, -0.278921, 0.353381, -0.047090, 0.247127, 0.015854, 0.173262, -0.019690, -0.161127, 0.074714, 0.175640, -0.054694, -0.085229, 0.257007, -0.040854, 0.308243, 0.055603, 0.301915, 0.370326, -0.170888, 0.399168, 0.257059, -0.071791, -0.061061, 0.003957, 0.277788, 0.106499, -0.158157, -0.108175, -0.177858, -0.299713, -0.137040, 0.337103, -0.063537, 0.266078, 0.052280, 0.013999, 0.112177, 0.163422, 0.025184, -0.093058, -0.090890, -0.132249, 0.079599, -0.193889, 0.053269, 0.019622, -0.008886, 0.160742, -0.000527, -0.267787, 0.173360, -0.288940, 0.233439, -0.174339, 0.029392, 0.250413, -0.296092, 0.077519, 0.100779, 0.222155, 0.229550, 0.050843, -0.168238, -0.336084, 0.277658, -0.061697, -0.185188, -0.205909, 0.035918, -0.289418, -0.256141, -0.071234, -0.202673, -0.287049, -0.222473, -0.293668, 0.050133, 0.271267, -0.229779, 0.130121, -0.254374, 0.366010, 0.099755, -0.247988, -0.049903, 0.046001, -0.030506, -0.145731, 0.369005, 0.062343, -0.174359],
  [0.158694, 0.067599, -0.059446, 0.178891, -0.161116, 0.008873, -0.115899, -0.048863, -0.181483, 0.061361, -0.011492, -0.060568, 0.140025, -0.044801, -0.085967, -0.034149, 0.110508, -0.098483, 0.067158, -0.025556, 0.153123, -0.022712, 0.254208, 0.083619, 0.094375, -0.048999, 0.160039, 0.034355, -0.019515, -0.078520, -0.072724, -0.062939, -0.136502, 0.166119, 0.032351, 0.058963, -0.001701, -0.050444, 0.048430, -0.025837, 0.259073, -0.078126, 0.055689, 0.048623, -0.080706, 0.048969, 0.182186, -0.000432, -0.070222, -0.092602, 0.005039, 0.129187, 0.015466, 0.251048, 0.074537, -0.196863, 0.007640, 0.311866, 0.054369, -0.007431, 0.100851, 0.131364, -0.081896, -0.117854, 0.030340, -0.085925, -0.072095, -0.088130, 0.188408, -0.044567, 0.048952, 0.042532, -0.013936, -0.007861, 0.203979, 0.072508, -0.008000, -0.044477, -0.057716, -0.081853, -0.244551, 0.065715, 0.046109, 0.017641, 0.079390, 0.072321, -0.180051, 0.002544, -0.142374, 0.123322, -0.140427, -0.006538, 0.147788, -0.348637, 0.034125, -0.059119, 0.193269, 0.225065, -0.058876, -0.114863, -0.134480, 0.065689, 0.072304, -0.134200, -0.274578, -0.055448, -0.116814, -0.213499, 0.046436, -0.214956, -0.165840, -0.064042, -0.147800, -0.069398, 0.198739, -0.075323, 0.319287, -0.032438, 0.266721, 0.082570, -0.041942, 0.005386, 0.038920, -0.038305, -0.116643, 0.209148, -0.032992, -0.150104],
  [-0.156804, 0.022183, 0.012136, -0.083723, 0.138079, 0.081986, 0.010828, 0.077669, 0.155210, 0.008391, -0.122522, 0.054708, 0.063000, 0.058426, 0.083985, -0.043454, -0.032051, 0.074747, 0.039750, 0.033291, -0.076289, -0.051284, -0.012742, -0.010153, -0.026471, 0.051452, -0.094932, 0.055518, 0.141730, 0.076252, -0.061946, 0.201041, 0.024616, 0.063338, 0.110501, 0.013208, -0.020527, 0.080581, -0.126450, -0.002908, -0.066890, 0.089705, -0.083888, -0.001225, -0.036746, 0.049823, 0.005105, 0.016301, -0.012386, -0.154138, 0.078830, -0.217335, -0.066420, -0.147006, -0.174190, 0.067480, -0.188838, -0.247919, 0.034277, 0.046891, 0.064440, -0.097869, -0.041213, 0.047295, -0.039558, 0.103497, -0.031265, 0.060159, -0.009093, 0.078554, -0.044642, 0.018017, 0.057116, 0.060345, -0.000196, 0.085884, 0.028699, 0.085192, 0.026283, 0.011389, -0.083939, 0.009515, 0.050965, 0.094041, -0.037239, 0.003043, 0.065764, -0.045368, -0.032453, 0.038541, 0.016704, -0.066175, 0.047906, -0.047959, 0.034964, 0.046622, -0.149743, -0.097416, 0.079356, -0.005317, 0.064032, -0.077940, 0.038855, -0.037527, 0.083737, 0.040389, 0.097405, 0.182306, 0.097997, 0.030655, 0.001654, -0.000046, 0.044186, -0.057423, -0.040907, 0.029991, 0.244134, 0.032031, -0.131129, -0.058786, 0.198590, 0.056883, 0.025285, 0.036247, 0.084342, -0.082062, 0.099182, 0.016921],
  [-0.193496, 0.074923, 0.149933, -0.040769, 0.159029, 0.017562, 0.023551, -0.056664, 0.127814, 0.043528, -0.144456, 0.004240, 0.007386, -0.042785, 0.047220, -0.025105, -0.074757, -0.040083, -0.063465, 0.087055, -0.055776, 0.076474, -0.011732, 0.000290, 0.125583, 0.087723, 0.015332, -0.016299, 0.123614, 0.052922, 0.087054, 0.235817, 0.104469, 0.086220, -0.044056, -0.032018, -0.038674, 0.087682, -0.132914, 0.102281, -0.042196, 0.058497, 0.033921, 0.080930, 0.064671, 0.034673, 0.088975, 0.089569, -0.009014, -0.156378, 0.071755, -0.108196, -0.057264, -0.047113, -0.163031, -0.034376, -0.102851, -0.167687, 0.083289, 0.016379, 0.086793, -0.045095, 0.052240, 0.099589, 0.086432, 0.099713, -0.033123, 0.133465, -0.078479, -0.063964, 0.000576, -0.058450, -0.028260, -0.065901, 0.014245, 0.069523, 0.014073, 0.027265, 0.110234, -0.021232, -0.062684, -0.016762, -0.064801, 0.075680, -0.025896, 0.037794, -0.010775, -0.007057, 0.030459, -0.079922, 0.133347, -0.046206, -0.026682, -0.012571, 0.051567, 0.005905, -0.163528, 0.037441, 0.100714, 0.091428, -0.035777, -0.059114, 0.021869, 0.003798, -0.033117, 0.075317, 0.106483, 0.107525, -0.006372, -0.030082, 0.106515, 0.138730, 0.128112, 0.060479, -0.074755, 0.009832, 0.291080, 0.028494, -0.103796, 0.067182, 0.094767, 0.078541, -0.018504, 0.043325, 0.069535, 0.031648, -0.031089, -0.016277],
  [0.002530, 0.020115, -0.094632, -0.015305, 0.037241, -0.071892, -0.090806, 0.073055, 0.061971, -0.045322, 0.056058, 0.044319, -0.025714, -0.089369, 0.032766, -0.097805, -0.073908, -0.082294, 0.001097, -0.054943, 0.006566, -0.073532, -0.070530, -0.070368, 0.052784, -0.044599, -0.022380, 0.058994, -0.059583, 0.024764, -0.079006, 0.024388, -0.061805, 0.022185, -0.096546, -0.047646, -0.030323, -0.035896, 0.029228, -0.095463, -0.066003, 0.041183, -0.069924, 0.042021, -0.038149, -0.052918, -0.095822, 0.070128, -0.091462, -0.064296, -0.076151, 0.033532, -0.077139, -0.044778, -0.084708, -0.026167, -0.046770, 0.061344, -0.096008, 0.074582, -0.049341, -0.058187, 0.052154, 0.019480, 0.054493, -0.081772, -0.046527, -0.086603, 0.045896, -0.004676, -0.087598, 0.019796, -0.006559, 0.038990, 0.023595, 0.074503, 0.041576, 0.013174, -0.097366, 0.055563, -0.009382, -0.001217, 0.054092, -0.025404, 0.021255, 0.043750, 0.064132, -0.058979, -0.068390, -0.096551, 0.037823, 0.001360, -0.082454, -0.080373, -0.070265, 0.029127, 0.056222, 0.067125, 0.028995, 0.035056, -0.096422, 0.057671, 0.017144, -0.089954, 0.019018, 0.056188, -0.077711, -0.085399, 0.010213, -0.004351, -0.080268, 0.005228, 0.048168, -0.047468, -0.076818, -0.075647, -0.009523, 0.012387, 0.080563, 0.017789, -0.076220, -0.014969, -0.096133, -0.012612, -0.031008, 0.068206, -0.045263, -0.045257],
  [-0.021591, 0.070765, -0.028717, -0.036021, 0.020850, 0.029330, -0.095365, -0.058865, -0.101114, -0.088302, -0.072056, -0.091019, 0.028848, -0.015251, 0.062541, 0.048852, -0.031912, 0.000678, 0.063656, -0.023647, -0.023835, -0.078627, 0.068360, -0.046567, -0.000428, 0.036531, 0.050147, -0.046603, 0.024257, 0.045284, -0.025892, 0.034346, -0.036711, -0.022695, -0.102094, -0.075431, -0.031555, -0.080406, 0.055391, -0.032210, -0.053887, -0.022097, -0.045287, 0.040967, 0.069784, 0.017192, -0.062912, -0.031855, -0.012856, 0.029327, -0.002475, 0.054011, -0.056048, -0.074158, -0.036834, 0.018054, -0.069026, -0.093591, -0.014485, 0.059961, -0.039291, -0.089531, -0.102305, -0.014862, -0.099183, 0.039623, -0.085207, -0.014844, 0.055924, -0.036267, -0.070235, 0.044566, -0.055055, -0.077963, -0.074430, -0.023587, -0.021353, -0.092584, 0.011648, 0.002622, -0.000189, 0.053435, 0.072502, 0.001248, 0.065404, -0.011277, -0.013119, -0.055894, -0.015584, -0.014165, -0.054007, 0.054437, -0.023046, 0.057566, -0.064208, 0.042245, 0.033183, -0.049309, -0.094140, 0.064502, -0.034456, 0.072936, 0.069505, 0.054471, 0.022161, 0.063649, -0.070315, -0.075596, -0.052002, -0.082118, -0.064716, -0.060109, 0.064762, -0.050485, -0.038624, 0.049773, -0.056383, -0.074812, 0.028003, 0.011873, -0.088877, 0.056466, -0.097181, -0.023869, -0.090000, -0.059751, -0.012108, 0.010164],
  [-0.130633, 0.048274, 0.112149, -0.068132, 0.087392, 0.083646, 0.140662, 0.075009, 0.201591, -0.102599, -0.154015, 0.023425, -0.145887, 0.111744, 0.039966, 0.033085, -0.082948, 0.035440, 0.040813, 0.011181, -0.095881, 0.105016, -0.253619, -0.084388, -0.070803, -0.014117, -0.080127, 0.084464, 0.230339, 0.102446, 0.094997, 0.195754, 0.156218, -0.069154, -0.004157, 0.065165, 0.009140, 0.147637, -0.151353, 0.103246, -0.144709, 0.102191, 0.003142, 0.105857, -0.012967, -0.053174, -0.132797, -0.007268, 0.024510, -0.076439, 0.022072, -0.053053, 0.069621, -0.205489, -0.069662, 0.011249, -0.205799, -0.132724, 0.089294, 0.095300, -0.029537, -0.134273, -0.067136, 0.081636, -0.004419, 0.245658, 0.167860, 0.001704, -0.153474, 0.092903, -0.140808, -0.046521, 0.071627, -0.105887, -0.073050, 0.062825, 0.132770, 0.093097, 0.089708, 0.100730, 0.168016, -0.049182, 0.059326, -0.053335, -0.032950, 0.035569, 0.137817, 0.052682, 0.064348, -0.130250, 0.182833, 0.014666, -0.018471, 0.202514, 0.034762, 0.091258, -0.166639, -0.057293, 0.061612, 0.056257, 0.146620, -0.103195, 0.004068, 0.241017, 0.019894, 0.051717, 0.069418, 0.152204, -0.011843, 0.159715, 0.158555, 0.175072, 0.148780, -0.011853, -0.045743, 0.037757, -0.002642, 0.006566, -0.143776, -0.037406, 0.224333, 0.096132, 0.034857, 0.059959, 0.058052, -0.105093, 0.094145, 0.061698],
  [0.099700, 0.011201, 0.276599, 0.004592, -0.132941, -0.096476, -0.218928, -0.039886, 0.152950, 0.057354, -0.107658, -0.076323, 0.075069, -0.063164, -0.131155, -0.134230, 0.068721, -0.108624, -0.044386, 0.044685, 0.110952, -0.138074, 0.034021, -0.189079, -0.115798, -0.061562, 0.295965, -0.158858, 0.047238, -0.120283, -0.079122, -0.120229, -0.151187, 0.068422, -0.297929, -0.029763, -0.119814, -0.195139, 0.014716, -0.075074, -0.010320, -0.085945, -0.056454, -0.166149, 0.046343, -0.095177, 0.143512, -0.251558, 0.117369, 0.032277, -0.145429, -0.075706, -0.036982, 0.073710, 0.228366, -0.099091, -0.154422, 0.272669, -0.044541, 0.024032, 0.043003, 0.092882, -0.077840, 0.021260, -0.012207, 0.100264, 0.004435, -0.134949, -0.095370, -0.051497, -0.074662, 0.019516, -0.122183, 0.078514, 0.177889, 0.040295, -0.059901, 0.153025, -0.140981, 0.121242, 0.168902, -0.074419, -0.189213, 0.041103, 0.154686, -0.003032, 0.198933, 0.014156, -0.059720, -0.003221, 0.259735, -0.117953, 0.060554, -0.291110, -0.005980, -0.045042, 0.126914, 0.008154, 0.103814, 0.014790, -0.074622, 0.035498, 0.150433, -0.145379, -0.061934, 0.008372, 0.257154, 0.456644, -0.109887, -0.230768, 0.270078, -0.238895, -0.020702, -0.062450, 0.086675, -0.113374, -0.282133, -0.087900, -0.086294, -0.170384, 0.113712, -0.053623, -0.034625, 0.017139, 0.049499, 0.060962, -0.140276, -0.212877],
  [0.044473, -0.068005, 0.023082, 0.054694, -0.021772, -0.012497, -0.024412, -0.083825, -0.030970, -0.079777, 0.033258, 0.038832, 0.001635, 0.070623, -0.061124, -0.054988, 0.007211, 0.014984, 0.003646, 0.053728, -0.066812, -0.095689, -0.096728, 0.061790, 0.003270, -0.036831, 0.027965, 0.003206, -0.096218, -0.084823, -0.013477, -0.061002, 0.049004, -0.027789, 0.016806, -0.088727, -0.005923, 0.055119, 0.053242, -0.015637, 0.052821, 0.055550, -0.045146, -0.044568, 0.049111, -0.086252, -0.023285, 0.008108, 0.012413, 0.049898, -0.083040, 0.061640, -0.043398, -0.095334, -0.011404, -0.066021, -0.079066, -0.169258, 0.055438, 0.060927, 0.035111, -0.069987, -0.088840, -0.000310, -0.027514, -0.076307, 0.055198, -0.017319, -0.056489, -0.060581, -0.034551, 0.023186, -0.062970, -0.070608, 0.042136, -0.066519, -0.057558, 0.012658, -0.023186, -0.080400, -0.069271, 0.044781, -0.076637, 0.042511, 0.067139, 0.022499, -0.057292, -0.076665, 0.015206, 0.064154, 0.061008, 0.004403, 0.074817, -0.095602, -0.067449, -0.029031, -0.069204, 0.052441, 0.055712, 0.056847, -0.021608, 0.062774, 0.034894, -0.026584, -0.010545, -0.026573, 0.034141, 0.058251, 0.038460, 0.020428, -0.072422, -0.086620, -0.085925, 0.047568, -0.020221, -0.027298, 0.014429, -0.035444, 0.047210, -0.031162, 0.020876, -0.085699, 0.060955, -0.097567, -0.032303, -0.039371, -0.014874, 0.034919],
  [-0.219982, 0.038486, 0.236293, -0.135690, 0.149402, 0.108626, 0.108659, 0.087557, 0.259955, 0.068173, -0.209863, 0.020950, -0.124540, -0.009023, 0.083911, 0.016359, -0.043718, 0.067556, 0.046188, 0.079778, -0.161305, 0.045537, -0.191163, -0.011782, 0.065012, 0.070009, -0.175503, -0.029004, 0.249177, 0.057793, 0.041141, 0.281659, 0.127223, -0.074535, 0.096373, 0.096214, -0.060618, 0.155504, -0.215495, -0.047913, -0.149364, -0.032673, -0.106566, 0.064147, 0.075820, -0.031307, -0.070964, 0.027863, 0.093451, -0.105601, -0.043998, -0.274437, 0.046874, -0.144139, -0.217828, 0.046345, -0.276788, -0.240123, -0.025031, 0.093470, -0.022154, -0.094302, 0.024918, 0.203940, 0.050435, 0.262785, 0.031029, 0.111226, -0.191053, 0.079633, -0.044857, 0.101809, 0.107116, 0.054017, -0.169637, 0.086736, 0.108385, -0.021827, 0.171097, 0.069221, -0.014485, 0.045888, 0.068842, 0.028092, -0.172059, -0.019313, 0.261786, -0.072939, 0.026902, -0.134500, 0.185012, 0.051329, -0.113754, 0.239554, 0.026747, -0.071404, -0.086335, -0.051012, 0.074151, 0.020667, 0.113652, -0.010439, 0.041799, 0.090668, 0.078984, 0.045863, 0.073288, 0.248678, 0.059023, 0.082919, 0.115138, 0.116838, 0.178563, 0.038176, 0.014885, 0.027466, 0.152828, 0.069519, -0.180185, 0.062628, 0.211279, 0.084903, 0.071313, -0.002427, 0.051957, -0.095814, 0.063207, 0.145223],
  [0.058068, -0.011322, 0.011335, -0.037783, 0.052354, 0.039902, 0.051895, 0.070703, -0.028675, -0.086560, 0.052243, 0.002093, 0.008312, 0.024716, -0.049970, -0.096310, 0.017295, 0.068564, -0.072943, -0.086644, -0.016187, -0.097521, 0.047059, 0.031614, 0.069362, -0.056564, 0.034084, -0.089988, 0.045659, 0.030558, -0.003597, 0.000054, 0.042874, 0.050816, -0.040321, -0.024407, 0.045951, -0.056029, -0.087207, -0.062254, -0.046205, 0.037957, 0.016941, 0.027084, 0.002235, 0.068155, -0.062185, -0.092023, -0.090687, -0.032321, 0.005838, -0.026811, -0.014961, -0.066596, 0.052577, -0.048609, 0.021355, 0.048471, -0.002070, -0.065775, -0.088304, 0.027945, 0.051024, 0.010286, -0.081116, -0.089297, -0.080211, -0.057182, -0.027259, -0.031992, -0.031006, -0.036849, -0.079939, -0.075531, 0.045642, -0.068585, 0.048259, 0.045286, 0.043756, -0.096010, 0.030018, 0.047551, -0.011584, -0.013795, 0.005175, 0.009133, 0.026775, -0.033926, 0.016014, -0.037879, 0.042101, -0.030782, -0.036885, -0.025117, 0.067376, 0.004186, -0.097876, -0.020201, 0.061941, -0.001890, 0.015413, -0.013616, -0.071109, -0.088970, 0.011480, -0.022815, -0.031412, -0.009030, 0.000260, 0.070205, 0.023405, 0.066605, -0.083425, -0.042013, -0.015323, -0.070068, 0.067893, 0.023250, 0.002024, 0.018712, 0.050347, 0.063948, -0.092443, -0.058624, -0.076659, -0.012302, 0.018720, 0.065581],
  [-0.327635, -0.092845, 0.335731, -0.193229, 0.226491, 0.098018, 0.139842, 0.199932, 0.327828, -0.124552, -0.115520, -0.021903, -0.157021, 0.103360, 0.101431, 0.181056, -0.144181, 0.219341, -0.069516, 0.042394, -0.236966, 0.230469, -0.192940, -0.132717, 0.070777, 0.056527, -0.238508, 0.139795, 0.248869, 0.236251, 0.081380, 0.247913, 0.254894, 0.015462, 0.041488, 0.005126, -0.028186, 0.164273, -0.301706, -0.040998, -0.200943, -0.008638, -0.175056, 0.074497, 0.140178, 0.023675, -0.122465, -0.003708, -0.018242, -0.106260, 0.032455, -0.185825, 0.094451, -0.158252, -0.160139, 0.336009, -0.352672, -0.293622, 0.129831, 0.193292, 0.060447, -0.210031, -0.049190, 0.229989, 0.279387, 0.242434, 0.332181, 0.097195, -0.226914, -0.032396, -0.050754, 0.104921, 0.011217, 0.044025, -0.258887, 0.003987, 0.134410, 0.124182, 0.170822, 0.101348, 0.173645, 0.028803, 0.045345, -0.017978, -0.217191, -0.064060, 0.342293, -0.014296, 0.187220, -0.062145, 0.233713, 0.013377, -0.175339, 0.303539, 0.051457, 0.084386, -0.216345, -0.221738, 0.046032, 0.069505, 0.275223, -0.131293, 0.089187, 0.244465, 0.140677, 0.046316, 0.356452, 0.246083, 0.056812, 0.101019, 0.249677, 0.277934, 0.211206, 0.038064, -0.085749, 0.155980, -0.026002, 0.247957, -0.157468, 0.097705, 0.213922, 0.029778, -0.008030, -0.054308, 0.139794, -0.197305, 0.035729, 0.154352],
  [0.179448, -0.088503, -0.012267, 0.085594, -0.107737, 0.015937, 0.031622, 0.035364, -0.072489, 0.084405, 0.181149, 0.058339, 0.027895, -0.074131, -0.001490, 0.031189, 0.029053, 0.070536, -0.088735, -0.037438, 0.034593, -0.043990, 0.063167, 0.075994, -0.041828, -0.031135, 0.075992, 0.052514, -0.117509, 0.005504, -0.092028, -0.053267, -0.041916, -0.083674, 0.028283, -0.104639, 0.004071, -0.005547, 0.057502, -0.062713, 0.113976, 0.025456, 0.040588, -0.064311, 0.051202, 0.004143, 0.118228, -0.042720, -0.081447, 0.149379, 0.025525, 0.233566, -0.044559, 0.162461, 0.020672, -0.048396, 0.173298, 0.377137, 0.003839, -0.049291, 0.015027, 0.042466, -0.031185, -0.036532, 0.020825, 0.079934, -0.018602, 0.031649, 0.011820, -0.085940, 0.164180, -0.050640, 0.006238, 0.013570, 0.063191, -0.009138, -0.019426, -0.020895, 0.059342, -0.089592, 0.015322, -0.087712, 0.046119, 0.061963, -0.046985, -0.030635, -0.006657, 0.072587, -0.007774, 0.017273, -0.054913, -0.007154, 0.101418, -0.024890, -0.065774, 0.067002, 0.102789, 0.072913, 0.014746, -0.063007, -0.079181, 0.003978, 0.065538, -0.050420, -0.060548, 0.071839, -0.041355, 0.019946, -0.072707, 0.099432, -0.083464, -0.075426, -0.050519, -0.048801, 0.100436, -0.145455, 0.030729, 0.000670, 0.222424, -0.070066, -0.095425, 0.030631, 0.064656, -0.001868, 0.029036, 0.165403, 0.016505, 0.040345],
  [-0.059940, 0.019778, -0.044421, -0.011963, 0.045309, 0.003605, 0.070273, -0.053548, -0.027994, 0.016540, 0.067500, 0.065989, -0.000765, 0.009410, -0.012229, 0.005255, -0.031197, -0.060110, -0.050343, 0.036807, -0.068751, 0.003022, -0.095728, -0.010511, -0.035893, -0.060818, -0.015026, -0.033276, -0.067600, 0.063563, -0.023647, -0.065907, 0.050139, -0.038719, 0.064267, -0.072130, -0.062562, 0.021169, -0.015924, -0.066891, 0.013007, 0.057104, -0.070384, -0.083235, 0.045717, 0.015461, -0.030913, 0.059524, -0.074718, 0.062037, -0.022420, -0.093900, -0.035751, 0.043302, -0.023298, -0.007787, -0.093572, 0.050383, 0.063743, 0.050008, -0.055497, -0.040281, -0.088148, 0.047658, 0.043874, -0.000243, 0.017743, 0.022369, -0.072526, 0.041630, -0.095181, -0.081924, -0.028420, 0.072768, 0.066317, 0.014572, 0.026568, -0.057220, -0.001033, 0.023137, -0.005925, -0.085009, 0.039294, 0.028485, -0.066164, -0.031981, 0.061989, -0.072864, 0.040072, -0.064697, 0.067774, 0.020354, -0.002271, -0.089178, -0.101718, -0.095703, -0.000871, -0.090105, -0.088589, -0.081438, -0.066943, -0.033126, 0.049027, -0.048212, 0.029630, 0.031216, 0.049238, 0.014038, 0.032244, -0.088755, 0.042618, -0.046528, -0.004588, -0.020211, 0.009491, -0.053723, -0.004209, -0.046358, -0.046771, 0.051239, -0.026916, 0.015360, 0.029498, -0.089284, 0.021743, -0.064243, -0.035953, -0.074428],
  [0.365101, 0.042837, -0.199389, 0.234384, -0.177024, -0.012077, -0.058938, -0.085381, -0.360378, 0.077002, 0.338357, 0.075691, 0.080780, -0.048284, 0.055494, -0.203342, 0.286872, -0.123967, 0.167481, -0.051780, 0.332764, -0.167512, 0.211298, 0.252525, -0.004610, 0.046339, 0.192848, -0.034129, -0.154654, -0.160717, -0.073937, -0.215789, -0.294249, 0.076113, -0.105187, 0.001062, 0.004676, -0.079903, 0.230512, -0.032274, 0.301362, 0.075476, 0.095093, -0.031408, -0.246992, 0.048281, 0.242277, -0.012449, -0.042630, 0.187060, 0.077374, 0.318539, -0.027373, 0.295274, 0.277774, -0.223384, 0.321122, 0.238169, -0.106077, -0.013598, 0.022674, 0.278494, 0.100885, -0.282659, -0.063552, -0.186242, -0.173778, -0.003175, 0.247810, 0.050953, 0.267792, 0.007143, -0.000659, 0.119564, 0.304586, 0.102604, -0.154650, -0.161660, -0.277825, -0.020119, -0.166356, -0.079020, 0.066481, 0.049105, 0.187824, 0.000943, -0.264866, 0.117095, -0.254245, 0.161624, -0.144217, 0.067384, 0.211826, -0.240690, -0.007268, 0.050741, 0.256342, 0.202081, 0.069657, -0.134862, -0.193190, 0.178340, 0.079185, -0.251351, -0.277100, 0.045223, -0.264956, -0.265235, 0.025525, -0.126607, -0.200596, -0.215146, -0.193030, -0.018071, 0.296291, -0.106407, 0.143006, -0.252167, 0.341797, -0.027371, -0.203040, -0.057396, 0.055576, 0.030649, -0.170399, 0.335917, 0.025144, -0.228329],
  [-0.047707, 0.005256, 0.005877, -0.066365, -0.031625, -0.054930, -0.014094, -0.075860, -0.103419, -0.019670, 0.132675, 0.022782, -0.064792, 0.021333, 0.013110, -0.084499, -0.011399, 0.070621, -0.064961, -0.000717, -0.026309, 0.027257, -0.108976, 0.032223, 0.029854, -0.106195, 0.089581, -0.084844, -0.053106, 0.015574, 0.067695, -0.017827, 0.052203, 0.078889, 0.000033, -0.067646, 0.033269, -0.007514, -0.005904, -0.085454, 0.048031, -0.077268, 0.017629, -0.080926, 0.043197, -0.018115, 0.046855, -0.006216, -0.016214, 0.089773, -0.075060, 0.030299, -0.053232, -0.048557, -0.103041, 0.059452, 0.019997, 0.208848, 0.020220, -0.035539, -0.004419, 0.071234, 0.059061, -0.042465, -0.051105, 0.085008, 0.038660, -0.040137, -0.082237, 0.071402, 0.021182, -0.068226, 0.046833, -0.073056, -0.047299, 0.050208, 0.011031, -0.069667, -0.091254, -0.044076, 0.059190, 0.006350, 0.067369, -0.006328, 0.018418, 0.054216, -0.064741, -0.039974, -0.034309, 0.037870, -0.014706, 0.055176, 0.008517, 0.171793, -0.011720, -0.087359, -0.045121, -0.016611, 0.066658, -0.079965, 0.052832, -0.025619, 0.037072, -0.012385, 0.031245, 0.002090, -0.006346, -0.026586, -0.023315, -0.028011, -0.074896, -0.065145, -0.076914, 0.052417, -0.101309, 0.027141, 0.003450, 0.017030, 0.001072, 0.072234, -0.162555, 0.008857, -0.006914, -0.091948, -0.052781, -0.105530, -0.059055, -0.072075],
  [0.057494, 0.051958, 0.031952, -0.055377, 0.038314, 0.029280, 0.061986, -0.032724, 0.132499, -0.030777, 0.113454, -0.055480, 0.079518, 0.055312, -0.055140, 0.061467, -0.024814, 0.035452, -0.014203, -0.036579, 0.039829, 0.019388, 0.017624, -0.080286, -0.101483, 0.032565, -0.031654, 0.058537, 0.041195, -0.084797, -0.051651, 0.027644, -0.018594, -0.050371, -0.020175, -0.026002, -0.029224, -0.001354, 0.032144, -0.052375, 0.013236, 0.061766, -0.069331, 0.022446, 0.026752, -0.075906, 0.094224, -0.095808, 0.063295, -0.010516, -0.032088, -0.037597, 0.022330, -0.025262, 0.086791, 0.039801, -0.083140, 0.303058, 0.071124, -0.096522, -0.037207, -0.015777, -0.073587, 0.035974, 0.064693, -0.072776, 0.042822, 0.003628, -0.020999, 0.020657, -0.001782, -0.046553, 0.059656, -0.091194, 0.001410, -0.090170, -0.103876, -0.032882, -0.063145, -0.066408, 0.012178, 0.036977, -0.006283, 0.072698, 0.016279, 0.004845, -0.088708, -0.084228, -0.002912, -0.041739, 0.040201, -0.002881, -0.051449, -0.096254, -0.067772, -0.098295, 0.050977, 0.046729, 0.030445, -0.044461, 0.070467, 0.030529, 0.031914, 0.072045, -0.000254, 0.023627, 0.029276, 0.041586, -0.072415, -0.123772, -0.139259, -0.007849, 0.029754, 0.035341, -0.066377, -0.094956, 0.013531, -0.011555, 0.179400, 0.061943, -0.191808, 0.041436, -0.025386, 0.047585, 0.030675, 0.033590, -0.040874, -0.011246],
  [-0.213449, -0.053875, 0.190525, -0.070737, 0.081412, -0.036740, 0.012123, 0.007815, 0.135252, -0.063544, -0.148427, -0.067102, -0.068245, 0.064344, 0.024083, 0.008386, 0.000781, 0.069273, -0.088525, 0.100180, -0.162130, 0.030467, -0.255605, -0.071230, -0.025522, 0.081696, -0.054616, 0.053635, 0.125481, 0.112372, 0.010292, 0.229851, 0.102095, 0.049481, 0.018820, -0.008135, 0.105451, 0.054216, -0.206159, 0.022128, -0.025259, 0.062373, 0.062030, 0.012928, 0.072674, -0.069028, -0.010557, 0.088052, 0.022191, -0.203270, -0.036771, -0.102356, 0.101637, -0.106996, -0.055978, 0.089960, -0.085805, -0.212238, 0.066627, -0.034301, -0.056038, -0.099482, -0.046205, 0.089766, 0.063727, 0.091368, 0.070947, 0.002374, -0.038630, 0.018036, -0.122000, -0.057650, 0.043063, 0.001875, -0.014576, -0.080363, 0.021868, 0.060798, 0.177090, 0.077440, 0.043864, 0.077285, 0.007624, 0.098009, -0.120223, -0.030028, 0.221596, -0.019688, -0.018764, -0.152953, 0.061518, 0.070050, -0.143213, 0.264818, 0.040461, 0.052321, -0.226133, 0.023050, -0.009365, 0.054797, 0.065662, -0.064245, 0.104289, 0.210414, 0.090366, 0.097980, 0.141770, 0.211256, 0.048923, 0.055048, 0.132007, 0.121373, 0.071254, 0.060020, -0.054495, 0.092790, 0.158998, 0.035046, -0.138927, 0.068793, 0.136120, -0.004637, 0.017736, 0.093011, 0.127786, -0.096786, 0.103072, -0.019086],
  [-0.447814, 0.055204, 0.329669, -0.327801, 0.254355, 0.175361, 0.021756, 0.352023, 0.297447, -0.182169, -0.285499, 0.005947, -0.205459, 0.154527, 0.088964, 0.380343, -0.382868, 0.380322, -0.188902, 0.182372, -0.303508, 0.294620, -0.242817, -0.343409, 0.094562, 0.147292, -0.306602, 0.149572, 0.207683, 0.274657, 0.058380, 0.341645, 0.228245, -0.081375, 0.188423, 0.223021, 0.053047, 0.309826, -0.342170, -0.010678, -0.348748, 0.051214, -0.338978, 0.200153, 0.267059, -0.018062, -0.447662, 0.224151, 0.107310, -0.333315, 0.149174, -0.152142, -0.011826, -0.275176, -0.269747, 0.144100, -0.131662, -0.242513, 0.270905, 0.289369, 0.083957, -0.265925, 0.164986, 0.368653, 0.308328, 0.136110, 0.346642, 0.233371, -0.321658, 0.192378, 0.056603, 0.200227, 0.115391, -0.050885, -0.298893, 0.188421, 0.239496, 0.278327, 0.146462, 0.030376, 0.164017, -0.026788, 0.098554, -0.116953, -0.306416, 0.186306, 0.298374, -0.070178, 0.353378, -0.124799, 0.290201, -0.049337, -0.022023, 0.377617, 0.054697, 0.080496, -0.330995, -0.500954, 0.057760, 0.201672, 0.373616, -0.248794, 0.026093, 0.257225, 0.292566, 0.083867, 0.301970, 0.262248, 0.176107, 0.254221, 0.388092, 0.240968, 0.304259, 0.131521, -0.373826, 0.103119, -0.254563, 0.233630, -0.339119, 0.056477, 0.136053, 0.145823, 0.025019, 0.138676, 0.250781, -0.387669, 0.032959, 0.285687],
  [-0.224750, -0.027966, 0.171592, -0.074463, 0.232645, 0.026204, 0.025844, 0.121804, 0.217870, 0.029617, -0.177353, -0.005926, -0.036175, 0.115723, -0.027746, 0.136879, -0.087602, 0.145090, -0.007606, 0.048443, -0.114953, 0.008247, -0.232543, -0.048375, 0.043992, 0.031088, -0.103733, 0.029610, 0.208003, 0.107685, 0.003321, 0.167723, 0.195747, -0.057596, 0.030360, 0.051963, -0.020764, 0.005180, -0.223279, 0.054768, -0.189154, -0.018971, -0.034639, 0.059675, 0.050441, 0.054934, -0.042107, 0.009547, 0.004220, -0.212239, 0.006367, -0.186117, 0.101047, -0.089738, -0.103833, 0.073215, -0.208996, -0.139534, 0.150425, 0.034155, -0.019191, -0.223510, -0.008671, 0.135841, 0.168116, 0.129957, 0.139559, 0.040408, -0.079567, 0.026725, -0.088052, 0.005581, 0.023741, -0.069647, -0.148884, 0.082739, 0.040939, 0.154175, 0.187082, -0.001669, 0.191990, -0.003428, 0.081143, -0.041472, -0.143477, -0.026859, 0.212924, 0.043131, 0.046725, -0.134154, 0.196365, 0.057794, -0.029192, 0.222079, 0.062578, -0.019170, -0.264174, -0.175544, -0.021850, -0.013542, 0.208674, -0.091431, 0.005680, 0.225330, 0.148249, 0.072225, 0.125053, 0.190753, 0.071617, 0.197801, 0.200202, 0.226183, 0.118236, 0.121470, -0.158422, 0.071050, 0.046135, 0.174395, -0.183860, -0.030256, 0.113754, 0.093456, 0.062432, 0.020461, 0.006027, -0.087151, 0.124393, 0.185386],
  [0.336474, 0.127433, -0.175626, 0.342157, -0.166178, -0.275274, 0.105007, -0.130354, -0.291897, 0.159508, 0.271839, 0.015362, 0.244378, -0.112134, -0.017529, -0.120330, 0.339234, -0.312608, 0.252575, -0.083049, 0.348776, -0.219114, 0.325083, 0.268610, 0.096177, -0.161492, 0.357612, -0.093116, -0.269123, -0.201284, 0.166684, -0.180648, -0.222080, 0.191081, 0.014681, -0.049012, 0.019990, -0.316325, 0.280906, 0.073382, 0.245376, 0.041940, 0.285237, 0.089867, -0.235356, 0.046121, 0.263340, -0.118840, 0.004215, 0.248103, -0.008437, 0.200641, 0.065137, 0.331816, 0.325424, -0.393680, 0.188573, 0.416257, -0.013740, -0.207294, 0.104193, 0.268484, 0.112992, -0.187418, -0.059208, -0.110521, -0.411405, -0.193171, 0.252020, -0.016573, 0.212623, -0.132316, -0.097134, 0.188048, 0.348083, 0.035407, -0.179938, -0.071938, -0.195986, 0.016077, -0.195921, 0.044548, -0.084329, 0.031885, 0.314409, 0.127108, -0.286787, 0.226390, -0.316889, 0.341701, -0.292330, 0.145825, 0.265909, -0.184606, 0.106934, 0.059131, 0.206066, 0.428491, 0.057664, -0.177413, -0.331377, 0.339727, 0.109006, -0.274465, -0.314280, 0.082412, -0.331915, -0.254528, 0.088665, -0.088750, -0.436867, -0.248428, -0.168916, -0.071209, 0.303826, -0.206559, 0.158058, -0.282142, 0.235931, 0.066373, -0.149092, 0.005136, 0.019085, 0.099488, -0.253222, 0.433221, 0.041052, -0.260911],
  [0.220187, 0.015895, -0.055396, 0.133543, 0.053022, 0.036351, 0.075977, 0.054851, -0.107867, -0.036564, 0.028080, 0.063894, -0.013982, -0.072968, -0.082485, -0.137695, 0.092597, 0.001586, 0.044266, -0.064771, 0.126039, -0.100526, 0.187884, 0.103599, 0.036337, -0.066070, 0.023931, -0.052776, 0.006969, -0.155310, 0.058988, -0.014359, -0.099354, -0.104118, -0.089469, 0.054974, 0.047352, 0.024582, 0.164788, -0.002452, 0.008871, -0.011133, 0.114763, 0.020010, -0.001163, 0.071252, 0.010770, -0.048252, -0.010653, 0.093412, -0.027420, 0.212341, 0.085547, 0.143805, 0.018599, -0.003243, 0.297735, 0.140742, 0.008621, -0.122734, -0.087034, 0.102210, 0.023121, -0.057606, -0.064273, -0.052569, -0.091361, -0.009603, 0.054243, -0.059415, 0.180448, 0.047656, -0.006575, 0.092195, 0.016099, -0.035848, 0.027730, -0.045629, 0.057959, -0.050698, -0.088611, -0.001918, 0.022646, -0.020115, -0.037727, -0.026494, -0.068677, 0.091975, 0.022133, 0.079787, -0.055595, 0.058511, -0.041676, -0.042289, -0.078798, -0.072046, 0.015726, 0.110833, -0.074933, 0.018509, -0.086839, -0.030655, -0.032736, -0.027148, 0.069755, -0.053838, -0.103021, -0.187585, -0.084823, 0.138455, -0.457996, -0.027075, 0.018174, -0.047118, 0.064052, -0.009459, -0.040342, 0.033227, 0.067651, 0.062955, -0.190551, -0.005896, -0.006824, 0.035704, 0.058645, 0.149871, 0.059627, 0.054490],
  [-0.224557, -0.083152, 0.076410, -0.079097, 0.097659, 0.011838, 0.063029, 0.107347, 0.208871, 0.026848, -0.189474, -0.010407, 0.022484, 0.079340, -0.008778, 0.017714, -0.134972, 0.127228, 0.040038, 0.109158, -0.036732, 0.084851, -0.243893, -0.118684, -0.010188, 0.110060, -0.143649, -0.012304, 0.219877, 0.092284, 0.006233, 0.156718, 0.147228, 0.060075, 0.091861, 0.034225, 0.051691, 0.103607, -0.154846, 0.086703, -0.157651, 0.004789, -0.093397, 0.061873, 0.044845, 0.037357, -0.038625, 0.045930, 0.008007, -0.145284, 0.073152, -0.155755, 0.062281, -0.127275, -0.076996, 0.023429, -0.138322, -0.194055, 0.087994, 0.076557, -0.033010, -0.158240, 0.061862, 0.099279, 0.021058, 0.245284, 0.002587, 0.049743, -0.045371, 0.032759, -0.092815, 0.051616, 0.063111, 0.018564, -0.092489, -0.026679, 0.132547, 0.086217, 0.108293, 0.031597, 0.014752, 0.032362, -0.020709, 0.076318, -0.018851, -0.051394, 0.211852, -0.034953, -0.033071, -0.101343, 0.190229, -0.031985, -0.106820, 0.111704, 0.005625, 0.072614, -0.155394, -0.091419, -0.006657, 0.018187, 0.036129, -0.106238, 0.006113, 0.180974, 0.050665, 0.034020, 0.162616, 0.114001, 0.045472, 0.039861, 0.156332, 0.178128, 0.190403, 0.099749, -0.117240, 0.039750, 0.036879, 0.011042, -0.112496, 0.015738, 0.204025, 0.116901, 0.100841, -0.053566, 0.066050, -0.107973, 0.029613, 0.123972],
  [-0.209286, 0.079246, 0.108430, -0.105576, 0.193199, 0.003354, 0.048301, -0.026339, 0.161130, -0.035062, -0.202305, 0.001617, -0.061325, 0.092621, 0.051789, 0.044822, -0.047351, 0.054180, 0.043837, -0.026454, -0.115034, 0.058598, -0.076159, 0.026764, -0.001396, 0.062028, -0.161611, 0.006968, 0.127467, 0.047519, 0.023489, 0.267292, 0.131853, 0.028135, -0.016397, 0.033523, 0.056148, 0.123670, -0.165496, 0.035102, -0.105543, 0.079788, 0.032415, 0.061090, -0.007412, -0.010728, -0.043681, 0.094488, 0.006351, -0.178768, -0.028815, -0.219857, -0.029927, -0.022463, -0.107411, 0.106918, -0.265375, -0.255727, 0.033080, 0.076037, -0.056690, 0.005211, -0.069178, 0.136153, 0.094448, 0.204263, -0.025069, 0.073244, 0.002832, -0.028400, 0.007775, 0.009572, -0.029649, 0.039431, -0.096708, 0.058737, 0.119200, -0.005104, 0.050820, -0.032532, 0.024594, 0.098329, 0.063868, 0.012143, -0.042434, 0.039926, 0.195588, -0.027501, 0.061525, -0.008464, 0.083599, -0.007036, 0.044687, 0.147831, 0.033818, 0.017115, -0.065384, -0.121241, -0.007366, 0.059389, 0.101390, 0.024969, 0.012582, 0.035117, 0.065672, 0.052583, 0.114246, 0.229394, 0.026719, 0.020943, 0.116694, 0.186766, 0.148904, 0.081996, -0.046899, 0.084580, 0.245229, 0.008311, -0.090502, 0.062948, 0.218897, 0.118573, -0.003386, -0.002371, 0.023470, -0.118016, 0.068725, 0.003615],
  [0.289788, -0.021891, -0.124948, 0.237125, -0.137522, 0.019810, -0.155515, -0.098369, -0.267855, 0.163631, 0.230840, 0.058763, 0.119044, -0.110461, -0.009534, -0.155466, 0.189638, -0.064513, 0.110580, -0.162579, 0.219488, -0.110266, 0.323421, 0.234669, 0.159267, -0.142486, 0.129936, 0.001199, -0.222186, -0.230280, 0.063283, -0.081869, -0.228637, 0.132747, 0.015578, 0.051366, 0.062683, -0.174601, 0.326655, 0.018892, 0.292010, 0.028431, 0.189753, -0.061968, -0.037323, -0.015505, 0.263158, 0.058652, -0.050167, 0.067415, 0.104124, 0.203320, 0.030657, 0.286487, 0.181857, -0.220573, 0.349358, 0.224893, 0.011937, -0.019724, 0.083615, 0.303967, -0.063057, -0.149468, -0.110789, -0.201368, -0.131025, -0.002802, 0.284676, 0.001803, 0.163718, -0.106900, -0.004035, 0.122602, 0.288728, 0.073740, -0.095531, -0.132687, -0.189265, -0.067162, -0.248135, 0.035986, -0.102117, -0.018395, 0.210306, 0.045242, -0.319509, -0.027661, -0.051703, 0.226846, -0.227907, -0.018410, 0.082946, -0.161788, 0.068374, -0.023809, 0.311180, 0.232391, 0.004099, -0.093179, -0.223358, 0.199306, 0.076187, -0.274082, -0.119993, -0.005951, -0.188570, -0.246391, -0.020873, -0.253697, -0.190975, -0.139671, -0.160817, -0.087931, 0.216857, -0.085031, 0.285691, -0.059243, 0.334458, -0.003037, -0.073832, 0.038122, -0.051996, -0.053328, -0.074817, 0.196079, 0.009144, -0.208329],
  [-0.002264, -0.035010, -0.090744, -0.017227, -0.070549, 0.051440, -0.076501, 0.043053, 0.032744, 0.032888, -0.091654, -0.026138, -0.073719, 0.038932, -0.067846, -0.015399, -0.072761, 0.027940, -0.096740, 0.036423, -0.022254, -0.087150, -0.067885, -0.019279, 0.052712, -0.077068, -0.051812, -0.046467, -0.060540, 0.064336, 0.048641, -0.043235, 0.018854, 0.068105, -0.068589, -0.042518, 0.032082, -0.095125, -0.057207, -0.049803, 0.002286, -0.089177, -0.028362, 0.062553, 0.019533, 0.017809, 0.056026, -0.059381, -0.033896, -0.023643, -0.037261, -0.067060, 0.057081, 0.028548, -0.016775, 0.056014, 0.070722, 0.034937, -0.042544, -0.038336, 0.004279, -0.024274, -0.051683, -0.007988, -0.054771, -0.002365, -0.084437, -0.031370, -0.061230, -0.031375, -0.071994, 0.073455, 0.043616, -0.044503, -0.061902, -0.073360, -0.064305, -0.044488, 0.025100, -0.087063, -0.049312, -0.002278, 0.062330, 0.018381, 0.002956, 0.014500, -0.017552, -0.017105, -0.069618, -0.010447, 0.010491, -0.060216, -0.024425, -0.036877, -0.023076, 0.005089, -0.029834, -0.058468, -0.015396, 0.063964, 0.015763, -0.003223, -0.051035, -0.021496, 0.071692, -0.061749, -0.035274, -0.096868, -0.035143, 0.058345, 0.029393, -0.074877, -0.078836, -0.093110, -0.008760, -0.087483, 0.037842, 0.072706, 0.025136, 0.051578, -0.055172, -0.065322, 0.017229, -0.055929, 0.075073, 0.009312, -0.042812, -0.079353],
  [-0.348961, -0.109901, 0.382843, -0.420249, 0.299111, 0.123351, 0.146245, 0.216914, 0.361560, -0.150911, -0.210833, 0.091372, -0.206798, 0.155776, -0.021706, 0.211889, -0.340271, 0.312676, -0.174082, 0.221526, -0.211682, 0.175442, -0.175179, -0.180633, -0.062838, 0.109779, -0.369250, 0.124330, 0.360935, 0.212762, 0.052877, 0.220224, 0.186439, -0.060373, 0.162193, 0.033475, 0.099443, 0.164228, -0.267681, 0.102373, -0.329057, 0.065305, -0.260474, 0.163092, 0.208996, -0.044586, -0.175339, 0.061275, 0.055897, -0.121001, -0.024408, -0.372511, 0.020166, -0.175353, -0.320125, 0.388650, -0.363368, -0.234045, 0.078296, 0.269601, -0.024741, -0.196017, -0.010731, 0.224731, 0.179738, 0.282184, 0.369368, 0.125888, -0.288993, 0.114248, -0.163665, 0.085736, 0.082116, -0.162346, -0.196884, -0.054086, 0.240223, 0.113670, 0.277548, 0.158670, 0.321623, 0.018092, 0.092781, 0.104395, -0.242668, -0.078369, 0.451497, 0.044953, 0.273277, -0.163959, 0.332996, 0.019884, -0.134929, 0.328962, -0.056871, -0.028377, -0.364054, -0.359239, 0.037265, 0.060031, 0.397649, -0.345707, 0.008309, 0.286026, 0.292047, 0.016105, 0.288999, 0.343220, 0.000413, 0.269618, 0.334736, 0.264725, 0.214063, 0.048296, -0.255655, 0.129452, -0.137591, 0.268862, -0.208633, -0.018708, 0.280717, 0.096837, 0.175747, 0.043643, 0.194835, -0.306977, 0.132991, 0.255072]
]
