[0.087023, 0.045809, -0.093599, -0.100958, -0.086939, 0.111233, -0.114033, -0.042277, -0.008702, -0.007601, -0.020606, 0.010227, 0.034553, 0.007819, -0.067799, 0.037132, 0.001495, -0.121994, 0.165701, -0.003865, -0.091456, 0.009089, 0.026479, 0.082408, 0.121316, 0.136670, 0.091568, -0.083929, 0.023882, 0.009488, 0.043631, -0.097751, -0.025154, 0.097404, -0.145119, -0.025570, -0.055930, -0.009621, 0.013894, 0.025199, -0.102916, 0.027686, -0.030808, 0.136586, -0.017031, 0.113155, 0.140027, -0.077204, 0.138625, 0.059050, -0.069735, -0.091932, 0.123405, -0.122781, -0.087837, -0.136334, 0.107038, 0.218047, 0.085697, -0.100099, 0.045797, -0.126178, 0.000408, -0.084051, -0.078581, 0.053123, -0.063141, 0.108173, -0.075243, 0.055616, 0.120236, 0.006338, 0.072087, 0.042417, -0.029676, -0.127689, -0.063335, -0.133328, -0.127589, -0.019961, -0.034521, 0.123435, 0.071508, 0.027776, 0.084837, -0.022356, 0.069995, 0.021944, -0.077844, 0.141673, -0.093387, 0.137371, 0.151672, -0.047211, 0.141944, 0.117246, -0.012396, 0.134649, 0.125940, -0.006929, -0.033776, 0.064219, 0.047582, 0.050881, 0.070927, 0.010857, -0.130672, 0.089673, 0.035976, -0.003645, 0.032247, -0.143208, -0.072503, 0.050139, 0.134421, -0.000474, 0.138331, -0.023400, -0.018118, -0.034298, 0.058686, 0.002933, -0.016528, -0.108934, 0.114315, 0.001816, 0.121144, 0.109650]
