Bias of fc1 layer:
[-9.78295803e-02 -1.07855275e-01 -4.53526750e-02 -4.18884270e-02
  5.14423149e-03 -7.07656890e-02  1.13804922e-01  8.48058909e-02
  1.98510531e-02  6.53781667e-02  1.23347133e-01 -6.95589781e-02
  1.13415383e-01  1.62037015e-01 -6.90285787e-02 -8.33682641e-02
 -4.83403429e-02  5.85584305e-02 -1.11816384e-01  2.93065868e-02
 -7.99687877e-02  1.19892381e-01 -1.80891439e-01 -7.37009197e-02
 -9.61287878e-03  1.09820083e-01  2.13682111e-02  7.42169470e-02
 -5.80568463e-02 -1.02318771e-01 -1.12258410e-02 -4.42024022e-02
  9.34173018e-02 -9.12014171e-02 -3.93443704e-02  1.00559033e-01
  2.42981631e-02  1.22671284e-01  9.67062041e-02  9.29175615e-02
  6.66863695e-02  2.58271024e-02  3.24067734e-02  9.42926034e-02
 -1.54266953e-01 -4.63026799e-02 -7.15984404e-02 -5.47717512e-02
 -8.34886804e-02 -3.33541632e-02 -9.50466394e-02 -1.35164350e-01
  9.67490114e-03 -4.27220576e-02  2.15804409e-02 -1.13261461e-01
 -3.67010981e-02 -4.80933581e-03 -9.70129296e-02  2.42424360e-03
 -1.12299383e-01 -1.53272882e-01 -1.18714601e-01 -1.12477094e-01
 -1.92591883e-02 -1.06305666e-02 -1.99608915e-02 -1.26098678e-01
 -1.49102300e-01  9.05521065e-02 -2.67828181e-02  1.30156144e-01
  1.04117073e-01  1.03479400e-02 -2.93269940e-02  1.40596136e-01
 -1.09528527e-01 -2.65190657e-02  7.77096152e-02 -6.09235431e-04
 -1.51750222e-01 -1.47760361e-01  3.54606062e-02  1.17977485e-01
  1.24121882e-01 -1.07775563e-02  1.21425062e-01  1.21298321e-01
  6.06843494e-02 -3.35810632e-02  9.00666267e-02  3.99056859e-02
 -2.56909709e-02 -1.46486476e-01 -1.10887565e-01 -5.91424899e-03
 -2.15499140e-02  1.23257495e-01  6.24549529e-03 -7.62216002e-02
  5.22654355e-02  1.23119373e-02 -1.21107943e-01  1.37193711e-04
  1.29850015e-01  4.87346686e-02  1.22809500e-01 -5.78748696e-02
 -5.16678430e-02  9.16591361e-02 -9.68183652e-02 -4.00830321e-02
 -2.20273249e-02  7.67123103e-02 -7.61537477e-02 -1.33559741e-02
 -1.00096844e-01  5.04530743e-02 -1.42244339e-01 -6.48764744e-02
  9.81599465e-02  1.50733039e-01  1.40506804e-01 -3.63813788e-02
 -4.08718400e-02  8.10322631e-03 -1.26770839e-01  8.07149783e-02]

Bias of fc2 layer:
[-0.01730186 -0.01208565  0.05884329 -0.05629101  0.0547412   0.01935224
  0.00733735  0.00177382 -0.03058582 -0.05426858 -0.01403621  0.11113096
 -0.08026768  0.08621738  0.07143318 -0.02111535  0.09076224 -0.04697477
  0.03086274 -0.00727912  0.07395516  0.04656193  0.02067222 -0.0334216
  0.06966058  0.04339457 -0.02694282  0.03499807  0.02875178  0.08658823
  0.02180585 -0.05776886 -0.08771015  0.06522065 -0.05014465 -0.00387508
 -0.01077804  0.02372733 -0.04999373 -0.05242115 -0.01283136  0.10837059
  0.02916054 -0.06350167 -0.0458284   0.00870937  0.01339437  0.01501633
 -0.06846943  0.06743202 -0.07931462  0.08173669 -0.06014737  0.0344415
  0.02689709  0.02333066 -0.04179896 -0.02214122  0.02105009  0.02357029
 -0.08727709  0.10329894 -0.03720921 -0.04027901]

Bias of fc3 layer:
[ 0.05966244  0.02250129 -0.05120302]