Weights of fc1 layer:
[[ 9.45896655e-02 -3.91035117e-02 -1.23382630e-02 -1.47322193e-01
  -1.35211889e-02  2.43773940e-03  6.57399297e-02 -6.03829324e-02
   6.83252839e-03 -1.09342448e-02 -1.12870455e-01 -2.11940259e-02
   1.66601509e-01  7.67053664e-02 -6.64214194e-02  6.56003058e-02
  -6.57857731e-02  7.84540102e-02 -1.00354560e-01 -4.18848731e-03
  -9.82771069e-02  1.45332068e-01 -6.65466785e-02 -1.32786110e-01
  -6.92529753e-02 -9.75830108e-02 -9.60826650e-02 -2.78587490e-02
  -4.73362952e-02 -5.05123287e-02 -3.52803171e-02  1.65641144e-01
   2.48012263e-02 -1.23669192e-01  1.41791582e-01  1.77903865e-02
  -3.07704415e-02 -1.15734994e-01  1.23063229e-01  7.35248299e-03
  -6.50413930e-02 -3.88991684e-02 -3.95983970e-03]
 [ 6.87780157e-02 -9.18529704e-02 -1.11733504e-01 -1.26765847e-01
   9.05492976e-02 -1.11316636e-01  4.83163400e-03  9.07342583e-02
  -1.17241457e-01  8.28006417e-02  5.58937043e-02  5.33677228e-02
   8.03485662e-02  9.66925025e-02 -7.88796842e-02 -7.41719827e-02
  -1.14082113e-01 -1.37799114e-01 -1.25219956e-01  1.12265021e-01
   1.95414340e-03  1.15917690e-01  1.11399069e-01  3.83338183e-02
   1.05890431e-01  9.72849727e-02 -6.64897412e-02 -1.10089712e-01
  -2.52977591e-02  1.26781911e-01 -1.04567610e-01 -4.94707339e-02
  -1.48758218e-01 -1.37477711e-01 -9.69349593e-02  1.46962360e-01
  -8.49856064e-02  6.77291602e-02 -6.78426400e-02 -3.94682549e-02
   6.34577721e-02 -4.50110361e-02 -7.51123205e-02]
 [ 3.79605405e-02  1.40006304e-01  1.27070010e-01  1.40672354e-02
   1.14018306e-01  2.13927608e-02 -8.24850723e-02 -7.79113546e-02
   3.30871972e-03  1.10331029e-02 -1.39352113e-01 -2.04507876e-02
  -1.06405795e-01 -1.77991930e-02 -1.42469436e-01 -4.81513739e-02
  -9.28808823e-02  1.88781619e-02  4.35839454e-03 -5.62615879e-03
   1.71647817e-01  7.06628338e-02  1.76538289e-01 -1.12369344e-01
  -5.86038865e-02  1.22646786e-01 -9.67425629e-02  6.24631792e-02
   2.26684939e-02  5.21625094e-02 -1.57115590e-02  1.59539431e-01
   1.26479730e-01  1.75418973e-01 -4.62425724e-02  4.14669737e-02
  -1.25817433e-01 -1.10837676e-01 -1.23642258e-01  6.10275231e-02
   3.91866416e-02  8.88250396e-03  9.25050750e-02]
 [-2.55619828e-02  1.37415275e-01  9.04898494e-02  6.01403564e-02
   1.71124972e-02 -9.42721367e-02  5.96965589e-02  1.53426334e-01
   8.82331207e-02 -8.07993785e-02  1.46288976e-01  1.04066245e-01
  -5.26029095e-02  1.25265196e-01  1.43021820e-02 -7.56155699e-02
   2.21428555e-02  1.17691137e-01  1.34771407e-01 -6.90447539e-02
   6.77803233e-02  7.54327178e-02 -4.03478257e-02 -1.09865919e-01
  -7.50897601e-02  1.43308252e-01  6.30924944e-03 -4.55742329e-03
   1.12091944e-01  3.48286629e-02  3.16862017e-02 -5.67386746e-02
  -6.20484836e-02 -3.51798572e-02  1.54945105e-01 -1.18008465e-01
  -6.45171711e-03 -1.76976137e-02 -1.07640162e-01 -1.58379316e-01
   2.15762537e-02 -1.86920278e-02 -1.79512054e-02]
 [-1.43124089e-01 -3.50842960e-02  8.02193116e-03 -2.06781756e-02
  -1.41264394e-01 -1.01386219e-01 -1.73826348e-02  8.08095485e-02
   1.06407464e-01  3.47268432e-02  1.06261499e-01 -2.46498547e-02
  -5.91709986e-02 -1.23401824e-02  3.00076716e-02  3.48678529e-02
  -1.09149829e-01  1.61564305e-01  5.36565259e-02  1.64734665e-02
   8.67763385e-02 -1.17962062e-01 -6.70692325e-02 -1.17236130e-01
   1.42368451e-01 -9.69820172e-02 -3.16226482e-02  5.54804318e-02
  -6.11360297e-02 -1.56771600e-01  1.59509376e-01  1.95199717e-02
   7.82822147e-02  1.18937775e-01 -1.18001133e-01  9.21329111e-03
   6.49790987e-02 -1.24444872e-01  3.84955890e-02 -5.41553013e-02
  -2.61929017e-02 -4.91652489e-02  8.77707675e-02]
 [ 1.52281776e-01  9.33216885e-02  1.52224125e-02  1.40346572e-01
  -2.69536283e-02  2.87467372e-02 -1.17058698e-02 -1.17645077e-01
  -5.97501127e-03 -1.26760870e-01  1.78835347e-01 -1.02769658e-01
   1.65470187e-02  9.99724343e-02 -7.02942461e-02 -1.25974461e-01
   1.68846950e-01  1.82718307e-01  1.32567599e-01 -1.01062447e-01
  -4.56696525e-02  9.27967876e-02  1.52314112e-01 -3.15385312e-03
   5.61304614e-02 -5.53789213e-02 -8.23781267e-02  1.72877342e-01
   4.14560921e-02  8.49405676e-02  2.81949751e-02  8.95570368e-02
  -3.50418650e-02  6.77596731e-03  1.18993893e-01 -2.10111178e-02
   1.04393074e-02  5.71357794e-02 -1.20431378e-01 -1.18588321e-01
   1.73459381e-01  1.43826514e-01  4.35589664e-02]
 [ 2.86881588e-02  1.31206200e-01 -2.86850091e-02 -2.07970105e-02
  -4.66606058e-02  3.43593508e-02 -4.28268015e-02 -1.31624430e-01
  -6.04803264e-02 -1.31208971e-01 -6.10946584e-03 -1.68123335e-01
  -2.82469671e-02  6.36019260e-02  1.23805448e-01  1.04211725e-01
   1.12480305e-01  6.23095483e-02 -1.49905056e-01 -4.52855602e-02
  -1.32746950e-01 -1.54274404e-01  4.71449494e-02 -6.18487038e-02
   1.35275722e-01  5.42801581e-02 -3.11549064e-02 -6.43058941e-02
   1.11150637e-01  8.68403241e-02  1.21080719e-01 -2.68235821e-02
  -1.23262100e-01  2.11360622e-02  2.99047586e-02 -1.42200947e-01
  -5.14316037e-02 -1.60839453e-01  4.19484302e-02  7.58096427e-02
  -2.36307457e-02  8.59607980e-02 -5.20535260e-02]
 [ 8.72245282e-02 -1.23948134e-01 -2.67276317e-02 -1.24561667e-01
  -7.07736760e-02 -1.80671319e-01  1.01056136e-01  6.17012121e-02
  -4.72730994e-02  4.09535542e-02 -1.38648570e-01 -2.03674082e-02
  -5.67308925e-02  9.31499973e-02 -1.77361500e-02  1.06623694e-01
  -7.74882436e-02 -2.03851853e-02  1.20965950e-01 -1.43734455e-01
   6.82702139e-02 -1.40407562e-01 -3.61239836e-02 -3.79587375e-02
  -2.84258593e-02 -1.29003569e-01  1.04280775e-02 -6.93173194e-03
  -2.12358907e-02  1.62757859e-01  1.08313389e-01 -8.03129822e-02
   4.00372036e-02  1.49750203e-01 -2.21469477e-02  1.65693223e-01
  -1.25539586e-01 -1.79374635e-01 -3.72631550e-02 -1.53524101e-01
  -8.45917836e-02  1.18937306e-01  2.70008892e-02]
 [-4.24517179e-03 -6.34774044e-02 -8.32016468e-02  6.40301704e-02
  -1.07528001e-01  1.32774130e-01 -1.07081778e-01 -1.07055724e-01
  -5.91660012e-03  1.32247612e-01 -9.21877548e-02  8.55272114e-02
   7.95756429e-02 -1.23543032e-01 -1.35322869e-01 -3.02756783e-02
  -6.89814985e-02 -5.90133965e-02 -3.67578901e-02  1.61646277e-01
   1.60273522e-01  6.58679605e-02  1.04896918e-01  7.94897880e-03
  -6.64589508e-03 -1.02681145e-01 -6.64226264e-02  3.22893895e-02
   9.88962594e-03  1.09422401e-01  8.42784867e-02  2.63562314e-02
  -1.20048895e-01 -3.98567738e-03  1.11556351e-01 -2.79567987e-02
  -1.32058650e-01  9.72421318e-02 -9.73555259e-03  8.16471651e-02
  -1.55412093e-01 -3.56112011e-02 -1.62733886e-02]
 [ 1.01739794e-01  7.27153495e-02 -1.08405262e-01  3.42720971e-02
   8.13016444e-02 -5.10783233e-02 -8.73252451e-02  1.41530454e-01
  -5.53742759e-02  1.68565616e-01 -6.97695315e-02 -5.42289764e-02
   9.38869044e-02  1.77458301e-01  9.43006054e-02 -1.10081866e-01
   1.08686395e-01 -4.85339575e-02  9.59352404e-02  1.14305533e-01
   3.81001979e-02 -7.85487611e-03  5.22127515e-03  6.72173500e-02
   6.75218478e-02  1.28958970e-01 -5.66382110e-02 -3.40793282e-02
  -1.33123435e-02 -4.82035540e-02 -1.22352198e-01  3.19935121e-02
   9.56123695e-02  1.38489157e-01  1.13085255e-01  5.00644441e-04
  -6.03823438e-02 -1.04166761e-01  1.06047049e-01 -3.28386538e-02
  -8.82220343e-02 -1.30157590e-01  1.66494809e-02]
 [-1.11288324e-01 -4.34593745e-02  9.71381515e-02 -2.93534459e-03
   1.27674744e-01 -1.18330851e-01  1.00379832e-01  7.51229152e-02
   9.45065171e-02 -1.43688276e-01  7.48775974e-02  8.51953924e-02
  -1.08874604e-01  8.32761973e-02 -4.30028327e-02 -8.45715478e-02
  -7.98314512e-02  3.62113072e-03 -1.12859860e-01  1.77099481e-02
  -1.60990562e-02  6.13854304e-02 -4.20798324e-02  6.55047670e-02
   7.40975216e-02 -3.18765044e-02 -7.45871663e-02  8.97993520e-02
   4.86561917e-02 -1.19676866e-01  1.43164545e-01 -3.28576163e-04
   1.57283638e-02  1.01735011e-01 -1.69033073e-02 -5.16161621e-02
   5.45817316e-02  1.08843625e-01 -6.46148846e-02 -1.34726595e-02
  -1.22840814e-01 -9.97363776e-02 -5.19979335e-02]
 [ 1.35597557e-01 -1.02364525e-01 -1.50654137e-01  6.84865415e-02
  -4.41602431e-02  1.01707332e-01  9.23292264e-02  6.61459714e-02
  -9.75592807e-02 -1.09937124e-01 -7.71162212e-02  1.50410146e-01
  -1.94597971e-02 -8.35768878e-02  3.62106748e-02 -1.43608123e-01
   1.58604845e-01  9.61355790e-02 -7.40384236e-02 -4.23190705e-02
   2.82708509e-03  6.61241263e-02  1.41157225e-01  9.09344032e-02
   1.32707417e-01 -3.10420115e-02  1.09388202e-01 -1.42250344e-01
  -3.19233686e-02 -1.27400011e-01  1.09719649e-01 -2.07319367e-03
  -1.31107017e-01  1.45667240e-01 -3.14943749e-03  5.79194203e-02
  -1.48631006e-01 -1.20180845e-01  5.78300990e-02 -1.25589475e-01
   6.16191849e-02  5.90086021e-02 -8.55489895e-02]
 [-8.83043483e-02 -8.36291239e-02  1.10031791e-01 -1.05199032e-02
  -1.09607622e-01  1.77012756e-01 -1.61933854e-01 -1.26073107e-01
  -1.13400728e-01 -1.02071688e-01 -1.95154207e-04 -3.67695801e-02
  -1.20681278e-01  1.13418303e-01  2.41184197e-02  1.26084417e-01
   3.02586760e-02  1.84976906e-02 -1.25906676e-01  1.19564071e-01
   7.60381743e-02 -8.28134716e-02  4.26968858e-02  9.06459913e-02
   5.68627007e-02  5.35369180e-02  1.32088467e-01  5.06021827e-02
  -3.59130697e-03 -3.47606018e-02 -1.43152118e-01  5.68620376e-02
  -6.76379800e-02  3.71744372e-02  4.33834307e-02 -5.96892163e-02
   6.43872172e-02 -1.47374436e-01 -1.51528329e-01 -1.20140165e-01
   1.95444897e-02 -1.18963895e-02 -1.41750425e-01]
 [-4.29526605e-02 -5.82593493e-02 -3.88970152e-02 -1.21767819e-01
  -1.24131598e-01  8.00469741e-02 -4.04240228e-02  6.18766584e-02
   1.20223671e-01  1.52489513e-01  9.00579840e-02  6.72410950e-02
   1.12757571e-01 -7.25112855e-02 -2.79801302e-02  6.43427297e-02
   1.72477141e-01  7.12062195e-02 -7.18984753e-02  1.44902870e-01
  -6.94269091e-02 -3.80155258e-02 -3.31881009e-02 -4.33202088e-02
   6.47451431e-02 -3.31813805e-02  1.28125800e-02  6.66798726e-02
   3.83520387e-02 -4.12869686e-03  4.78157178e-02  9.45509970e-02
  -6.98184073e-02 -7.68133327e-02 -1.34934574e-01 -1.54106030e-02
   6.93929046e-02  1.48435503e-01  1.67292640e-01 -3.02901492e-02
   1.66543916e-01 -9.15402099e-02 -1.34911090e-01]
 [ 6.45091161e-02  1.41968206e-01  2.39106417e-02  1.19412512e-01
  -1.29751921e-01  1.74691021e-01  9.31929201e-02 -1.19725242e-01
  -2.20261086e-02 -3.82545665e-02  2.17277464e-02  3.66860554e-02
   9.40730125e-02 -7.05350414e-02 -7.88032357e-03 -5.31557128e-02
  -2.86455397e-02  1.65319107e-02 -1.12058543e-01  7.76697248e-02
  -5.13468757e-02  1.38021827e-01  9.04623792e-03  7.34162927e-02
   6.46955147e-02  1.60797969e-01  5.97913377e-02  1.17862903e-01
   1.55082807e-01 -9.50970105e-04  6.40323712e-03  1.01661779e-01
   6.72757253e-02 -5.16507775e-02  4.60244529e-03  1.75310627e-01
   1.01411328e-01  1.11865915e-01 -7.83600137e-02  1.75690316e-02
  -9.93989334e-02 -9.04043466e-02  5.60689233e-02]
 [-1.35826737e-01 -2.30619833e-02  1.23465352e-01  1.40035808e-01
   1.04180574e-01  1.07426178e-02  3.81559581e-02  2.76562362e-03
   9.78860930e-02  2.64225882e-02 -9.22524631e-02  5.50584076e-03
   1.13445975e-01 -7.12849572e-03 -5.22801988e-02 -8.00048336e-02
   1.41587779e-01 -1.17142126e-01  1.03004508e-01 -1.38450503e-01
  -3.09099182e-02 -3.88367735e-02 -1.33089408e-01  1.18474893e-01
   1.08909883e-01 -8.94772485e-02  7.87618458e-02  3.42530906e-02
  -8.65447000e-02  1.32859439e-01 -1.52676433e-01 -3.26768570e-02
  -1.15109935e-01  8.56367424e-02 -8.32106732e-03 -1.29657328e-01
  -8.06031600e-02 -7.75705874e-02  8.07099566e-02 -6.77256361e-02
   1.07780211e-01  1.11993179e-02  1.10292546e-01]
 [-1.27411693e-01  4.55748774e-02 -9.65212733e-02  1.33693829e-01
   1.41858935e-01  1.08156972e-01 -1.04224056e-01  3.58599424e-02
  -7.14717805e-02 -1.26911342e-01  1.36186585e-01 -8.93433169e-02
  -1.56381521e-02 -1.30952314e-01  9.02426094e-02  7.88700953e-02
   5.56886308e-02  1.41278818e-01 -1.06054887e-01 -1.80005953e-02
   1.13138705e-01  2.51554698e-02 -1.31587833e-02  9.78624523e-02
  -3.74339446e-02  1.27732223e-02  1.00519229e-02 -8.31100866e-02
   6.08127639e-02  7.54693076e-02  8.52779076e-02  3.63499904e-03
   1.61716685e-01  1.62544087e-01  1.27884448e-01  1.42653808e-01
  -2.80431043e-02 -2.42354665e-02  4.50789928e-02  1.04948752e-01
   1.86302155e-01  2.06407290e-02  5.19787744e-02]
 [ 5.86062064e-03  9.66251045e-02 -9.77053642e-02 -5.70981577e-02
   2.97098514e-02  4.60553691e-02 -1.05602853e-01 -8.22101012e-02
   1.20934453e-02  1.19914964e-01 -7.96110183e-02  1.34522915e-01
   1.15351593e-02 -1.02751724e-01  1.02268733e-01  3.37754413e-02
  -4.74145114e-02 -4.39674109e-02  9.73737985e-02 -1.63176537e-01
  -8.35317895e-02  3.26160416e-02 -1.52297810e-01  5.60034551e-02
   1.15287110e-01  1.32988244e-01  3.32876071e-02  1.30978003e-01
   8.45359489e-02  1.01300038e-01  1.26349702e-01 -1.49026319e-01
  -4.66221906e-02 -1.33637963e-02 -4.66316193e-02  5.29627688e-02
   1.30607009e-01  5.92962354e-02 -1.32745132e-01  9.41728950e-02
  -7.00373799e-02 -1.07332878e-01 -1.51422575e-01]
 [-6.20184019e-02 -1.52898263e-02  5.69242910e-02 -7.19287768e-02
   4.95647416e-02  1.15763679e-01  1.34025335e-01 -1.13679528e-01
  -1.13448612e-01  1.29967347e-01  1.05572697e-02 -5.63536063e-02
  -2.57150903e-02 -1.51587814e-01  3.93022075e-02 -1.59440100e-01
  -1.10866189e-01 -1.02223575e-01 -7.60983005e-02  4.43055481e-02
   7.65707418e-02 -5.68355098e-02  1.02202415e-01 -8.49958509e-02
  -1.70090437e-01  1.08820006e-01  1.26030430e-01 -7.28715062e-02
   8.60315003e-03  1.22397982e-01 -1.35300174e-01 -1.14438660e-01
  -1.26679659e-01  4.56103496e-02  1.32331848e-01  6.93708807e-02
   1.27791502e-02 -2.98394281e-02  1.13266639e-01 -1.16428599e-01
  -7.09788948e-02  1.13621496e-01  1.20543368e-01]
 [ 8.58117267e-02 -6.55093119e-02  2.93689873e-02 -5.47746383e-02
  -9.90667567e-02  5.24491491e-03  1.55503228e-01  9.19301212e-02
   1.29947197e-02 -3.93125489e-02 -5.15160114e-02 -6.30672127e-02
  -3.94192077e-02 -2.74251029e-02 -9.81536061e-02 -6.68016970e-02
   1.74862817e-01  1.00017540e-01  2.84449887e-02 -6.07507266e-02
   1.28959538e-03  6.84970468e-02  1.15457080e-01  1.50890127e-01
   9.11773145e-02 -5.38282841e-03 -1.39742130e-02 -2.39699725e-02
  -9.16920528e-02 -7.37484246e-02  4.48038802e-02 -8.57651234e-02
  -1.12842664e-01  2.98221665e-03  9.30679888e-02 -1.99212179e-01
  -8.00590515e-02 -1.14730380e-01  1.66659787e-01  8.35576877e-02
   1.69687495e-02  1.12919405e-01  9.62505490e-02]
 [ 8.63988921e-02 -9.13764313e-02 -1.24544188e-01 -1.13655768e-01
  -1.48402765e-01 -3.81481722e-02 -1.29480036e-02 -2.73920931e-02
  -5.30056395e-02 -1.08092524e-01 -8.21259320e-02  1.17951542e-01
   1.48661688e-01  9.24659818e-02 -1.04191393e-01 -1.11003764e-01
  -1.97765213e-02  1.75788805e-01  1.17916331e-01 -4.81805615e-02
  -8.40911642e-02 -1.56858429e-01  9.15512219e-02  9.31504834e-03
   2.92270202e-02  1.47572188e-02  9.33357701e-02  1.33570746e-01
   1.16577737e-01  9.09677893e-02 -1.32588431e-01  2.87592988e-02
   1.53637743e-02 -5.56295505e-03  1.24399893e-01  4.31617573e-02
  -7.27889761e-02  1.47842675e-01  1.40342146e-01 -1.86422598e-02
   1.58389211e-02  8.73729512e-02  1.09592512e-01]
 [-1.16467878e-01 -4.39013466e-02 -3.69206853e-02 -7.90508389e-02
   9.82427001e-02 -3.33537646e-02  5.33394068e-02 -1.99321676e-02
   1.13021962e-01 -5.96145205e-02  6.31565880e-03  4.47151475e-02
   1.46280274e-01  8.65546241e-02 -4.62396909e-03 -1.28171369e-01
   3.62901539e-02  3.64254648e-03 -7.30381394e-03 -8.91675502e-02
  -5.63511923e-02  1.12220839e-01  8.45429301e-02 -8.81689861e-02
   5.57541363e-02  1.04831748e-01 -9.17576924e-02  8.80769938e-02
  -5.52330390e-02  1.83432445e-01  8.44542533e-02  1.37168899e-01
  -5.64022064e-02 -4.25090045e-02  1.47554666e-01  2.65473481e-02
   1.26502207e-02  3.38813779e-03 -6.84848502e-02  3.25562013e-03
  -7.04613477e-02 -3.45507003e-02 -1.05677269e-01]
 [-9.51136947e-02  7.62711093e-02  9.85422134e-02 -2.20520254e-02
   2.45844256e-02 -9.56079736e-02 -6.44589365e-02  1.81461181e-02
   8.63520876e-02  1.35542452e-02 -2.78097540e-02  1.39337018e-01
   8.43810961e-02 -8.80715102e-02 -2.22838707e-02 -5.31606525e-02
   1.67109460e-01 -4.44650762e-02  7.79958591e-02 -9.31903347e-02
  -4.38976325e-02  9.15549472e-02  3.18102888e-03  8.22480246e-02
   1.08698964e-01  2.13788096e-02 -1.14152804e-01  6.98170811e-02
  -3.60924937e-02  1.14109486e-01  1.47257403e-01  2.73536928e-02
   1.27050364e-02  1.17950581e-01 -1.88142806e-02  1.15207769e-01
   1.29548818e-01 -3.45228938e-03  1.06446117e-01  1.01384237e-01
   7.28038400e-02 -9.57945809e-02  3.35239852e-03]
 [ 5.42858951e-02  1.46067530e-01  7.58479536e-02  4.03371118e-02
   4.62666228e-02  1.50267929e-01  4.20301631e-02  1.15149647e-01
   2.95199221e-03  3.89301172e-03  7.78339654e-02 -3.80591638e-02
   3.11085470e-02  5.49086072e-02 -9.52601153e-03  1.28267929e-01
  -3.53558846e-02  1.56693354e-01 -5.89579195e-02 -6.64215758e-02
   1.61710801e-03  5.65771665e-03  1.68915540e-02  1.32061630e-01
   1.23332232e-01 -6.24738857e-02 -4.46359739e-02  1.67035565e-01
   1.19228745e-02  8.60431120e-02  1.55737801e-02 -6.93824664e-02
   1.36533067e-01  5.94131015e-02 -1.12345494e-01  1.35453060e-01
   5.86018823e-02 -4.48295511e-02  2.79423110e-02  8.86072405e-03
  -1.45194931e-02  9.14031640e-02 -1.68028045e-02]
 [-3.63307148e-02 -3.17466892e-02 -1.39623955e-01  7.40613788e-02
  -6.61761835e-02 -8.00511893e-03 -6.78932294e-02  1.36579290e-01
   1.58022985e-01 -9.58621725e-02 -9.67317969e-02  3.61605771e-02
  -2.20165923e-02  1.21223807e-01  1.11432321e-01  6.82763085e-02
   1.02737501e-01 -1.71530649e-01  1.67228475e-01 -1.01792060e-01
   3.32751572e-02  1.71661526e-01 -3.78718227e-03 -6.32839799e-02
   1.61060289e-01  3.29806916e-02 -7.32103549e-03  6.70459494e-02
   3.14763524e-02  1.66798884e-03 -7.06279278e-02 -6.46582469e-02
   6.90041482e-02 -5.01496159e-02  4.73457761e-03  1.00243250e-02
   7.76693001e-02  1.22060269e-01  7.83663895e-03 -1.27284229e-01
   1.10816173e-01 -1.05578005e-02 -9.41953510e-02]
 [-9.61891264e-02 -6.49150014e-02  1.06259890e-01  8.38864129e-03
   5.81481457e-02 -1.30242422e-01  1.22459792e-01  1.49704829e-01
   6.26857253e-03  1.10653125e-01  8.73076394e-02  1.20122962e-01
   6.75550401e-02  7.81489834e-02 -1.26355797e-01 -3.80217060e-02
  -3.26566435e-02 -7.96293989e-02  4.64068055e-02  1.74392402e-01
  -5.17356731e-02 -2.74779182e-02  6.76274151e-02  1.67964607e-01
   1.20708339e-01  1.37424562e-02  6.35652542e-02  9.10091102e-02
   3.37325670e-02  4.88652103e-02  2.49588862e-02  6.74994066e-02
   4.86028083e-02  1.30749747e-01  1.86859295e-02  1.20683396e-02
   6.24800175e-02 -6.78891037e-03 -2.48363037e-02 -1.03189163e-01
   1.42198667e-01 -2.45136432e-02 -7.62336329e-02]
 [-3.69022675e-02  5.61233759e-02  3.71705554e-02  4.62225154e-02
   1.29311070e-01  1.63796842e-01 -3.30193155e-02 -1.33546650e-01
   8.22225139e-02  8.05796534e-02 -2.44678278e-02 -1.03022724e-01
  -8.96903276e-02 -8.74442384e-02  2.14959960e-02  8.51839855e-02
   1.76332235e-01  1.77334666e-01  4.06289063e-02 -7.47560561e-02
   2.82278634e-03  1.28151640e-01 -6.48571774e-02  1.59829289e-01
   1.14836700e-01  1.77280908e-03 -6.76319897e-02 -1.15452975e-01
  -4.22381843e-03 -3.53778601e-02 -8.24865978e-03  1.39129624e-01
   8.61992836e-02  1.36652082e-01  1.01358801e-01  1.75786719e-01
   1.54177576e-01  1.26247287e-01  1.07435927e-01 -3.65407877e-02
   5.21412641e-02  1.65704250e-01 -1.44855708e-01]
 [-8.24287757e-02 -4.08852547e-02 -4.13678661e-02  1.29816428e-01
   1.39964715e-01 -7.29277439e-04  4.90803868e-02 -9.20544788e-02
   5.34169599e-02  7.49505460e-02 -7.97557458e-02  5.70174977e-02
  -1.45466000e-01 -1.73339201e-03 -7.48857930e-02 -1.27801811e-02
  -1.33235827e-01  7.99240246e-02 -1.18260607e-01 -6.42497442e-04
   5.05466647e-02  1.38770536e-01  8.55127200e-02  6.82725087e-02
   4.08987217e-02 -8.42516497e-02  5.41060045e-02  1.00138448e-01
  -4.34297100e-02  1.40149929e-02 -7.87832066e-02  1.46818534e-01
   6.95939064e-02 -1.68806929e-02  1.63741618e-01 -1.44944653e-01
  -1.30580440e-01 -3.33672576e-02 -2.42061224e-02  1.18593566e-01
   1.24614678e-01  1.01691499e-01 -1.32988930e-01]
 [-1.40764475e-01 -1.43802911e-01 -2.55280882e-02  6.72810674e-02
   9.35582668e-02 -1.49942726e-01 -1.32752359e-01  5.90940528e-02
   1.25207053e-02 -7.15583861e-02  2.18802467e-02  1.14119239e-01
   5.17395735e-02 -4.80202436e-02  9.72378906e-03 -6.72902465e-02
  -3.81195322e-02  1.05749115e-01  3.02172713e-02 -7.07545951e-02
   7.31685758e-02  6.03723377e-02  3.65395285e-02 -4.84420992e-02
  -2.92784460e-02  3.93775478e-02  6.03305139e-02 -3.52041498e-02
   2.34351289e-02 -3.90694551e-02  3.45959142e-02 -1.12806626e-01
  -1.01702148e-02  1.69275045e-01  7.26163462e-02  1.58467829e-01
   1.29431725e-01  3.48962881e-02 -3.65138687e-02 -5.24190404e-02
  -4.03092988e-02  9.24294293e-02  7.10309148e-02]
 [-2.75175762e-03 -3.78469378e-02 -3.06536295e-02  1.80388391e-02
  -1.48470163e-01 -1.08854145e-01  1.47506399e-02  1.16014875e-01
   1.56972751e-01 -6.82559935e-03 -8.18543881e-02  1.15418822e-01
  -1.52819483e-02 -2.11136453e-02  1.21808268e-01  4.08527926e-02
   1.19050011e-01 -1.37421757e-01  2.69589107e-02 -1.24899289e-02
  -9.11823660e-02  4.04966995e-02  6.64280802e-02 -1.48628354e-01
  -5.60770258e-02  4.42130938e-02 -1.60339475e-01 -1.35002593e-02
   1.08521886e-01 -9.67865288e-02 -1.26878381e-01  1.67400688e-02
   8.88987631e-02 -5.41278571e-02  6.96386248e-02  2.46205833e-02
  -5.89849055e-02 -7.60585591e-02 -8.78000855e-02 -1.06479339e-01
   3.65937836e-02  5.30486964e-02 -7.47856032e-03]
 [-1.08611897e-01  7.00645745e-02  3.84973064e-02 -1.20500382e-02
  -4.68007848e-02  5.50175682e-02 -7.77081177e-02  1.73904244e-02
   1.53742479e-02 -1.48916245e-01 -7.36577436e-02 -9.24452171e-02
   7.72486301e-03  4.95562255e-02 -5.70614524e-02 -6.54513463e-02
  -1.58919737e-01 -1.43675059e-01 -5.80895739e-03  4.89663705e-02
   1.42600551e-01  1.64930999e-01 -7.61452615e-02 -8.16865414e-02
  -5.49658611e-02  8.03246275e-02  1.14574865e-01 -2.99389306e-02
  -1.34935513e-01  8.96510035e-02  5.35024069e-02  1.74417123e-02
   7.90494084e-02  7.04190135e-02 -8.63599107e-02 -1.24895841e-01
  -1.02624565e-01  5.72639052e-03  6.64247796e-02 -1.07881367e-01
   2.89247800e-02  9.63450968e-02  9.99352485e-02]
 [ 1.42347679e-01  9.89540592e-02 -2.41345000e-02 -5.42718731e-03
   8.80169794e-02  4.62348610e-02 -8.97780806e-02 -8.76873955e-02
  -1.32992700e-01 -1.73148438e-02 -1.59706950e-01 -1.30275115e-01
   1.04117483e-01  1.07608072e-01  3.01951077e-02 -1.37104169e-01
   1.14330508e-01 -1.05078012e-01 -4.19324040e-02 -3.67380828e-02
   1.10887438e-01 -4.89273444e-02  4.04014997e-02  1.88232183e-01
   1.34256393e-01  6.98865801e-02 -1.08025931e-01 -4.38795378e-03
   1.11866474e-01  7.95896202e-02  1.95403155e-02 -1.01203643e-01
  -7.07429126e-02  7.56236166e-02  1.51869878e-01 -3.97092849e-02
   3.46970148e-02 -1.25635713e-01 -5.01641408e-02 -1.95080005e-02
  -5.20421341e-02  7.94927627e-02  7.81794824e-03]
 [-1.40428022e-01 -8.20333138e-02 -1.83837473e-01 -1.28998041e-01
   1.23516209e-01 -6.06968328e-02  4.98118170e-05  1.01017557e-01
   1.11502126e-01  2.86746342e-02  2.83219479e-02  1.30395561e-01
  -3.12300604e-02 -8.27848017e-02 -1.57491565e-01  1.06019028e-01
   1.06306784e-01 -1.76983044e-01  7.93365985e-02 -4.73706312e-02
  -1.27207026e-01  2.99922843e-02  1.08566321e-01  1.18829727e-01
  -1.20998994e-01  6.21614046e-02 -1.08136863e-01 -1.21772014e-01
  -1.00404257e-02 -2.27073692e-02 -4.66419086e-02 -6.82524294e-02
  -6.64417297e-02  6.52299374e-02  1.54921308e-01  1.03388831e-01
  -5.23510214e-04 -6.94210529e-02  1.25650615e-01 -9.22846869e-02
  -1.35189041e-01 -4.86783050e-02  2.32009720e-02]
 [ 5.24261817e-02  6.98664337e-02  1.44509614e-01  1.31417751e-01
  -1.06579110e-01 -9.89067480e-02  1.53348297e-01 -3.24168964e-03
   8.39033350e-02  3.18339467e-02  1.65107436e-02 -1.13299221e-01
  -1.13279326e-02  5.80524765e-02  1.21570572e-01  1.27746060e-01
   1.47591844e-01  3.54001708e-02  4.90285736e-03  1.51817352e-02
   4.71634939e-02 -1.11212164e-01  3.77199836e-02 -2.13775784e-02
  -7.04793446e-03  1.22410432e-01  1.02904342e-01 -4.69467230e-02
  -1.65208392e-02  1.45027503e-01  7.40363598e-02 -9.71227593e-04
   8.17051157e-02 -2.25883536e-02 -1.52797876e-02  1.38502911e-01
   1.15440786e-01  1.38796300e-01  4.43861187e-02  1.38835803e-01
  -9.73897055e-02 -1.11661188e-01  1.52362138e-01]
 [-4.88119423e-02  1.06508099e-01 -1.61132321e-01  1.03700466e-01
  -1.19132092e-02  1.18714580e-02 -5.48971146e-02 -1.93190835e-02
   7.73156211e-02 -1.61135972e-01  4.10409831e-02 -9.68779698e-02
  -1.67299300e-01 -1.15050420e-01 -1.49911672e-01 -7.22803548e-02
  -5.43705449e-02  5.86500317e-02 -7.90781081e-02 -8.55931342e-02
  -1.10432275e-01 -1.51901394e-01  1.05508238e-01  7.14577083e-03
  -3.79684158e-02  1.22906834e-01  5.98060638e-02  3.90498601e-02
   4.25615869e-02  6.39289841e-02  1.05310142e-01  5.61781973e-02
  -1.57860562e-01  1.09967783e-01 -1.11382008e-01  1.95191726e-02
  -1.49636358e-01 -3.15549038e-02 -1.54549912e-01 -1.06204584e-01
  -7.13752285e-02 -7.14946464e-02 -8.10169578e-02]
 [ 1.59905687e-01 -9.35498849e-02  2.55005732e-02  9.42354724e-02
   6.89046979e-02  8.49145204e-02  2.77721658e-02 -1.03383381e-02
   9.75737795e-02  5.90991676e-02 -4.58907671e-02 -2.79205628e-02
   5.29252132e-03  7.48248473e-02  1.20899908e-01 -7.54556954e-02
  -9.22469273e-02  1.18896723e-01 -8.00809339e-02  7.36169592e-02
  -1.61768392e-01  1.21050477e-01  9.48001295e-02  1.37515208e-02
  -2.51169503e-02 -3.04295607e-02  1.42717123e-01 -1.69263538e-02
  -1.67996958e-02 -3.69922668e-02  1.58122122e-01  9.78006497e-02
   9.16767195e-02  1.49840210e-02 -3.15470295e-03 -5.71117029e-02
   1.45097673e-01  4.91629019e-02 -5.56668378e-02 -9.73427743e-02
   5.30332662e-02  1.43900216e-01 -2.05274601e-03]
 [-3.92463468e-02  1.32021412e-01 -6.95122927e-02 -1.21245058e-02
  -1.38239935e-01  3.15204039e-02  8.45087469e-02 -1.18438266e-01
  -1.21448981e-03  9.19127092e-02 -4.20301309e-04  8.71003345e-02
   4.97555993e-02 -3.40167060e-02 -1.69699773e-01  5.39663024e-02
   9.91875380e-02  1.66962996e-01  1.13963984e-01 -7.97073767e-02
  -1.58298776e-01  3.38617712e-03 -1.14027910e-01 -4.20835055e-03
   1.02591231e-01  3.84028070e-02 -3.01924758e-02 -2.79170331e-02
   1.24803595e-01 -3.03858202e-02 -2.66000326e-03 -1.02214128e-01
   2.70642396e-02  1.30733818e-01 -1.28853336e-01 -5.61812110e-02
   6.17297068e-02  9.94180422e-03  1.04551040e-01 -8.12553987e-02
  -1.54178888e-01 -1.18334368e-01 -1.32397473e-01]
 [-1.42897099e-01  6.93772659e-02 -1.51173741e-01 -1.42664030e-01
  -8.71970430e-02  8.80533159e-02 -1.17109582e-01  7.74394535e-03
   6.89558983e-02  7.94718489e-02  1.19724303e-01  1.41991809e-01
  -9.69734639e-02 -5.52143529e-02 -3.86452302e-02 -8.27783272e-02
   1.16072565e-01  1.14856161e-01  1.04657374e-01  1.24059534e-02
  -1.70861065e-01 -9.47615430e-02  1.01993583e-01 -1.04343995e-01
   1.43729866e-01  8.52052942e-02  1.95259470e-02 -3.22557613e-02
   1.79838732e-01  1.66264594e-01 -1.13819264e-01  9.79265571e-02
   1.13411844e-01  5.17952908e-03 -3.37503105e-02  6.52031088e-03
   1.45883486e-01 -6.45869523e-02  1.50709629e-01  2.72365455e-02
   1.38308138e-01  9.13261324e-02 -6.39842749e-02]
 [ 5.25874235e-02  1.54250771e-01 -2.60409210e-02 -1.41624823e-01
   6.67566508e-02  3.76901664e-02  1.16311103e-01  4.90877703e-02
   2.85849534e-02  4.32920791e-02  1.57601554e-02  1.64413139e-01
   1.24920346e-01  1.17572315e-01  4.35171910e-02  1.61428034e-01
   1.72754109e-01  1.81963682e-01  1.32297814e-01 -7.22601116e-02
   1.23633137e-02 -1.15759462e-01  1.60306275e-01  1.66962385e-01
   8.14193562e-02 -8.09560195e-02  1.13959603e-01 -2.36284956e-02
  -8.41546897e-03 -5.79782911e-02 -4.83170077e-02  1.58478260e-01
   1.49661273e-01  1.76055387e-01 -2.21233722e-02  1.39564335e-01
   8.94677490e-02 -6.51535206e-03  1.55797213e-01  9.63540841e-03
  -1.10653497e-01  1.74869835e-01  3.33886780e-02]
 [-1.19198434e-01  8.16646405e-03 -1.31354779e-01  3.14518809e-02
  -7.41637498e-02 -1.37248605e-01  2.96315942e-02 -1.05018482e-01
  -1.43753096e-01  2.98302770e-02 -1.07366376e-01 -9.33363289e-02
   1.20844781e-01  2.47364063e-02  9.23910588e-02  1.17822655e-01
   2.75915917e-02 -7.85159990e-02  6.79662302e-02 -4.84599657e-02
  -1.29108047e-02  9.92007479e-02 -5.63056469e-02 -3.33621725e-02
   1.56669065e-01 -3.33050601e-02 -2.97955647e-02  1.14426151e-01
  -7.56792575e-02  5.42769535e-03  4.46147658e-02 -5.20942546e-03
  -1.07449248e-01 -1.00295469e-02  4.57825586e-02 -7.38551542e-02
   1.66348547e-01 -1.10739172e-01 -3.22693028e-02 -1.82950702e-02
  -1.54043719e-01 -1.62769273e-01  1.32417232e-01]
 [ 1.09707706e-01  9.96526405e-02 -1.40230609e-02 -1.19159818e-01
  -3.82524692e-02  4.05579284e-02  2.54805423e-02 -1.21605262e-01
  -9.96481329e-02 -1.24303363e-01 -7.96742737e-02 -4.64303233e-02
   1.08942933e-01 -6.53824136e-02  3.56817245e-02  7.52776116e-03
   1.47538260e-01 -8.30072165e-02 -1.09672390e-01 -1.49061859e-01
   1.03876889e-01 -8.88226330e-02 -1.26039341e-01  4.73530404e-02
  -2.02921182e-02  9.92280766e-02 -9.52661037e-02 -1.10667564e-01
   1.56133175e-01  4.86709327e-02 -1.33154884e-01  1.57677215e-02
  -2.26315297e-02  5.43474331e-02 -8.09643269e-02 -1.24940038e-01
  -3.65454443e-02  5.92074096e-02 -1.19374238e-01 -2.19588596e-02
   1.16639689e-01  9.74213108e-02 -5.25720185e-03]
 [-1.37437373e-01 -1.45899653e-01 -2.86624883e-03  5.29357418e-03
  -1.14539325e-01  5.60043864e-02  5.74870668e-02 -1.72504902e-01
   2.99980585e-02 -1.36874095e-01 -1.11579284e-01  5.31336442e-02
  -3.31861414e-02  4.23456430e-02 -4.74154130e-02 -2.90387012e-02
  -3.24665606e-02  2.37599872e-02 -9.46931317e-02  5.00535518e-02
  -1.69738173e-01  2.08483431e-02  4.55881059e-02 -1.10187568e-01
  -6.61369339e-02 -4.39467430e-02  5.07527404e-02  8.46304279e-03
  -2.02383604e-02 -2.95015872e-02 -6.47313846e-03 -1.18383147e-01
   9.88161489e-02  9.25365761e-02 -8.18932503e-02 -1.24365106e-01
  -4.72278614e-03 -1.52318999e-01  1.15818456e-01  9.93778631e-02
  -1.56256616e-01  1.14009890e-03 -6.62985146e-02]
 [-3.63775343e-02 -1.68293893e-01  1.00900091e-01 -1.92503691e-01
  -1.14242226e-01  8.14008862e-02  7.03775659e-02 -1.57394215e-01
   4.89326492e-02  4.74244282e-02  4.03123461e-02  2.79583931e-02
  -8.64175409e-02  1.25552014e-01 -1.14332877e-01 -4.01666723e-02
  -3.19018513e-02 -1.40197664e-01 -7.51862675e-02 -8.69855285e-03
  -1.20967276e-01 -1.39639884e-01  7.49750137e-02  1.48091897e-01
  -1.17615558e-01 -1.36505306e-01 -1.31027877e-01 -6.91975132e-02
   1.13669947e-01 -7.45710358e-02 -1.25414468e-02  2.32087076e-03
   7.15608448e-02 -1.34735778e-01  1.36991724e-01  1.57690316e-01
  -6.37880352e-04  2.09834911e-02 -1.14533857e-01  5.79347685e-02
   1.29985482e-01 -1.19929537e-01 -1.40766144e-01]
 [-8.18295926e-02 -5.52863702e-02 -1.35970846e-01 -9.94080901e-02
   1.47802122e-02 -1.08087800e-01  1.36167198e-01  8.25169496e-03
  -5.91405742e-02 -5.95799312e-02 -1.11022256e-01 -3.31408717e-03
   8.36192891e-02  1.16613805e-02  1.01196855e-01  2.82011125e-02
  -6.59323260e-02  1.84119549e-02 -1.47549510e-01 -1.47983665e-02
   3.53657752e-02  2.56675780e-02 -1.36331916e-01  5.98482043e-02
  -1.65497199e-01 -1.21335350e-01 -4.62509282e-02 -1.58240229e-01
   1.22537397e-01  1.24384865e-01 -9.55241080e-03 -1.64722472e-01
   4.30712104e-02  2.00598314e-03  1.10649012e-01 -6.34844974e-02
   1.14763319e-01 -1.22061975e-01  1.89462062e-02  9.77080911e-02
   1.86950266e-02  2.22079381e-02 -1.11451685e-01]
 [-2.69949101e-02 -1.35316849e-01  5.58420308e-02 -1.47951901e-01
   1.22073323e-01 -1.04396895e-01 -1.60229579e-01 -9.37406644e-02
   1.68250911e-02 -3.55406292e-02 -5.80980591e-02 -5.78202158e-02
  -1.34925991e-01  1.24985106e-01 -3.39246430e-02  3.93387191e-02
   1.15589805e-01  1.86345980e-01 -1.50181189e-01  7.28857219e-02
   1.08880110e-01  2.62895171e-02  4.53102626e-02  1.49320379e-01
  -2.63638403e-02 -7.78824463e-02 -1.32562131e-01 -1.16799790e-02
  -6.35266453e-02 -5.79933226e-02  9.33386609e-02  1.24389552e-01
  -2.07262076e-02  5.96058927e-02 -9.06159449e-03  6.72889650e-02
  -1.34099737e-01 -4.19900008e-02  6.28490001e-02  1.58826485e-01
   8.89994055e-02  1.28898174e-01  6.88770711e-02]
 [-5.15923873e-02  4.97735888e-02 -1.35828599e-01 -8.81104246e-02
   7.69155398e-02 -2.15439089e-02 -4.24403846e-02  1.09981060e-01
  -3.93892415e-02  4.00999412e-02  1.16195604e-01  9.18436721e-02
  -1.35446817e-01  7.24299103e-02 -6.69701695e-02 -1.04315981e-01
  -1.24614671e-01  4.31747288e-02 -3.06930616e-02  1.54356569e-01
   7.63014406e-02 -2.09690887e-03  9.51204672e-02 -2.83655748e-02
   1.02494493e-01  1.54243663e-01  2.82699578e-02 -1.42157763e-01
   6.54905736e-02 -1.18237920e-01  1.39331266e-01  2.81910747e-02
   4.65887822e-02  6.20167479e-02  9.24129263e-02 -2.67180940e-03
  -1.13097250e-01  1.43270582e-01  1.47713289e-01 -6.92774877e-02
   1.28246471e-01  2.38706600e-02 -1.25316270e-02]
 [ 3.71495187e-02  9.51605588e-02  9.19386894e-02 -2.55749580e-02
  -2.01927461e-02 -9.02352296e-03  5.39742708e-02 -5.00755035e-04
   8.78576264e-02 -5.69538996e-02  2.20628623e-02  5.00599621e-03
  -9.31320339e-02 -7.45510533e-02 -1.40365520e-02 -1.46464780e-02
   2.61715669e-02  1.68092921e-01 -8.65322351e-02  1.63318232e-01
  -5.31016663e-02  1.50421619e-01  1.63294658e-01  1.19164288e-01
   1.21562622e-01  8.54270905e-02  1.45562202e-01  9.11723673e-02
  -2.88010444e-02  1.62816361e-01 -2.65544802e-02  5.11072762e-02
  -8.18881840e-02 -1.45648187e-02 -1.53418422e-01 -1.09979354e-01
  -1.07322365e-01 -1.02489688e-01 -3.48607847e-03 -6.63556159e-02
  -2.96538342e-02  1.43098459e-01  6.05721958e-02]
 [-7.94305205e-02  1.00819945e-01 -2.77209245e-02 -5.43961339e-02
   8.07338655e-02 -8.39791633e-03  1.48152813e-01  5.80264479e-02
   7.63144493e-02  5.03416099e-02  1.13625921e-01  6.06878661e-02
   1.17493384e-01  7.78168589e-02 -1.26930237e-01  1.26158118e-01
  -1.77179128e-02 -1.05694056e-01  1.02855466e-01 -1.16333507e-01
   1.66203473e-02  3.37810367e-02 -1.47839695e-01  4.53465879e-02
   1.38923705e-01  1.39107034e-01  6.63130209e-02 -8.70705619e-02
   6.34740144e-02  6.52098134e-02 -8.26361179e-02  1.46373227e-01
   2.87169870e-02 -1.12921320e-01  7.09577873e-02  1.81931049e-01
   1.13986686e-01 -1.04896732e-01  6.80707172e-02 -9.84778069e-03
  -3.96326110e-02  1.22920759e-01  3.29720625e-03]
 [-1.98570527e-02 -7.16388673e-02 -9.88523737e-02 -1.27648950e-01
  -4.93891910e-02 -1.13324642e-01  7.09449500e-02 -4.29774821e-02
   7.90401995e-02 -1.07091792e-01  4.22560982e-02  1.87133238e-01
   5.74363284e-02 -1.63566932e-01  3.60784829e-02 -8.21705982e-02
  -5.00720963e-02  3.74399945e-02 -9.20639262e-02 -3.13377120e-02
  -1.22050099e-01  1.63644716e-01  1.96008354e-01 -6.05088472e-02
   7.12871477e-02 -2.18691509e-02  9.22563374e-02 -1.43728424e-02
   5.50852008e-02  2.35848334e-02  1.46912530e-01  1.10499613e-01
   1.43784150e-01  1.21123500e-01 -5.80881052e-02  2.50778105e-02
  -1.18348829e-01 -8.18651468e-02 -1.54199556e-01  7.89198950e-02
   8.96226848e-04  2.03036249e-01 -3.56607921e-02]
 [-8.00183862e-02  1.18007332e-01 -6.00200780e-02  5.55481203e-02
   2.05125753e-02 -7.11404011e-02  1.29103407e-01  3.35577242e-02
   3.68782356e-02 -1.06403142e-01  1.05682798e-01 -5.21474890e-02
  -6.58197552e-02  1.12474434e-01 -9.57449526e-02  2.22701244e-02
  -7.20634498e-03  6.15964867e-02  1.49870396e-01  1.26773223e-01
  -8.24357048e-02 -1.37242582e-02  1.39856279e-01 -3.92702110e-02
   4.22019362e-02  8.52212533e-02 -1.03710979e-01  7.54463226e-02
   1.31857656e-02 -3.20325792e-02  1.31772280e-01  7.80809969e-02
  -7.99244940e-02  1.38155058e-01  8.62956196e-02 -1.89171638e-02
  -2.72908597e-03  1.54706668e-02  1.38467208e-01 -2.48220228e-02
  -2.26522367e-02  8.47193226e-02  8.03448167e-03]
 [ 1.16099574e-01  1.27122775e-02 -4.24957909e-02 -7.14403018e-02
   1.00212745e-01  3.14293057e-02  1.45752132e-01 -1.58604025e-03
   1.27941296e-01  4.36095707e-02 -1.23675376e-01 -4.13362682e-02
   4.69994619e-02  8.22521299e-02 -1.40571609e-01  1.32510468e-01
   1.09383659e-02 -7.29942769e-02  3.73479873e-02 -1.21886499e-01
  -1.81885622e-02 -6.45882711e-02 -5.29671125e-02 -2.76445784e-02
  -1.26288280e-01 -7.90583938e-02  9.33289453e-02 -8.49184617e-02
   1.13770649e-01  1.39657229e-01 -9.77815911e-02 -1.17228389e-01
   6.89581223e-03  1.01126432e-01  2.28331122e-03  1.69479681e-04
  -9.11510214e-02  1.30988091e-01 -8.05671737e-02  8.55914950e-02
  -3.48941982e-03  8.30058679e-02 -2.94456892e-02]
 [ 1.09688498e-01 -2.12461650e-02 -1.00243445e-02  8.54947139e-05
  -1.29738897e-01  1.32252216e-01 -9.27156210e-02 -6.75509647e-02
   1.35459319e-01 -9.97852385e-02  6.00433126e-02 -1.17440633e-02
   1.38946518e-01  1.77183345e-01  9.55709666e-02  7.60786608e-02
  -3.60247530e-02  4.92460988e-02  7.84140676e-02 -1.00986205e-01
   2.18362790e-02  9.81959850e-02  7.94736072e-02  1.59846514e-01
  -8.51092637e-02  1.49583638e-01 -2.52500344e-02 -7.90038854e-02
   1.56726651e-02 -1.11991301e-01  3.39083001e-02 -5.59968315e-02
  -9.73863676e-02  3.41749680e-03 -4.16517891e-02  1.00213006e-01
  -3.63706648e-02 -1.06547832e-01 -6.67593554e-02  3.35790291e-02
  -1.46353208e-02  6.31545335e-02  1.08988561e-01]
 [-1.21036813e-01  7.18813166e-02  2.96868235e-02  6.22292720e-02
  -7.46028721e-02 -5.70636429e-02 -2.28662863e-02 -5.35699837e-02
  -1.24650665e-01  6.58851415e-02 -8.25794637e-02  2.24953201e-02
  -1.73698440e-02 -9.67863053e-02 -1.45959690e-01  7.26879090e-02
   8.06603432e-02  1.14207380e-02 -1.19707352e-02 -4.64446750e-03
   8.01891908e-02  6.87683150e-02 -7.24155530e-02 -4.35512774e-02
  -9.16668624e-02  1.22145072e-01 -1.25077680e-01 -3.31574269e-02
  -9.46102887e-02  5.78720495e-02  3.72760817e-02 -5.28649762e-02
   5.73114641e-02 -5.97183257e-02 -1.84952859e-02 -1.17844395e-01
  -1.07250780e-01 -5.25523163e-02  6.34620115e-02 -6.37949631e-02
  -8.26351866e-02 -7.43898600e-02  7.30702430e-02]
 [ 1.72264725e-01  7.87529871e-02  4.25558202e-02  5.53505868e-02
   8.45888034e-02 -1.64418574e-02  9.97205153e-02 -6.38218597e-02
   4.39939871e-02  1.55202374e-01  1.52124524e-01  6.36301413e-02
   4.34067696e-02 -8.66679999e-04 -2.49573030e-02 -6.03909269e-02
  -5.88982068e-02  3.70901711e-02 -1.10922694e-01  3.34908105e-02
   9.37662125e-02 -5.92882708e-02  1.46391213e-01  1.93723831e-02
  -9.80678499e-02 -5.41728139e-02  9.43563208e-02  1.39882803e-01
  -6.36292472e-02  6.12411723e-02  1.68264791e-01 -1.12382449e-01
  -5.54238707e-02 -7.52692595e-02  4.74501401e-02  1.52880579e-01
   1.39058828e-01 -8.00927281e-02  1.12247206e-01 -2.37268824e-02
  -2.18601115e-02  1.29340328e-02  5.27794436e-02]
 [-1.00284472e-01  1.34908408e-01  1.04607753e-01 -1.53164029e-01
  -1.43305138e-01 -2.77209524e-02  1.23590725e-02 -1.52505323e-01
   8.94312859e-02 -9.17484611e-02 -1.24187529e-01  7.15944767e-02
  -9.27565172e-02  2.43897792e-02  6.59536337e-03 -1.17829338e-01
  -9.61261839e-02 -1.31315708e-01  2.41714194e-02 -1.61183447e-01
  -6.55105859e-02 -4.30201106e-02 -6.28020242e-02 -1.24252386e-01
  -8.53720382e-02 -7.99067542e-02  1.21473685e-01 -1.51180819e-01
  -1.88648626e-02 -9.59774628e-02 -1.34573549e-01  9.70128179e-02
  -7.83016309e-02  7.45114237e-02 -6.65785521e-02 -7.04687014e-02
   5.26365377e-02  6.48493990e-02 -4.92974222e-02 -1.03083506e-01
  -6.75519230e-04 -8.81168395e-02  4.73757535e-02]
 [-1.34586161e-02 -1.04534991e-01 -1.10877290e-01  7.68715665e-02
  -1.42575791e-02 -7.49804080e-02  4.36710082e-02  1.45091847e-01
   6.84750229e-02 -9.46271643e-02  6.38765320e-02 -3.92037667e-02
  -4.12968695e-02 -5.59437461e-02  7.30854273e-02 -7.89580047e-02
   1.58441871e-01  1.04801551e-01 -6.11237660e-02  1.11566707e-01
   6.37966096e-02 -1.67217143e-02 -6.45015538e-02  9.10060182e-02
   1.75919592e-01 -1.88719947e-02 -7.07071722e-02 -6.61301166e-02
   1.26018450e-01  1.68311715e-01  9.41095799e-02 -4.42192182e-02
  -8.98475647e-02 -2.59751249e-02 -7.60986283e-02 -1.10780440e-01
   6.65603485e-03 -1.36058256e-01  1.20639503e-01 -9.23603848e-02
  -1.33158237e-01  4.74901609e-02  1.26007453e-01]
 [ 3.72552313e-02 -1.42736491e-02 -6.90697879e-02 -9.90961269e-02
   4.58033532e-02  6.09835014e-02 -1.45008951e-01 -3.22936215e-02
  -9.62497517e-02 -6.97294995e-02 -3.40043902e-02  4.81047332e-02
   1.02339640e-01 -1.47384599e-01 -1.38414457e-01 -1.17075950e-01
  -9.35516693e-03 -1.00021034e-01 -1.33944020e-01 -1.29095554e-01
   1.07238479e-01 -1.28600433e-01  5.59732690e-02 -1.64845601e-01
  -1.60876051e-01  9.52131674e-02 -1.17468409e-01 -5.85310720e-02
  -1.01666264e-01 -4.86433022e-02  3.83581184e-02  1.11514285e-01
  -9.33039412e-02 -6.02668487e-02  7.57473111e-02 -1.66038707e-01
  -8.51131827e-02  9.30571035e-02 -4.43550497e-02 -1.71939746e-01
   4.38727178e-02 -1.06337547e-01 -7.78106274e-03]
 [-1.09337464e-01 -2.39215028e-02 -6.70278594e-02  3.81887369e-02
   4.20250967e-02  1.48068652e-01  2.96921749e-02  6.56821067e-03
   1.82729140e-02 -1.24602675e-01  1.56539470e-01  1.28453717e-01
   5.75236678e-02 -4.44883257e-02 -5.76516092e-02  1.34783447e-01
   1.28152117e-01  1.49156138e-01 -8.68748203e-02  5.63616492e-02
  -6.71989620e-02  1.00172043e-01  1.47263378e-01 -6.29241914e-02
   2.13323440e-02  9.00555216e-03 -6.14855811e-02  4.18028682e-02
   4.62918058e-02  3.55917551e-02  1.67174831e-01 -5.91458082e-02
   1.54476166e-01 -7.50929043e-02 -7.23855663e-03  1.48711950e-01
  -2.14344747e-02  1.87773407e-02 -1.89176187e-01 -8.04347396e-02
   2.45043226e-02  8.78985226e-02  2.91791093e-02]
 [ 8.03614706e-02 -6.41992539e-02  1.21325821e-01 -9.25541669e-02
   8.84849653e-02  1.66655704e-01  1.57166898e-01 -8.73823538e-02
  -1.02542184e-01  6.30569011e-02 -5.88729754e-02  2.33529788e-02
   3.04489583e-02  3.53565859e-03 -1.08381964e-01  1.11936234e-01
   1.37828097e-01  1.05184555e-01 -8.72090831e-02  1.16695091e-01
   7.23094121e-02 -1.75510243e-01  2.92783231e-02  1.52419299e-01
   1.17725700e-01  4.47940938e-02 -7.63618648e-02 -9.57172178e-03
   7.78174773e-02 -1.11643113e-01  5.67314923e-02 -8.36459622e-02
   1.18119409e-03 -1.42075066e-02 -8.00463110e-02  1.93173140e-01
  -2.90996172e-02  3.30172293e-02  1.83634851e-02 -1.08994879e-01
  -1.35857776e-01 -9.80668515e-02  1.33113787e-01]
 [ 1.59793898e-01  8.66117850e-02 -3.59947495e-02 -4.29333858e-02
  -1.15796879e-01 -2.99000107e-02 -7.33042285e-02 -8.68405178e-02
  -1.08949296e-01 -7.47378990e-02  1.68011576e-01  5.85989431e-02
  -1.43862113e-01  1.05256349e-01 -1.55219555e-01  3.71084176e-02
   8.26326013e-02  6.19589444e-03 -1.01961128e-01  1.42085254e-01
  -1.07760318e-01 -7.51957968e-02 -8.67561996e-02 -6.12890869e-02
  -6.97926879e-02  1.17336757e-01 -8.32558274e-02 -9.76651758e-02
   2.21557613e-03  1.03078581e-01 -8.08320288e-03 -3.76334228e-02
   1.58936143e-01 -4.21327390e-02 -4.39406373e-02  1.88148953e-03
   1.65769368e-01  5.06050419e-03 -9.81498212e-02  4.62074473e-04
   1.91646330e-02 -5.80516011e-02 -1.14446118e-01]
 [ 1.24272555e-01  9.78578851e-02 -1.09979011e-01  1.29384198e-03
   8.54411945e-02  7.34926015e-02  6.86866120e-02 -6.59139380e-02
   1.43765181e-01  4.97950390e-02 -2.97208652e-02 -6.67125285e-02
  -3.21068056e-02  1.81793068e-02 -1.53850049e-01  1.13918632e-01
   5.87928854e-02  1.12246506e-01 -3.08461506e-02 -6.41027186e-03
  -5.94129674e-02 -3.80689129e-02  1.81213677e-01 -7.34698847e-02
  -7.70324618e-02  1.27765134e-01 -2.63932329e-02  1.44995123e-01
   1.30117372e-01  2.96510551e-02  9.09894928e-02  3.93418334e-02
  -7.40583465e-02  1.23081110e-01  1.05702177e-01 -2.88873399e-03
  -2.14476604e-02  6.23629391e-02 -5.30629382e-02  1.06371500e-01
  -1.67031676e-01 -7.04218298e-02  9.93244946e-02]
 [-7.53156915e-02 -8.05491060e-02 -1.43786952e-01 -1.84659988e-01
   7.79790580e-02 -6.15593418e-02 -9.36359167e-02  4.37460728e-02
   1.87849645e-02  8.59761387e-02  7.50242323e-02 -1.61250811e-02
   1.54264346e-01  1.00324251e-01  1.12395268e-02 -3.49920169e-02
   1.04277886e-01  9.98365059e-02 -3.31778713e-02  1.58808783e-01
  -8.75223130e-02  5.23559526e-02  4.61954297e-03  1.82852730e-01
   5.77698499e-02  5.35934269e-02  1.09742209e-01  1.17503263e-01
  -1.90259852e-02  6.93015531e-02 -7.09184036e-02 -4.16726060e-02
   5.26851006e-02 -1.46261305e-01 -5.92046827e-02 -1.42354354e-01
   1.41485929e-01 -1.12208240e-01 -1.29276156e-01  9.01987851e-02
   7.69612938e-02 -3.34389023e-02  1.42647445e-01]
 [ 2.59900019e-02 -1.53496377e-02  5.13041764e-03  9.94714051e-02
  -1.02037070e-02  1.08505026e-01 -1.43384337e-01 -9.48526412e-02
  -1.53925359e-01 -6.87956288e-02  8.91117975e-02 -7.28442594e-02
  -6.56208545e-02 -3.84694450e-02 -3.94585095e-02 -1.49209887e-01
   2.71825567e-02  8.55461955e-02  1.32580502e-02 -9.71352085e-02
  -3.04869916e-02 -8.79175812e-02  1.31553650e-01  6.02097847e-02
  -8.86886641e-02  7.44364038e-03 -9.47001390e-03  1.49887621e-01
  -9.04123187e-02 -1.10079847e-01 -6.07750262e-04  1.11623548e-01
   1.05170101e-01 -4.43181396e-02  1.40826091e-01  6.15939349e-02
  -1.44059047e-01  1.35973677e-01 -2.01850478e-02 -7.47915432e-02
  -6.08084761e-02  4.83437032e-02  1.35964930e-01]
 [ 1.09504789e-01 -4.83196927e-03 -1.06049590e-01  1.18217260e-01
  -4.94094715e-02  1.02133177e-01 -7.21908659e-02  2.11272519e-02
   4.15704772e-02  1.47920340e-01 -7.81254023e-02 -5.64372241e-02
   3.17739658e-02 -1.29452035e-01 -2.52357172e-03 -1.42631799e-01
  -2.36210693e-02  6.07018657e-02  6.31977022e-02 -6.09186664e-02
   4.12758403e-02  1.73041731e-01  7.75616337e-03  1.33323625e-01
   6.57364875e-02  4.60534031e-03 -1.11435659e-01  1.01833396e-01
  -1.11055356e-02  6.67948574e-02  8.15202296e-02 -1.25284297e-02
   4.35935147e-02  3.12196016e-02 -1.29158944e-01  1.30727798e-01
  -1.36181101e-01 -1.08881980e-01  3.13385911e-02  6.23239763e-02
  -1.49739534e-01  2.61825714e-02  6.63302317e-02]
 [-9.61404108e-03 -2.02521365e-02 -1.02070175e-01  1.28265336e-01
   1.01257302e-01  1.05585851e-01 -1.29462436e-01 -7.02131614e-02
   2.64419103e-03  2.37290915e-02 -7.02592582e-02 -1.29127413e-01
  -1.01804540e-01  8.59916732e-02 -9.32541043e-02  1.01211265e-01
   1.33815005e-01  1.82995722e-01 -9.80401412e-02  1.06208645e-01
  -6.13364689e-02  1.50796205e-01  1.88288074e-02  1.60138756e-01
   1.04557596e-01 -8.42794105e-02 -3.81397977e-02 -3.73822963e-03
  -7.67421275e-02  3.95211577e-02 -1.31253123e-01  1.03823304e-01
  -1.12682082e-01 -3.88371609e-02 -1.05107196e-01  8.14165697e-02
   7.40276575e-02 -8.22328106e-02 -1.33840874e-01 -3.52543369e-02
  -5.60020059e-02 -3.62786129e-02 -7.83223957e-02]
 [-7.49197677e-02  6.41912445e-02 -1.62705809e-01  9.36239958e-02
  -1.09686226e-01  7.61848316e-02 -1.38121191e-02  3.38769928e-02
  -6.40326366e-02 -1.30658105e-01 -1.10779755e-01  1.98937058e-02
   9.56880301e-02  8.58663023e-02  3.06554008e-02 -1.19334154e-01
  -1.30413100e-01 -1.21531241e-01 -8.64974409e-02  4.19272259e-02
  -1.20062210e-01 -4.60424758e-02 -1.23482168e-01  8.05935934e-02
   1.03185855e-01  7.89403841e-02  8.16055611e-02 -1.32577643e-01
  -4.02989201e-02 -7.74630159e-02 -5.65441921e-02 -7.59340003e-02
  -6.09709993e-02 -1.18184134e-01 -1.66760772e-01 -4.97654341e-02
  -8.47003981e-02 -4.91966642e-02 -4.82364148e-02 -1.69752017e-01
   8.51012766e-02 -8.26273039e-02  4.33000550e-02]
 [ 1.18188925e-01 -5.62739670e-02  7.09068999e-02 -5.33970073e-02
   1.76922828e-02 -1.17735840e-01  1.61323637e-01  1.38404682e-01
  -1.47894964e-01  4.16701622e-02 -9.79327187e-02 -2.35813856e-02
   1.54035017e-01  6.21673279e-02  5.44411018e-02  9.29635316e-02
  -3.09408307e-02  6.96135312e-02 -9.78543237e-02  1.32765308e-01
  -2.12103017e-02 -8.43526497e-02  8.13221186e-02 -4.70670611e-02
  -1.24850169e-01  1.08286768e-01 -4.83562164e-02  5.21573313e-02
   1.50344864e-01  1.08636044e-01 -1.26005098e-01  4.47293520e-02
   4.91759330e-02 -7.25572035e-02  1.72261193e-01  1.28090173e-01
   2.27491762e-02 -1.00426309e-01 -7.01937079e-02 -1.46508783e-01
  -1.25715867e-01 -3.76194604e-02  4.13618051e-02]
 [-1.23401128e-01  1.14018053e-01  1.31702527e-01 -1.59534797e-01
   5.86538613e-02  1.16749011e-01  1.29500657e-01  8.33253339e-02
   2.06551366e-02 -1.86039358e-02 -6.18201271e-02 -1.85762942e-01
   1.40761286e-01  2.60175206e-02 -3.19172554e-02  1.32811204e-01
   1.69782400e-01  8.54528621e-02 -1.22248091e-01 -5.62204421e-02
  -1.13507286e-01  1.19121522e-01  1.14326119e-01  8.81925896e-02
   1.09241247e-01 -1.17895491e-01 -6.28239438e-02  3.78209092e-02
  -3.18911374e-02 -1.09066017e-01 -1.26769990e-01 -9.03109163e-02
  -2.43583564e-02  4.12043147e-02  3.46508133e-03 -1.27029598e-01
  -5.99827468e-02  4.24450971e-02 -1.08375274e-01  3.09845079e-02
   4.12847586e-02  1.53398395e-01  8.09832755e-03]
 [-8.12267810e-02 -2.48922855e-02  1.66466031e-02 -1.77190080e-01
  -1.71805218e-01 -9.39963609e-02  7.41512924e-02  2.37175263e-02
   3.47787738e-02 -1.14398442e-01  1.27063319e-01  1.83227926e-01
   2.33726818e-02 -8.96953717e-02 -6.09946735e-02  2.20445432e-02
   1.10304162e-01 -5.10553867e-02  5.84314018e-02 -2.81591546e-02
  -8.15421045e-02  4.06673062e-04 -4.93553914e-02  1.11052878e-01
  -6.76256269e-02  5.87122366e-02  1.14457428e-01 -2.67209522e-02
   9.28951651e-02  1.23728432e-01  1.14202067e-01  2.89026909e-02
  -5.79460263e-02  1.25600085e-01 -7.85178319e-02  1.30221158e-01
  -6.73487633e-02  1.02095455e-01 -7.95473233e-02 -8.59761462e-02
  -1.60523370e-01  1.41681746e-01 -4.05168310e-02]
 [ 1.09370708e-01 -9.54323336e-02  1.42614678e-01 -9.92881581e-02
   8.05857703e-02  1.68201208e-01 -1.31549045e-01  9.62515026e-02
   5.74918799e-02  1.48187047e-02  1.48545012e-01  1.24204978e-02
  -1.39980437e-02  1.14511438e-01 -3.80867235e-02  8.21312517e-02
   3.06047685e-03  2.50298642e-02 -1.38335237e-02 -1.06612511e-01
  -4.33613434e-02  2.87037273e-03  1.18098460e-01 -1.43016085e-01
  -8.70938748e-02 -1.02318503e-01 -3.36807370e-02  1.06317416e-01
   1.17144464e-02 -1.35942966e-01  1.21757634e-01 -9.79321450e-03
  -3.87311120e-05  1.28708109e-01 -6.21175021e-02  5.40466197e-02
   9.84453112e-02 -1.21365227e-01  1.22171395e-01 -1.66855026e-02
   1.58298746e-01  1.79132745e-02 -3.88056003e-02]
 [ 9.51375514e-02  5.51388115e-02  7.23966956e-02  1.25834256e-01
  -3.87548655e-02  6.98757321e-02  1.58406571e-01 -1.13813192e-01
   6.28086478e-02  5.16620241e-02  4.61102054e-02  8.33567902e-02
   8.71403143e-02 -7.89539143e-02  2.95982584e-02  1.91212296e-02
  -4.16471511e-02 -4.23891060e-02 -7.36155510e-02  1.64492413e-01
   4.27213646e-02  5.18893749e-02 -9.46561694e-02 -2.27535609e-03
   8.38689506e-02 -8.69998410e-02 -1.18070461e-01 -6.71663955e-02
   1.11735716e-01  1.66060299e-01 -4.79051247e-02  5.81985079e-02
   1.78991407e-01 -9.41559374e-02 -7.76955560e-02  8.40655565e-02
   4.00840044e-02  1.37477860e-01  1.56640977e-01  3.69192138e-02
   2.39857398e-02  4.93315700e-03  1.98265947e-02]
 [ 1.18647851e-02 -6.20677024e-02  2.11193822e-02  7.74493963e-02
   2.37452611e-02 -9.56991389e-02  1.34608179e-01  1.11349083e-01
  -3.59931700e-02  4.09214944e-02  1.07999511e-01 -4.73926635e-03
   1.30882949e-01  1.41109154e-01  8.49409476e-02  2.63066422e-02
  -1.42615493e-02 -4.86446321e-02  1.53893353e-02  2.77959555e-02
  -2.23730002e-02  1.43366784e-01 -4.53710631e-02  1.40358359e-01
   9.07854140e-02  9.59591717e-02  8.63941573e-03  7.09976628e-02
  -6.88327923e-02 -4.19603102e-02 -2.54047364e-02  9.56205428e-02
  -3.11331023e-02 -1.02699481e-01  7.03428313e-02 -8.04691203e-03
   1.50403902e-01  7.61305392e-02 -5.81061188e-03  1.49298891e-01
   9.87638310e-02  1.36677012e-01 -4.07562181e-02]
 [-3.46563533e-02  1.47186652e-01  9.08467397e-02  1.22331895e-01
   7.07667843e-02  1.57422721e-01  1.17527194e-01 -8.90092477e-02
  -2.95261703e-02 -1.50038418e-03  6.69014752e-02  4.80361506e-02
  -9.76337567e-02  1.75717622e-02 -7.68550485e-02  1.55070975e-01
  -9.42732990e-02  2.93190572e-02  4.23108824e-02 -2.85812151e-02
  -5.64312972e-02 -1.44876152e-01 -3.23890261e-02 -2.35402305e-02
   3.76635976e-02 -2.96149831e-02 -9.61160809e-02 -9.72175673e-02
  -2.06820536e-02  7.11055845e-02 -1.15653664e-01  1.87739041e-02
  -5.93037391e-03  1.65939391e-01  1.82346217e-02  6.11473471e-02
   7.62443468e-02 -9.80874747e-02  8.88394490e-02 -8.23614001e-02
   6.88409135e-02  6.57914504e-02  5.84503151e-02]
 [ 1.15702257e-01 -4.09654565e-02  1.42204463e-01  8.80641714e-02
   1.43638298e-01 -4.17432897e-02 -1.13951294e-02  1.08060732e-01
  -3.59061770e-02 -3.76740582e-02 -1.03340372e-02 -1.62758827e-02
  -6.79639950e-02  5.28836511e-02 -2.83298772e-02  8.65633935e-02
  -1.42486230e-01  7.00592715e-03 -1.02197148e-01 -2.00592130e-02
   1.17009714e-01 -6.44851997e-02  3.29881744e-03  3.63848321e-02
  -6.12812899e-02 -2.92899888e-02 -2.90090051e-02  1.61903892e-02
  -8.30103531e-02 -8.42214897e-02  5.69135286e-02  8.36729407e-02
   2.57470794e-02  5.04515879e-02 -1.48293125e-02  1.26816958e-01
  -4.01840769e-02  1.55990034e-01  1.59171730e-01 -4.31413427e-02
  -8.79872218e-02  3.15638222e-02  5.17336465e-02]
 [ 7.76216015e-02  8.41205418e-02 -7.90322125e-02 -1.22118115e-01
  -5.51276915e-02  5.05008698e-02 -4.11257371e-02 -1.58370912e-01
   5.52408248e-02  3.79507951e-02 -6.03536554e-02 -7.12397546e-02
   1.59700669e-03  1.38948575e-01 -1.29529431e-01  9.85445231e-02
  -1.39639512e-01 -9.38625038e-02 -7.40102492e-04 -1.18853584e-01
  -5.99843301e-02 -5.15720025e-02 -1.59741879e-01  3.84330191e-02
  -1.36284977e-01  8.82345513e-02 -1.46471441e-01  6.19439743e-02
  -2.27595847e-02  7.71945044e-02 -1.13456763e-01 -1.46574333e-01
   1.00375198e-01 -1.34270132e-01  9.34780091e-02  6.11979067e-02
  -7.47793838e-02 -2.08291579e-02 -1.25277832e-01  2.16329447e-03
   1.07854635e-01 -1.43845603e-01  2.81046238e-02]
 [ 1.65190712e-01  3.68652456e-02 -3.02609671e-02 -1.25963092e-01
   1.06740631e-01  9.89472196e-02 -6.79212138e-02  1.24168225e-01
  -2.98519321e-02  1.18049607e-01 -5.29091507e-02  1.50570586e-01
   1.38930827e-01 -4.19430435e-03 -1.27343461e-01 -9.65161696e-02
   6.71216398e-02 -1.71409678e-02  3.43363322e-02  5.65505438e-02
   1.12236015e-01 -4.74030375e-02  8.85429606e-02  1.30760118e-01
   1.57936051e-01  1.15942039e-01 -5.18503785e-02 -1.03098303e-01
  -8.09531137e-02  1.70544520e-01  1.66282594e-01 -7.95959309e-02
  -6.99576586e-02  1.56043544e-01 -3.14900428e-02 -1.07829884e-01
  -5.08080646e-02  1.31284907e-01  1.26677513e-01 -1.44654155e-01
  -1.15087710e-01 -9.99556333e-02 -1.28148058e-02]
 [-1.30038206e-02 -1.54995874e-01 -1.12385243e-01 -1.73739314e-01
   7.61663392e-02 -1.04408562e-01  1.26907066e-01  1.24225868e-02
   1.05042107e-01  1.21172525e-01  7.95735940e-02  8.25217366e-02
  -1.38521064e-02  6.80973455e-02  5.73635735e-02 -1.55814722e-01
   4.54171598e-02 -1.26609117e-01 -7.87792876e-02 -4.69457321e-02
   1.06581502e-01  1.35423541e-01  1.75854594e-01  1.96819305e-02
   1.36677355e-01  1.01282805e-01  7.00308755e-02  1.36597097e-01
  -3.57792787e-02  9.21622068e-02  1.66178495e-02  7.18874484e-02
  -5.93090057e-02 -7.37475380e-02  4.25955467e-03 -1.05757214e-01
  -1.44340500e-01 -2.13375804e-03 -5.81314787e-02  7.36725777e-02
  -1.38000309e-01  6.26822859e-02 -1.02006696e-01]
 [ 1.43733442e-01  1.05593028e-02  1.15275577e-01 -1.39033914e-01
  -1.04287505e-01 -1.81950107e-02  2.54126526e-02 -1.08265698e-01
   4.10562567e-02 -6.83233514e-02 -2.95599792e-02 -1.79580301e-01
   8.54422674e-02 -1.37451530e-01  2.06281953e-02  8.87668952e-02
   1.02837600e-01  8.68114829e-02 -9.77742374e-02 -1.62931792e-02
   3.72105278e-02 -5.17659299e-02 -1.54619932e-01  3.47286053e-02
   3.98611948e-02 -1.03093989e-01 -3.42286602e-02  9.21963677e-02
  -5.60074337e-02  1.47407517e-01  7.76088238e-02 -3.29014994e-02
   8.39692205e-02  4.61895913e-02  4.17648628e-02 -2.37319116e-02
  -3.95676792e-02  1.11172944e-01 -4.48664799e-02 -9.12940055e-02
   1.69894472e-01 -1.52821746e-02  2.22745407e-02]
 [ 9.67849270e-02  1.13223411e-01 -1.02844007e-01 -2.56171469e-02
   1.19754694e-01  2.40135863e-02  2.81539243e-02  8.81949738e-02
   7.22497255e-02 -1.16463013e-01 -3.16589475e-02 -1.46239117e-01
  -3.56941633e-02 -9.64851603e-02 -1.10496655e-01 -2.38638790e-03
   1.01896022e-02  3.82758640e-02 -9.37421992e-02  6.89574927e-02
   9.22170579e-02 -3.96751389e-02 -7.01965690e-02  1.21897869e-01
   8.23668949e-03  1.24046139e-01 -9.99729857e-02  6.39200285e-02
  -1.49626642e-01 -9.49769169e-02 -4.07556118e-03  8.11666548e-02
  -1.85848419e-02 -4.69793789e-02 -8.39262530e-02 -2.93255653e-02
   9.84703004e-02  5.16596809e-02 -1.10169046e-01  1.05679899e-01
  -1.68016821e-01 -1.33008599e-01  1.31882712e-01]
 [ 1.06950002e-02  3.25797522e-03  7.70759881e-02  7.03706220e-02
  -6.63466305e-02 -2.08099801e-02 -1.90955196e-02 -1.27012044e-01
   1.42346825e-02 -1.26747981e-01 -7.67636597e-02  1.21955469e-01
  -2.82985531e-02  3.95148024e-02  9.95976403e-02  1.32820487e-01
  -1.16301449e-02  7.19460100e-02 -1.48285761e-01  1.03771426e-01
  -1.46173179e-01  1.99971460e-02 -6.18015230e-02 -4.23386656e-02
   1.52023330e-01  1.39399275e-01  1.19212354e-02  8.17283988e-02
  -1.18357666e-01 -9.73681584e-02  2.34897491e-02  5.16808927e-02
  -1.42516736e-02 -1.18992969e-01 -1.86456472e-01  1.59517214e-01
   1.52230978e-01 -1.02389611e-01  1.15659207e-01  1.51445838e-02
   8.68117586e-02  8.08858424e-02  1.12447783e-01]
 [ 1.70739681e-01 -8.65777954e-02 -1.43117890e-01 -7.47867953e-03
   1.00180805e-02 -7.84205273e-02  1.13325022e-01  1.10236354e-01
  -2.07792856e-02 -3.02113183e-02 -1.28247067e-01  1.56024516e-01
  -7.60755762e-02  1.05511852e-01 -3.74124050e-02  2.26161014e-02
   6.40517101e-02 -2.87148021e-02 -3.19905952e-02  6.83009923e-02
   1.21467886e-03 -3.78008448e-02  1.53238088e-01 -3.10093872e-02
  -1.15065008e-01  1.90047435e-02  2.24786089e-03  1.23232581e-01
   5.05777039e-02 -9.74349678e-03  9.09651294e-02 -1.30848870e-01
   6.31912425e-02  3.11497543e-02  1.70613289e-01  1.47912562e-01
   1.20972589e-01  1.57685205e-01 -5.41089289e-03  4.37459312e-02
  -9.96100754e-02 -1.23271316e-01  1.12427317e-01]
 [-2.94731632e-02  1.96703300e-02  7.35218078e-02  1.47044854e-02
   1.14009291e-01 -1.51511848e-01  7.16357902e-02 -6.05662875e-02
  -5.20392209e-02 -1.02744594e-01 -6.74992204e-02  6.98392540e-02
  -2.98572779e-02 -1.07334010e-01  6.29287809e-02 -1.12718649e-01
   4.35634851e-02 -1.40811503e-02 -1.07693464e-01  6.13769777e-02
  -1.18521050e-01 -3.56625021e-02 -1.56916212e-02 -4.76779230e-02
  -4.83138161e-03  3.10678016e-02 -9.94594917e-02 -9.37721282e-02
   8.99096057e-02 -2.72491481e-02 -8.14191923e-02 -1.46789744e-01
   2.47029793e-02  6.77339034e-03  5.55982329e-02  2.39069369e-02
  -1.08615652e-01 -6.10914603e-02  1.22082449e-01  4.21473244e-03
   9.99323279e-02 -6.57830387e-02  1.49251342e-01]
 [-1.12739831e-01  1.06451288e-01 -2.20510308e-02 -4.60112207e-02
  -8.68626777e-03 -1.91482395e-01  3.87188829e-02  1.15856506e-01
  -4.56289351e-02 -4.36978713e-02 -2.46834345e-02  1.08419932e-01
   6.57750964e-02  1.06845513e-01 -1.14692383e-01 -8.02660063e-02
   1.56984869e-02 -1.51765093e-01 -5.70660969e-03  9.46940258e-02
  -1.55393751e-02 -1.67518988e-01 -9.61979404e-02  4.25408147e-02
  -1.35796964e-02 -1.36971911e-02 -9.99684632e-02  8.27008113e-02
   1.00836955e-01  1.87585384e-01  8.09698552e-02  4.15395051e-02
   7.87653327e-02 -5.13560511e-02  3.25103849e-02 -1.18503645e-01
   7.18540102e-02  1.02974750e-01 -1.40912458e-01  1.18078448e-01
   6.52238056e-02 -1.01904511e-01  1.26278058e-01]
 [ 1.49971424e-02  3.79933836e-03  3.49423811e-02  8.51703435e-02
  -9.97536108e-02  1.50693981e-02  1.37435526e-01  5.06748073e-02
  -9.97436643e-02 -8.44351724e-02  1.69168040e-01  1.69286788e-01
  -1.01271600e-01  9.51131508e-02  7.08508724e-03  1.65290713e-01
  -8.03363398e-02  2.56042406e-02 -9.44675431e-02  1.65504426e-01
  -1.02334343e-01  1.23647876e-01  9.94171947e-02  5.85716181e-02
  -2.84668803e-02 -3.25358324e-02  8.45323280e-02 -2.71222163e-02
  -1.71148926e-01 -1.11264862e-01  1.34895682e-01 -5.68158180e-02
   4.48345505e-02  6.67725950e-02  4.35762145e-02 -7.45819956e-02
  -5.45016006e-02  2.02717446e-02 -1.14230268e-01  3.80676193e-03
  -1.35789335e-01  1.49934575e-01  6.53468817e-02]
 [ 1.50913075e-01  1.15346923e-01 -7.34220147e-02 -9.48049724e-02
   1.23849399e-01  1.65873319e-01  6.24248274e-02  1.29279690e-02
   1.55480951e-01 -4.25724052e-02  1.55316874e-01  7.24411802e-03
  -5.89216352e-02 -1.01189971e-01  4.26848568e-02  4.75259311e-02
  -2.10050754e-02  1.37319406e-02  3.60514335e-02  6.21160865e-02
   2.97948588e-02  9.67779681e-02 -1.08252846e-01  1.66171521e-01
   1.27942607e-01 -1.07095964e-01 -5.29374368e-02  5.81712089e-02
   1.61878362e-01 -9.37321037e-02 -1.64892953e-02  1.71442572e-02
  -2.44098436e-02 -2.95352582e-02 -6.81228936e-02 -1.89413130e-01
  -4.46541756e-02  1.69297084e-01 -1.28704458e-01 -1.43376186e-01
  -9.66971219e-02 -6.83033094e-02  8.17273855e-02]
 [-9.98700783e-02 -1.47191897e-01 -1.05042875e-01 -1.74704373e-01
  -1.51066139e-01  1.12569474e-01  6.15380369e-02  6.05647378e-02
   1.20391652e-01  1.07025579e-01  3.99717456e-03  1.37121052e-01
  -4.49915379e-02 -2.99361795e-02  8.73352364e-02 -5.42589948e-02
   9.26343352e-02  3.53933647e-02  3.17724422e-02  4.67998944e-02
  -9.30241644e-02  5.86724691e-02  1.33668557e-01  1.13479801e-01
  -5.42997047e-02  3.96129340e-02 -1.16546275e-02 -1.10815600e-01
   1.51267499e-01 -5.26728779e-02  3.79810669e-02 -2.85570491e-02
  -7.00808316e-02 -3.78274880e-02  6.84051588e-02  1.25740141e-01
   1.62791371e-01  6.25416934e-02  5.36552034e-02  1.30634140e-02
   8.25028047e-02 -2.07828227e-02  8.12578723e-02]
 [-1.22577213e-01 -9.46979374e-02 -2.72596292e-02  9.04767066e-02
  -8.33476260e-02 -5.75652011e-02  5.75838313e-02 -6.42979890e-02
  -6.14653602e-02 -2.17750985e-02  4.46342975e-02  1.12581834e-01
  -1.05992980e-01  1.68270357e-02 -7.41939619e-02 -7.14976937e-02
   1.80659294e-01 -1.26295120e-01 -8.09665769e-02  1.29578739e-01
  -2.27595791e-02  1.43355519e-01  7.97599107e-02  1.47185177e-01
  -1.17327504e-01  1.10461995e-01  5.98549172e-02 -1.04103707e-01
  -1.35243088e-01 -7.36668333e-02 -5.28762266e-02  8.19897465e-03
   1.08271979e-01  5.41608371e-02  2.36665439e-02  2.37790626e-02
  -8.25725049e-02  1.32749707e-01  8.22498873e-02  4.96979505e-02
  -5.25099337e-02  1.72094375e-01 -5.74901029e-02]
 [-3.11455932e-02 -4.89031225e-02 -1.17179856e-01 -7.06614554e-02
  -3.27257328e-02 -1.76559493e-01 -1.31094411e-01 -4.57370728e-02
   1.20643862e-01 -4.99405451e-02 -2.58380268e-02 -1.11416735e-01
   1.59014523e-01  5.27189225e-02 -1.40743926e-01  1.09687209e-01
  -9.12298039e-02  1.29912093e-01 -1.06861345e-01  1.11078776e-01
  -6.47529513e-02  3.39181609e-02  5.26791662e-02  1.62070975e-01
   1.26604527e-01  1.27416566e-01 -2.03152057e-02 -1.21832289e-01
   1.36314198e-01  9.17200074e-02  1.69235751e-01  4.13871836e-03
   6.64885566e-02  1.63889676e-01  4.95622982e-04 -1.06936954e-01
   6.92701489e-02 -3.63910873e-03  1.91649795e-02 -4.88779061e-02
   1.08166292e-01  1.17790923e-01 -6.79522604e-02]
 [ 1.16564304e-01 -1.03792613e-02 -1.41892329e-01 -1.26714502e-02
   1.37472928e-01  1.22693568e-01  5.46615161e-02  4.07490730e-02
   1.00970477e-01  7.93637633e-02  8.40530619e-02 -8.16260837e-03
  -3.02304812e-02  5.62864468e-02 -5.87440990e-02 -1.21852644e-01
  -9.10418257e-02  8.88652876e-02 -1.13555573e-01  1.03690572e-01
   5.81738576e-02  8.99682865e-02  1.18775383e-01  1.03138089e-01
  -1.11515902e-01 -5.72163723e-02  7.99983591e-02 -4.75840010e-02
   7.59223849e-02 -1.59896180e-01 -1.16817392e-01 -3.08134537e-02
  -3.37769613e-02  1.10976748e-01 -5.56297265e-02  6.90291747e-02
   1.37829170e-01 -6.50359765e-02  8.30501541e-02  5.09150773e-02
   6.74978644e-02  1.28781376e-02 -1.14979737e-01]
 [ 4.78202403e-02 -1.54324159e-01  1.05279408e-01  3.87727916e-02
   5.22500761e-02 -1.40378373e-02 -4.00161929e-02 -1.30064651e-01
   1.06769092e-01 -6.24226220e-02 -1.54802665e-01 -1.91992009e-03
   9.58465189e-02  8.69902819e-02  1.07628539e-01  2.04368941e-02
   4.91359681e-02  2.15743128e-02 -1.00551002e-01  5.91074466e-04
  -1.35362698e-02  4.51978408e-02 -1.38549820e-01 -1.56533808e-01
   1.36303902e-01  6.44836947e-02 -6.58898056e-02 -2.57430356e-02
   5.87979779e-02  3.87800927e-03 -1.17505103e-01  1.10899575e-01
  -4.29581627e-02  8.72676224e-02  5.54892793e-02  6.94937706e-02
  -2.62330752e-02 -3.45832147e-02  3.83614972e-02 -8.11143368e-02
   1.49128780e-01 -5.50862141e-02  5.84364794e-02]
 [ 1.24315761e-01  3.71923260e-02  1.53525844e-01  8.20046570e-03
  -1.47036374e-01  1.38548419e-01 -5.16094379e-02  2.39655431e-02
   1.19296469e-01  9.15644765e-02  2.31711175e-02 -6.52924106e-02
   7.51507133e-02  6.76582679e-02 -5.49437292e-02  5.54166473e-02
  -8.11807513e-02  1.21253073e-01  6.91880584e-02 -9.64695215e-02
   3.57367992e-02 -3.11324485e-02  2.85755144e-03 -5.92234246e-02
   4.99364100e-02 -3.46182771e-02 -1.07076481e-01 -9.83851701e-02
  -4.27219346e-02 -1.10844389e-01 -2.25005839e-02 -1.13554783e-01
   1.44786015e-01 -2.91461544e-03  4.33940021e-03  1.34147897e-01
   8.96443725e-02  1.16674796e-01  2.19501797e-02 -6.38737455e-02
  -5.55209816e-02 -5.11915125e-02  4.91891131e-02]
 [-5.59666902e-02 -1.82760227e-02  4.06344980e-02  1.13926455e-01
   6.84022084e-02  4.50649597e-02 -7.38611594e-02  4.43673357e-02
  -1.46367803e-01  1.15057297e-01 -1.41880110e-01 -1.35361552e-01
  -1.73606202e-01  6.42656311e-02 -1.60954818e-02  1.00891709e-01
   8.61602053e-02 -1.48802868e-03  9.17557180e-02 -4.69048098e-02
   1.94473844e-02 -7.20954388e-02 -7.38416612e-02  6.69507980e-02
   2.45107673e-02 -1.53004918e-02 -3.63018513e-02  1.13506161e-01
   3.27625982e-02  1.12711862e-01 -1.45181388e-01  1.25050634e-01
  -1.85810160e-02  7.82886669e-02  6.12326972e-02 -8.01371261e-02
  -1.00720255e-02  2.45114993e-02 -2.85959505e-02  5.31480350e-02
  -1.09959289e-01  1.82632171e-03  1.41497441e-02]
 [-1.27703294e-01 -1.10323079e-01 -4.51751724e-02 -1.19057804e-01
   2.34473776e-02  7.51836821e-02  3.08420658e-02  4.99408320e-02
   4.19419967e-02  8.06415975e-02 -9.44512933e-02 -1.56730246e-02
   1.29880160e-01  8.57001320e-02 -1.48789898e-01 -1.76611971e-02
  -1.73063174e-01  7.15343356e-02 -6.84085786e-02 -1.17283694e-01
  -1.14549093e-01  1.11638628e-01  1.01340145e-01  4.81728390e-02
   7.03907385e-02 -1.61858678e-01  1.00102820e-01 -1.17897317e-01
  -9.78727713e-02  9.29471850e-02  1.20542953e-02  7.59922937e-02
   2.08010655e-02 -1.80883501e-02 -8.39999244e-02 -1.67839795e-01
   8.95789415e-02 -9.52301100e-02 -3.56998295e-02 -1.54476181e-01
  -5.41035458e-02 -5.11331372e-02  2.40284018e-02]
 [ 2.66559031e-02 -1.67043414e-02 -1.64952710e-01 -1.75879560e-02
   6.64740726e-02  7.71840215e-02  1.22329101e-01  9.73976962e-03
   1.16413154e-01 -2.93757357e-02  5.30719906e-02  1.18907154e-01
   1.11264363e-01 -4.18717191e-02 -1.13104187e-01 -1.40597209e-01
  -3.07128448e-02  1.21631630e-01 -1.21749133e-01  1.18708424e-01
  -5.28971059e-03  1.20354988e-01 -4.98625673e-02  1.16013557e-01
  -1.74218714e-02 -1.18151851e-01  4.65068296e-02 -1.19951390e-01
  -8.40618312e-02 -2.85012722e-02  4.98006232e-02 -1.31574431e-02
  -5.73605075e-02 -1.39009938e-01  3.51883285e-02 -5.61538562e-02
  -1.36186942e-01 -7.94995725e-02 -1.20846510e-01  1.03027649e-01
   7.85112754e-02  6.33274466e-02  1.12644248e-01]
 [ 3.16485651e-02  2.82787941e-02  2.44328696e-02  5.80198765e-02
   7.99768120e-02  3.44870798e-02  6.40698969e-02 -1.98484063e-02
  -4.32662852e-02 -1.09531507e-02 -2.34150290e-02  7.53035396e-02
  -4.28145714e-02 -9.98724103e-02 -1.50805861e-02 -2.33384743e-02
   3.77095900e-02  1.89563677e-01 -4.42405306e-02 -4.45637181e-02
  -7.28024915e-02 -7.40667060e-02  3.02674100e-02  5.81139214e-02
  -5.10668904e-02  6.44297972e-02  9.85304564e-02  1.39948994e-01
  -2.29726117e-02  1.24108970e-01  1.01893082e-01  8.12781230e-02
  -1.80228241e-02  5.91243990e-02  1.16579033e-01  8.34007412e-02
  -1.25992462e-01  6.92097843e-02  1.43033370e-01 -4.00826372e-02
   1.62454560e-01  6.87367916e-02  1.39372528e-01]
 [ 1.58408701e-01  1.25089899e-01 -1.42444238e-01 -5.18381819e-02
   1.24443591e-01  6.51502684e-02 -1.54247042e-02 -3.44145447e-02
   1.42931432e-01  6.02815300e-02  1.25252143e-01  1.06061600e-01
   1.21668383e-01  8.20467994e-03 -7.30109066e-02  2.21244991e-04
   5.67720979e-02 -7.41176456e-02  7.22152889e-02  3.92837003e-02
   6.95212036e-02  8.07482302e-02  3.82559188e-02 -4.82467897e-02
   4.06923220e-02  1.88407972e-02  1.12139180e-01 -1.37518886e-02
   1.51246771e-01 -1.25292921e-02 -1.21699333e-01 -5.13426140e-02
   1.54150069e-01  1.43380925e-01 -1.04519531e-01  2.39228103e-02
   1.32796139e-01  1.50366351e-01  1.18157931e-01  3.11259762e-04
  -2.89862044e-02  1.38111979e-01 -2.17824094e-02]
 [-5.63037731e-02  1.16506293e-01  2.36728787e-02 -2.00988930e-02
   1.03713877e-01 -5.77498749e-02 -4.60209139e-02 -1.37621433e-01
   4.57814848e-03  1.71826184e-02 -1.44207567e-01 -4.09086607e-02
   8.83302763e-02 -1.03893794e-01 -1.49558941e-02  2.55741011e-02
  -7.23915026e-02 -5.46778962e-02 -9.93101299e-02 -7.25769475e-02
   3.37541616e-03 -3.49727180e-03 -1.00690641e-01  9.52890143e-02
   5.24617061e-02  1.67281926e-01 -8.28834698e-02  1.36249840e-01
  -8.86168927e-02  1.71802551e-01 -6.91032782e-02  4.95286249e-02
  -1.01361834e-01 -8.95089209e-02 -1.41258627e-01  1.11415602e-01
   7.02759251e-02 -8.12421441e-02  1.29686132e-01  4.59749289e-02
  -1.14515156e-01  1.54185176e-01  2.97652986e-02]
 [ 1.17543317e-01 -8.00491124e-02  6.01933636e-02  5.68934195e-02
   4.82163690e-02  3.82241234e-02 -1.32973157e-02 -9.16764140e-02
  -1.00769013e-01  4.58216779e-02  4.40565050e-02 -9.50645134e-02
  -1.56956539e-01 -7.19053745e-02 -1.70165636e-02 -6.24427907e-02
   9.27126482e-02  3.62630002e-02 -8.53090920e-03  9.87659991e-02
  -1.72377124e-01  1.13941766e-02  1.18131571e-01  1.07529297e-01
  -8.23272020e-02  4.80023474e-02 -1.35875657e-01 -1.00266941e-01
  -5.27636707e-02 -1.31044267e-02 -1.61431786e-02 -1.60601959e-01
   1.01632535e-01  3.14753950e-02  8.42140615e-02 -7.54936114e-02
  -1.49123773e-01  1.19810980e-02 -8.95891413e-02 -5.16735874e-02
   8.05115253e-02  1.26241386e-01 -9.25307646e-02]
 [ 1.78845510e-01 -1.33185804e-01 -2.89578531e-02 -9.79227424e-02
  -1.08999819e-01 -2.63579888e-03  7.34956190e-02 -7.92704299e-02
  -1.92160178e-02  2.45660618e-02 -8.46380964e-02  6.66075572e-02
  -1.05479285e-01  8.12368616e-02 -1.11999474e-01  9.87318605e-02
   5.43779731e-02  1.21924095e-01 -1.16997901e-02  3.03036105e-02
  -4.01033089e-02  5.74941700e-03  1.50759354e-01 -3.07769142e-02
   2.82697193e-02 -4.70291302e-02 -1.63157545e-02 -4.95868884e-02
   1.90581754e-01 -4.33110632e-02 -1.06594332e-01  1.17222764e-01
  -7.28959069e-02 -8.98349881e-02  1.42450407e-01 -1.54482260e-01
   1.89457163e-01 -7.62665048e-02  6.21797144e-02 -7.45439902e-02
  -1.09829225e-01  6.40014336e-02  1.09565698e-01]
 [-5.73709309e-02  1.46452591e-01  1.07364930e-01 -9.78912041e-03
  -3.17283571e-02 -4.11676764e-02  1.62312552e-01 -3.55212651e-02
   3.23240347e-02  1.13577195e-01  5.24985678e-02  1.76091522e-01
  -1.46171707e-03  2.96048261e-02 -8.74750167e-02 -8.60091746e-02
  -1.96310095e-02 -1.14175059e-01 -8.81702304e-02 -1.13350131e-01
   8.80356133e-02  4.22040410e-02  1.53858259e-01  1.11298330e-01
   2.66209692e-02  1.53088884e-03 -1.03408299e-01  1.55661643e-01
  -3.57651822e-02  3.78362238e-02  1.10255443e-01 -8.29520375e-02
   6.75715283e-02  8.42139572e-02  8.80653635e-02  1.58522546e-01
   1.04802117e-01  6.63631270e-03 -7.42686316e-02 -6.85777143e-03
  -1.77480161e-01 -1.45228535e-01  8.61816294e-03]
 [-1.56853218e-02  7.49431923e-02 -3.61078456e-02  4.34354730e-02
   3.31134088e-02  1.14096381e-01  6.40995950e-02  2.44049150e-02
   5.43153733e-02 -8.25473145e-02  1.47076562e-01  8.51520896e-03
  -2.01306958e-02  1.24753423e-01 -1.36880606e-01 -1.20917276e-01
   7.93142468e-02  2.45780759e-02  1.36237919e-01  4.77503799e-02
   9.83475894e-02 -1.25264034e-01 -5.87744564e-02  2.40016598e-02
   9.30529088e-02 -4.11226228e-02  1.30275130e-01 -1.10304765e-01
  -6.18277080e-02 -1.07953437e-01  1.04610054e-02  1.21233881e-01
   1.14802785e-01  1.12608425e-01 -6.65183961e-02 -6.47851601e-02
   3.20023932e-02 -7.42494017e-02  6.22616708e-02 -3.43739390e-02
   2.97972150e-02  8.10753405e-02 -7.68082589e-02]
 [ 5.69054075e-02 -1.22898564e-01  1.02533348e-01  3.02321874e-02
  -4.64531481e-02  1.41869690e-02 -4.74735461e-02  4.57353555e-02
  -7.46744350e-02  6.11102805e-02  2.87321825e-02 -7.55256042e-02
  -3.72280404e-02 -1.15790896e-01 -1.01857923e-01  6.22948892e-02
   8.80541429e-02  2.80092787e-02 -2.39893850e-02  2.49441881e-02
   1.04100332e-01 -7.95317218e-02  4.65737842e-02 -1.14397287e-01
  -3.08794696e-02  5.96977249e-02 -3.21316943e-02 -4.20287251e-02
   7.07952380e-02 -7.42056221e-02  1.70010939e-01  7.25745335e-02
  -2.93410923e-02 -1.13778576e-01  7.50245526e-02 -7.14464411e-02
   1.01024479e-01 -7.88078904e-02 -1.45863350e-02 -1.07930452e-01
  -6.38912171e-02 -4.19771336e-02 -9.61929373e-03]
 [ 1.72302783e-01  8.44521672e-02 -1.09407075e-01 -6.48801774e-02
  -4.40608338e-02 -1.57963797e-01 -8.95297155e-02  2.85391342e-02
  -1.18598685e-01  1.21670455e-01  1.38802186e-01  1.11837536e-01
   4.77123149e-02 -5.28540164e-02  1.00110039e-01 -9.07569602e-02
  -9.14297476e-02  5.07969148e-02  1.08954132e-01 -5.77683784e-02
  -1.26416087e-01  1.34571999e-01  4.82041873e-02  1.66846812e-01
   1.02525741e-01 -3.10362279e-02 -2.48440485e-02 -6.92574233e-02
  -5.29893227e-02  1.81441121e-02 -1.17742255e-01  2.52043852e-03
  -6.41048551e-02 -6.46243319e-02  1.19513348e-01  1.31621614e-01
   2.71134265e-02  1.63345098e-01 -1.10133298e-01  5.88088436e-03
   1.13814741e-01  5.73436059e-02  5.39515130e-02]
 [ 4.66703549e-02  1.25843778e-01  1.57261878e-01 -1.42549783e-01
   9.68728736e-02  1.20411508e-01 -1.20075673e-01 -9.86824706e-02
   1.58409193e-01 -9.37298089e-02  1.11571319e-01 -4.86429445e-02
   1.36976168e-01 -1.22851066e-01  1.13097556e-01  9.73038077e-02
   1.05077755e-02  4.35044840e-02 -1.06694557e-01  1.11042574e-01
  -6.51419535e-02  1.46598756e-01 -5.12580648e-02 -2.81329378e-02
  -7.68032148e-02  1.71201900e-01  6.35928437e-02 -8.99233669e-02
  -2.52607092e-02 -9.00864005e-02 -1.15841493e-01 -1.19395539e-01
   3.48479562e-02  3.53532918e-02 -3.04166861e-02 -1.45688787e-01
   6.37161881e-02 -5.51411510e-02 -1.13207161e-01  5.44354273e-03
   1.05582483e-01  5.85576370e-02  1.34056762e-01]
 [ 1.24156900e-01  1.21646464e-01 -9.33647603e-02  9.66064483e-02
   6.77135512e-02 -1.14369482e-01  3.50695215e-02 -9.29929782e-03
   1.11407742e-01 -1.44064128e-02 -4.23541553e-02  1.39957592e-01
   5.62192835e-02  8.17599371e-02 -7.59099871e-02  1.49259299e-01
   9.86624435e-02  1.81779876e-01  8.56929049e-02 -1.28037378e-01
   1.12054169e-01 -4.92226481e-02  1.60955593e-01  6.17505014e-02
  -4.68084700e-02  1.20469714e-02 -4.83625270e-02  7.66607746e-02
   1.43043026e-01  2.63520684e-02  6.25298545e-02  1.49223777e-02
  -2.31788587e-02  6.21341020e-02 -1.14107959e-01  1.62864059e-01
  -4.77683246e-02 -7.47398883e-02  8.69474635e-02  1.46457300e-01
   1.12359896e-01  1.61370903e-01  1.01481825e-01]
 [ 1.58678696e-01  1.39172852e-01 -6.92678168e-02  1.24235144e-02
  -3.07757575e-02 -1.54107019e-01  1.24936536e-01 -5.49496226e-02
   1.18989825e-01  1.36528820e-01  8.89597684e-02 -4.14935127e-02
  -6.02529496e-02  6.67998642e-02  8.02416205e-02 -1.38853580e-01
   3.54757421e-02 -1.47371218e-01  1.17468745e-01 -3.26889344e-02
  -1.33387558e-03 -4.73998338e-02  1.35325000e-01  7.11036474e-02
  -1.03554986e-01  9.56009924e-02  9.72231254e-02 -5.54165281e-02
   1.49444476e-01 -2.69702990e-02 -1.42676234e-02 -5.42306416e-02
   1.30286470e-01 -2.91627981e-02  1.19454917e-02  5.36562689e-02
  -7.87558034e-02  1.14555873e-01  1.35950670e-01 -3.79353687e-02
   1.51565984e-01 -9.30753201e-02  6.56341314e-02]
 [ 1.52902633e-01  2.87051462e-02  1.10884234e-01  1.50605785e-02
  -4.42803353e-02  6.68932796e-02 -4.73702401e-02  5.32820933e-02
   1.14921786e-01 -5.16992509e-02  1.43937930e-01 -9.81906205e-02
  -5.14608324e-02 -1.29974082e-01  8.25480372e-02 -3.31654656e-03
   1.04202129e-01  1.79190729e-02 -1.40601262e-01 -2.87329312e-03
  -5.93333058e-02 -7.48970136e-02  1.34204775e-01 -3.78634706e-02
  -7.52779096e-02 -8.64578411e-03 -1.48499999e-02  1.53284654e-01
   1.23974375e-01 -1.10011958e-01  8.65873247e-02 -1.04792759e-01
   1.38471974e-02 -4.58098128e-02 -6.77312091e-02 -1.40636340e-01
   2.63752490e-02  1.64990053e-01 -1.20639224e-02  1.00760862e-01
  -8.06698650e-02 -1.01794325e-01  4.42872792e-02]
 [-6.79320917e-02  5.88993132e-02  8.83695856e-02  1.18922062e-01
   8.10066645e-04  6.43295273e-02 -9.30505246e-02 -4.11816798e-02
  -4.85586897e-02 -1.00174055e-01 -6.09276965e-02 -1.02855906e-01
   6.83270916e-02  4.32626170e-04  1.20640941e-01 -8.47705454e-03
  -6.85330108e-02 -7.20273629e-02 -2.41105538e-03 -3.63002382e-02
  -8.96757022e-02  1.37745157e-01  1.73814237e-01 -2.47172564e-02
   1.21810131e-01 -5.04156835e-02  1.42438665e-01 -1.33436590e-01
   1.58947930e-01  7.71907624e-03 -6.70557022e-02 -1.23642504e-01
  -4.07644473e-02  1.61872685e-01  8.23791022e-04 -8.92930776e-02
  -2.07132031e-03  1.25970617e-02  5.96868880e-02  1.53361142e-01
  -9.78666246e-02  1.16012171e-01  7.96018466e-02]
 [ 2.32598539e-02  1.41915813e-01  8.12070966e-02 -1.08121783e-01
  -4.57568802e-02 -1.03328675e-02 -1.11334741e-01  1.15198560e-01
   6.83929622e-02 -1.27435550e-01  8.78397897e-02 -7.44429976e-02
   1.63077593e-01 -1.23272888e-01  4.36277501e-02 -3.50775719e-02
   4.03517075e-02 -2.18621697e-02  1.36147529e-01  1.00224175e-01
   1.62199996e-02 -1.04972325e-01 -5.98411933e-02 -6.19300194e-02
  -9.57842916e-03 -8.03036168e-02  1.58636674e-01 -1.06761925e-01
   1.14454120e-01 -5.17641604e-02 -3.61277047e-03 -4.54631746e-02
  -1.05531007e-01  7.73523524e-02  3.68744098e-02  4.36741672e-02
  -3.47888395e-02  8.88755247e-02  1.24183506e-01 -9.59015684e-04
  -6.79286346e-02  8.38592649e-02 -4.58279699e-02]
 [ 1.17626846e-01 -4.45922278e-02 -1.47338363e-03  7.86914825e-02
  -2.85928026e-02 -1.50050074e-01 -1.35888860e-01 -1.52119786e-01
   1.18017763e-01  3.50737385e-02 -1.07133843e-01 -1.40766725e-01
  -1.95772871e-02 -1.09010763e-01 -2.82540079e-02  8.39017108e-02
   1.31885305e-01 -7.32706860e-02  1.02838159e-01  9.48809236e-02
  -1.20512553e-01  4.56090905e-02  6.66316822e-02 -5.84448054e-02
  -5.95530197e-02 -8.96266848e-02  4.02121395e-02 -8.64797086e-02
  -1.22765698e-01  1.00800283e-02  6.60612658e-02  1.28817096e-01
  -4.34220508e-02  6.77841082e-02  4.97773774e-02 -1.16496738e-02
  -1.09359950e-01 -6.11176006e-02  1.19079329e-01 -2.65876483e-02
  -1.76667154e-01 -2.76412033e-02 -8.02262127e-02]
 [-2.37907693e-02 -2.45010499e-02  7.64119788e-04  1.21670030e-02
  -6.94483146e-02  6.11339062e-02 -1.33220807e-01 -1.09310865e-01
   1.72044151e-02 -2.21230853e-02 -1.07327528e-01 -6.87686354e-02
  -1.10594034e-01  1.49942506e-02  4.27160189e-02  1.52042970e-01
   6.57885661e-03 -1.19117752e-01 -5.23165390e-02  4.86208536e-02
   8.42864439e-02  5.29676117e-02 -1.60707101e-01 -1.12747781e-01
   5.78189343e-02  3.34405191e-02  7.73924515e-02 -1.71463132e-01
   1.00199364e-01  3.02103013e-02  5.38394041e-02 -5.68023138e-02
   4.35092719e-03  1.09349772e-01 -1.15154438e-01  9.20543373e-02
   1.62876308e-01  5.94028458e-03  2.03396436e-02  2.60304101e-02
  -5.94371222e-02  1.10915907e-01  1.14772856e-01]
 [ 1.57046348e-01 -1.30499646e-01 -8.74382677e-04 -1.96914542e-02
   5.57170138e-02  3.37787881e-03 -6.72292039e-02 -3.35632972e-02
   1.15063392e-01  1.14358321e-01  1.47148862e-01 -5.29014058e-02
  -1.10469954e-02  1.27595738e-01 -6.82255402e-02 -5.82952425e-02
  -1.29751056e-01  5.92272617e-02 -7.54113421e-02  1.68490723e-01
   3.92093435e-02  8.94736350e-02  5.09545542e-02  1.86475039e-01
   6.21449016e-02  1.48863822e-01  2.33259667e-02 -6.44718185e-02
   2.86171976e-02  6.82144538e-02  1.07930705e-01  7.87355006e-02
  -6.03227988e-02  3.96897495e-02  1.78776652e-01  3.24819498e-02
   1.12175457e-02  3.89438495e-02 -5.22815250e-02 -9.60608870e-02
   5.31574301e-02  8.23531672e-02 -1.04134724e-01]
 [ 5.33152111e-02  3.97800497e-04 -2.30529509e-03 -4.63433862e-02
   7.48610497e-02  8.25812072e-02  5.17010875e-02  6.31255880e-02
   2.95091998e-02 -1.42368585e-01 -2.72407141e-02 -1.54522419e-01
  -2.01415382e-02  6.75125644e-02 -1.17292978e-01 -8.19904357e-02
  -1.44600123e-01 -4.64808270e-02 -1.08521737e-01  1.36203319e-01
   1.09275885e-01  1.54055819e-01  8.06991383e-02 -4.68776450e-02
  -5.82870655e-02  1.07039154e-01  1.69889256e-02 -4.77412269e-02
   6.40229508e-03 -1.25764757e-01 -8.85568112e-02 -1.45857017e-02
  -8.52863491e-02  9.64584351e-02  6.87851757e-02  3.61236036e-02
  -1.28749222e-01  1.26013055e-01  1.02750652e-01 -1.09724373e-01
  -8.93091783e-03 -1.32467806e-01 -4.46095988e-02]
 [-2.35272422e-02  9.70654935e-02 -1.32259309e-01  6.87045455e-02
   5.00878366e-03 -1.05410561e-01  5.53558506e-02  6.53342381e-02
  -1.58627689e-01 -9.34366435e-02  2.02755462e-02  3.45480070e-02
   1.10196203e-01  2.68640108e-02 -9.27853957e-02  1.48479119e-01
   6.86861202e-03  1.36899397e-01 -1.21858932e-01 -7.33558387e-02
  -5.59680089e-02  1.08490668e-01  9.01391730e-03 -1.22407220e-01
   2.68840194e-02 -2.55078189e-02  1.53130040e-01 -9.20337252e-03
   1.90641910e-01  4.11736220e-02 -8.94928128e-02  1.41150698e-01
  -2.30964590e-02 -1.12111375e-01 -1.80574238e-01 -4.18659486e-02
  -3.37033309e-02  8.62535536e-02  9.95735973e-02  2.06132326e-02
  -9.31362286e-02 -2.55226577e-03  1.50395274e-01]
 [ 1.93038210e-02 -1.03335805e-01 -1.39599647e-02 -1.00712299e-01
   5.99915124e-02 -3.82704884e-02  6.42936230e-02 -1.04522966e-01
  -5.22870682e-02  5.22840098e-02  1.25684783e-01  1.06110744e-01
  -1.50103003e-01  1.90282818e-02  7.00344443e-02  6.85751736e-02
  -8.67888033e-02  9.01010185e-02 -7.50054717e-02  1.09795192e-02
   1.38755083e-01 -5.74427582e-02 -1.37141466e-01  6.09607920e-02
   1.08707078e-01  1.79915056e-02 -6.30825087e-02  4.68084449e-03
  -1.25649855e-01 -1.15964040e-01  3.51175060e-03 -1.14387982e-01
   8.30719322e-02  6.70916140e-02 -8.96008238e-02  8.07711296e-03
  -7.86234215e-02 -2.39056386e-02 -1.20156646e-01  8.88620839e-02
   1.86307691e-02 -9.83732268e-02 -1.11492977e-01]
 [ 2.31317505e-02 -1.13684364e-01 -4.20487747e-02  1.28228396e-01
   3.07581783e-03 -8.33317339e-02 -9.55543295e-02 -8.26221425e-03
   1.80057168e-01 -6.99873492e-02  6.40080050e-02 -1.68610644e-02
  -7.86070451e-02 -6.65463042e-03  6.07265756e-02 -1.31658046e-02
   2.46080570e-02  7.89539590e-02  3.41801755e-02  1.36344284e-01
  -1.29936069e-01 -7.06441551e-02 -4.51071896e-02  5.72647108e-03
   5.25592193e-02  2.34720651e-02  1.07335038e-01  1.28599524e-01
  -1.14360650e-03 -1.00829706e-01 -6.56224461e-03 -1.03115901e-01
   1.35494322e-01  1.06723770e-01 -8.84454772e-02 -1.37943491e-01
  -1.08781181e-01 -2.29668170e-02  1.59198251e-02 -1.48724183e-01
   5.45517616e-02 -6.22462668e-02  4.58287522e-02]
 [-4.78003100e-02 -6.29523769e-02 -3.85663137e-02  8.40789899e-02
   1.10801205e-01 -2.50124447e-02 -1.29821628e-01 -1.19572133e-01
   1.19513191e-01  1.05073005e-02  3.08268629e-02 -8.49131942e-02
  -1.07826941e-01 -1.03565797e-01  1.66633040e-01  9.63674188e-02
   1.41367344e-02 -7.44656399e-02  1.41706318e-01  1.38249606e-01
   1.05260434e-02  1.83783814e-01  7.62773678e-02 -1.05020411e-01
   6.40197424e-03  2.62216404e-02 -1.43392384e-01 -1.09094858e-01
   8.05955827e-02 -9.23868567e-02 -2.05060951e-02  1.32209927e-01
  -4.55476791e-02 -1.23681083e-01  1.05961245e-02 -5.28320707e-02
   1.10545702e-01 -1.16327778e-02 -8.05722848e-02  1.32009357e-01
   8.73161852e-02  7.30340332e-02 -1.24066090e-02]
 [-1.00264728e-01 -4.76799812e-03  2.98373159e-02  1.06660321e-01
  -1.77264996e-02 -1.33288696e-01  5.82951680e-02  1.01580401e-03
   1.20897263e-01  7.72996023e-02 -2.96554063e-02  1.55802071e-01
  -8.42775553e-02  1.28478393e-01 -4.21862863e-02  1.97320003e-02
  -4.12609018e-02  1.44404456e-01 -9.63124707e-02 -4.98124436e-02
  -7.66325444e-02  1.35564476e-01 -1.17122317e-02  1.43605545e-01
  -1.03827909e-01 -6.66243434e-02 -7.16203675e-02 -8.12772736e-02
  -8.32101777e-02  1.46733224e-01 -9.82999802e-03  2.35395320e-03
  -4.84950729e-02  1.49397835e-01  1.77348122e-01 -9.28676724e-02
   8.86557028e-02  9.17034745e-02 -1.03104562e-01  9.06239729e-03
  -6.06203116e-02  1.17930673e-01 -1.08154722e-01]
 [ 1.31033272e-01  3.94712687e-02  6.83464408e-02 -7.27761015e-02
  -1.08341709e-01  1.48826137e-01  1.03020914e-01  1.53291300e-01
  -1.00419316e-02  1.35738119e-01  1.70209929e-01  7.43266866e-02
  -1.60669778e-02 -1.18871547e-01 -9.03806686e-02 -5.73477224e-02
  -1.12147145e-01 -1.30719304e-01  1.08445518e-01  1.39626682e-01
  -1.98757108e-02 -5.31987064e-02  1.58244092e-02  5.49805537e-02
  -2.39419397e-02 -1.11066863e-01  7.11401775e-02  1.57467335e-01
   7.92565942e-03  1.27780974e-01 -1.05713002e-01  9.86707509e-02
   1.57867640e-01 -3.53296730e-03  7.91369937e-03 -1.00600488e-01
  -2.97319591e-02  5.37008233e-02 -9.90730524e-02 -8.02972093e-02
   8.72252285e-02  8.43060464e-02  9.10453424e-02]
 [ 1.84725765e-02 -9.66496170e-02  1.36434168e-01 -1.51926011e-01
  -5.78653328e-02 -1.38310850e-01  1.66843876e-01  4.24613096e-02
   1.46302894e-01 -7.32220635e-02 -5.09038828e-02 -4.97367755e-02
   1.26649126e-01  9.04651061e-02  9.30305570e-02 -1.10267513e-01
   7.60904849e-02 -4.17438485e-02  1.31220132e-01  1.78746015e-01
   1.24583788e-01  1.51440904e-01  3.91240716e-02  1.55831411e-01
   2.74317712e-02 -3.20276525e-03  1.35073140e-01  3.77088487e-02
   7.24645182e-02  1.57043725e-01  1.31619975e-01 -6.69296682e-02
   3.75118703e-02  1.48515090e-01 -7.83999860e-02  1.11911424e-01
  -1.05940729e-01 -2.78886296e-02 -1.23090416e-01 -8.19289759e-02
  -8.09445828e-02  6.75397590e-02 -6.63693175e-02]
 [ 9.89443362e-02  1.18342869e-01 -1.36722550e-01  8.51201266e-02
   2.65409779e-02 -1.27552509e-01  8.33992846e-03 -9.01264772e-02
  -1.02694176e-01  5.20225130e-02  1.41100854e-01 -1.62049849e-02
   1.01668663e-01  1.40887603e-01 -9.17881206e-02  9.23089217e-03
   9.39199924e-02  1.09011620e-01 -1.61543973e-02 -6.60399497e-02
  -1.41800568e-01  5.03220372e-02  9.41203684e-02  8.85282308e-02
  -4.50395755e-02 -3.07620317e-02  1.28075033e-01 -8.03870559e-02
   1.87930405e-01  4.50741574e-02  1.58975169e-01  7.94429258e-02
  -3.77224609e-02 -1.11307032e-01  3.26356553e-02  1.25836223e-01
  -1.11009173e-01 -8.22011605e-02  1.30520433e-01 -6.75259456e-02
   1.36536106e-01  9.87468287e-02  3.85952853e-02]
 [-1.24778241e-01  2.37048864e-02  9.04900134e-02  1.27739206e-01
  -3.03769158e-03  7.41087273e-02  1.40341341e-01  6.71155602e-02
   1.14574181e-02 -6.05958216e-02 -5.72481640e-02 -1.72162224e-02
   8.68148506e-02  8.45778212e-02  6.44700751e-02 -8.38446692e-02
   1.33980783e-02  2.20150268e-03  1.58636242e-01 -4.52875420e-02
  -1.17955282e-01  1.65669739e-01  3.94161791e-02  8.72355029e-02
   8.52290075e-03  1.63153503e-02  1.42446816e-01  2.01678984e-02
   3.55859585e-02 -1.23902727e-02 -5.69124408e-02  1.81678925e-02
  -7.43899941e-02  1.37073144e-01  8.93479362e-02  9.31124389e-02
  -9.05368943e-03 -1.26284882e-01  8.11906084e-02 -6.22985885e-03
   1.20561250e-01  1.87206399e-02 -1.21014647e-01]
 [-6.42597601e-02  9.20913965e-02 -6.01712950e-02  7.95262009e-02
  -8.03598482e-03 -5.29698795e-03 -1.07994676e-01  2.53168792e-02
  -1.26126602e-01  7.57029578e-02  5.95366284e-02 -1.36575848e-01
  -3.77146490e-02 -9.32582542e-02  5.18668722e-03 -2.04837676e-02
   6.23598807e-02 -1.47705510e-01  1.59146928e-03  1.25887439e-01
   5.11552989e-02  3.43707204e-02  8.64825472e-02  9.02071968e-03
  -1.06685974e-01  1.29696354e-01 -1.01938499e-02  1.28070727e-01
   1.01422936e-01  8.59356001e-02  7.92443305e-02  1.53257549e-01
   1.54667571e-01  1.46121591e-01  1.04616089e-02 -1.08145319e-01
  -1.16539687e-01 -9.68437791e-02 -1.16471909e-02  1.16492406e-01
   8.01439360e-02 -7.62664154e-02 -1.24310836e-01]
 [-9.68737006e-02 -6.92431405e-02 -1.20189525e-01 -9.24642831e-02
   2.53799073e-02 -1.05468914e-01 -8.91462192e-02 -1.58176795e-01
  -2.17330251e-02  1.10940002e-01  1.43483039e-02  6.69023544e-02
   5.35750054e-02 -1.09442741e-01  1.01010300e-01 -7.94056430e-02
   1.13334790e-01  3.42904031e-02 -7.85007551e-02 -1.53248191e-01
   2.32124724e-03 -8.38240385e-02 -1.17917009e-01 -1.24425545e-01
   8.66188407e-02 -3.61365601e-02 -1.30815385e-02  1.32870302e-01
   7.43533671e-02  5.18370010e-02  1.32507309e-01 -2.18942463e-02
   8.05203319e-02 -3.63285989e-02  1.12638302e-01  8.34212825e-02
   1.68266594e-02 -4.73775938e-02  7.11915642e-02  8.68127346e-02
   7.03194290e-02 -1.24415703e-01 -5.36061265e-02]
 [-1.37835070e-01 -1.08167760e-01  9.54382867e-02  1.65588737e-01
  -2.86357552e-02 -2.04722863e-02  4.86414395e-02  1.40855402e-01
   1.41397613e-04  7.93850347e-02 -4.28126901e-02 -1.20230459e-01
  -1.22089991e-02  5.83843105e-02 -1.57737449e-01  1.45508721e-02
  -2.04887819e-02 -9.75005478e-02  9.26386267e-02  1.53167695e-01
   1.01592476e-02  2.54499242e-02 -5.88420369e-02  1.20164052e-01
   5.67924082e-02 -2.25085337e-02 -9.62331519e-02 -8.04282427e-02
  -4.49759886e-02 -1.43418804e-01 -5.86106069e-02  4.83515225e-02
  -1.56589776e-01  4.51153778e-02  4.55556950e-03 -1.97543260e-02
   3.33181284e-02 -1.28154904e-01  9.74194705e-02 -1.19357007e-02
  -1.13369502e-01  2.11150963e-02  8.02187622e-02]
 [ 5.04588410e-02  1.93725023e-02 -8.60749930e-02  1.96738970e-02
   7.98830241e-02 -1.29555851e-01 -1.14706591e-01 -5.91840083e-03
   5.16587729e-03  4.86592017e-02  3.15423682e-02 -6.46684989e-02
   3.94216888e-02 -4.43822220e-02 -1.34918511e-01  5.78003712e-02
  -1.40256301e-01  7.64589831e-02  6.61606789e-02  5.33687733e-02
   1.51116282e-01  1.06742382e-01  1.34941012e-01 -7.03585669e-02
   7.33967219e-03 -9.33745056e-02  1.27423123e-01 -8.64560828e-02
  -5.26624620e-02 -1.28730372e-01 -8.82900059e-02 -1.08275637e-01
  -1.07757598e-01  8.94395113e-02  3.72861549e-02 -6.51332065e-02
   3.23411375e-02  4.66875955e-02 -1.15770273e-01  2.75869537e-02
   6.90158978e-02  2.11445317e-02 -6.90319091e-02]
 [-5.79590956e-03  9.68440175e-02 -9.35089439e-02 -1.76217663e-03
  -4.23814878e-02 -9.71249267e-02  1.54974237e-01 -7.08181560e-02
   1.15792423e-01  5.17383441e-02 -2.21659429e-02 -3.95444334e-02
  -7.80495331e-02  1.21364541e-01 -1.50294870e-01  4.38107178e-02
  -1.16322294e-01 -8.60424042e-02  1.22125283e-01 -1.06515132e-01
   9.81807150e-03  7.39095435e-02  1.39970973e-01 -1.02393314e-01
  -1.48229882e-01 -1.04468837e-01 -5.33415526e-02 -2.36132257e-02
  -5.13086617e-02  1.74459025e-01 -2.86094509e-02  6.76325569e-03
   1.46775097e-01 -8.15714225e-02 -3.80764576e-03  5.53777702e-02
   5.92964478e-02 -1.52936548e-01 -1.04848221e-01  6.16152696e-02
  -4.30954434e-02  9.18386951e-02 -4.00285721e-02]
 [-1.20352969e-01  9.67070162e-02 -2.72687487e-02 -1.32411107e-01
   3.42119001e-02  5.27410731e-02  8.61439481e-02  6.20905124e-02
  -7.01688603e-02  1.07935362e-01 -1.10677183e-01 -7.77366087e-02
  -1.16289891e-02  1.38312876e-01  1.76601354e-02 -1.16477609e-01
  -1.37892246e-01  6.19539395e-02 -8.15650672e-02  1.84125900e-02
   8.46248791e-02  1.24649808e-01 -4.18051928e-02 -1.40883654e-01
  -2.43540071e-02 -1.24066300e-03 -5.56211360e-02  2.62422133e-02
   1.96679961e-02 -2.11873762e-02  3.50042693e-02 -6.95979744e-02
  -1.60249807e-02 -1.43908173e-01 -4.85369712e-02 -1.48022875e-01
  -6.03109188e-02 -3.87549624e-02 -1.30208693e-02  5.08558238e-03
   1.34774894e-01 -1.06935292e-01 -5.32317795e-02]]

Weights of fc2 layer:
[[ 7.00551644e-02  7.52140135e-02 -6.11611381e-02 -7.33753145e-02
  -5.08030392e-02 -4.59781066e-02  4.10269424e-02  2.91352011e-02
  -5.67685030e-02  6.33344240e-03  8.63078982e-02 -3.42968404e-02
  -3.74451429e-02  1.02272466e-01  5.32586798e-02 -8.59356765e-03
  -5.58668710e-02 -5.39450385e-02  1.43921878e-02  1.03544459e-01
   5.57463169e-02  8.06762949e-02 -2.24106424e-02  3.39652202e-03
  -6.56783804e-02  1.42710572e-02  6.27533123e-02 -6.84232116e-02
  -3.28929350e-02  3.38386409e-02  1.40866470e-02  2.29783729e-02
   8.77496153e-02 -5.89620229e-03  1.03482462e-01 -5.08721694e-02
  -5.70381619e-02  5.45957573e-02  9.62352604e-02 -2.12291237e-02
   5.37527986e-02 -3.08312867e-02 -5.76725677e-02 -1.93468072e-02
   8.77039284e-02  1.67049970e-02  9.52372029e-02  4.17870283e-03
   5.19139804e-02  1.01200990e-01  9.23567340e-02 -8.26146975e-02
   6.14867955e-02  3.16814817e-02  4.35084067e-02  7.93756321e-02
  -5.92878610e-02  6.08330071e-02  6.29676059e-02  1.11631341e-01
  -4.34832601e-03 -5.86538156e-03 -7.09693925e-03 -6.16202727e-02
   1.30334357e-02 -6.67869598e-02 -2.70688962e-02  8.61326382e-02
  -5.88215142e-02  1.32800108e-02 -3.31218876e-02  1.50273591e-02
  -4.23573852e-02 -5.46324812e-02 -1.90118863e-03  1.02641828e-01
   1.12688867e-02 -8.07216950e-03 -5.48386499e-02  7.38703236e-02
   2.73053022e-03  1.51933683e-02  9.40509662e-02 -4.64178994e-03
   5.16106188e-02 -5.73565587e-02  6.45523518e-02  8.03368464e-02
   4.27790657e-02  8.39124843e-02  4.41463217e-02 -1.46289077e-02
  -6.25907332e-02 -6.92509189e-02  1.10217944e-01  8.80126134e-02
  -6.17422312e-02 -3.33664678e-02  8.88619423e-02  5.43871224e-02
   4.01508203e-03  6.01326562e-02 -2.68632062e-02 -4.01254445e-02
  -5.62087931e-02  9.44570228e-02  7.80596212e-02  4.28260043e-02
   2.83066854e-02  1.49606308e-02  3.74973118e-02  8.92636478e-02
  -6.16232790e-02  1.06576972e-01  3.92237492e-02  5.06386906e-03
  -4.58729826e-02  3.74628156e-02 -3.76351997e-02 -4.81882766e-02
   9.02224109e-02 -5.89442514e-02 -1.65540632e-03  8.89565498e-02
  -4.94794138e-02  2.01235199e-03  9.21107382e-02  2.48612314e-02]
 [ 1.99709348e-02  3.14931348e-02 -2.81428453e-03  7.41068795e-02
   9.28701237e-02  9.96533707e-02 -1.52535709e-02 -1.06442086e-02
   3.58366854e-02 -2.71482877e-02 -2.07106955e-02  9.46819782e-02
  -2.81734280e-02  1.07301623e-02 -4.23503853e-02 -5.44029102e-02
   9.09270570e-02 -1.61241349e-02  4.55558971e-02 -1.44046359e-03
   1.27235427e-02  2.57913896e-04 -6.59885928e-02  6.92836046e-02
  -1.55352149e-02  5.76444529e-02 -4.87140231e-02  3.27971950e-02
  -3.39175500e-02 -4.40400504e-02 -3.48478593e-02  3.48055586e-02
  -6.21276498e-02  6.05023503e-02 -5.58807589e-02  6.77398369e-02
   7.38516450e-02 -5.72828688e-02 -5.14245890e-02  9.68723446e-02
  -5.12657352e-02 -6.47454634e-02  9.51292552e-03 -2.13457830e-02
   9.05218273e-02  2.85218880e-02 -3.31841707e-02  4.05601636e-02
  -3.06153633e-02 -4.52968329e-02  4.85392213e-02  3.22898179e-02
  -6.11090921e-02 -1.31415175e-02  7.02921078e-02  6.73120469e-02
   3.46628167e-02 -9.18986648e-03 -5.31662554e-02 -2.86934129e-03
  -1.90059859e-02  1.05371349e-01  6.86853454e-02 -1.10283131e-02
   8.49921405e-02 -9.64137539e-03  5.28365299e-02  9.33243111e-02
  -8.89969710e-03  2.58412138e-02 -1.29352231e-02  5.01919612e-02
   7.64607564e-02 -6.43469989e-02 -3.17458883e-02  1.01707898e-01
  -4.19866405e-02  3.55700888e-02 -5.70255294e-02  9.85017791e-02
   1.01043910e-01  3.02681699e-03  4.45307009e-02  2.49165520e-02
  -5.00671305e-02 -3.44114266e-02  6.61147684e-02 -5.79257980e-02
  -7.17346147e-02  3.09544858e-02 -5.04146256e-02  4.57023941e-02
  -3.56051140e-02  3.35571989e-02 -1.22490088e-02  5.51070943e-02
  -2.64148731e-02 -6.21533319e-02  8.17317292e-02 -6.40494749e-02
   1.02058120e-01  7.83799514e-02  1.99812464e-02 -3.70622389e-02
   4.06570733e-02  8.32560286e-02  3.26353572e-02  8.01614597e-02
  -1.21938279e-02 -2.26512812e-02 -2.46899053e-02  9.93444994e-02
   6.68406934e-02  2.84708496e-02  8.63091052e-02 -2.40545580e-03
   5.86887784e-02  7.09392205e-02 -6.97645033e-03  1.00340791e-01
   5.79031520e-02 -4.16228436e-02  9.65522528e-02  1.42266229e-02
   9.15189981e-02  4.45963629e-03 -8.07217415e-03 -4.11092080e-02]
 [-6.53712898e-02 -4.14847918e-02 -5.32310344e-02 -2.76538637e-03
  -2.72708330e-02  7.06635863e-02  4.72638905e-02  4.28319052e-02
   1.01801632e-02  4.19617910e-03 -3.84978205e-02  3.29219364e-02
  -1.88418869e-02 -1.58054028e-02 -4.23182584e-02  4.98977974e-02
   9.16442019e-04 -3.53551209e-02  6.26010150e-02 -1.22856228e-02
   4.85496409e-02 -7.95920193e-02 -3.34562957e-02  3.95928510e-02
  -4.55636010e-02  4.06475887e-02 -7.34095126e-02 -8.29245970e-02
  -1.32542374e-02 -8.73364881e-02 -2.04254165e-02  1.09706391e-02
  -7.30106458e-02  6.53105155e-02  3.39752622e-02 -8.65062922e-02
  -5.28182238e-02 -2.13245908e-03 -6.21625222e-02 -9.84364599e-02
  -6.16765171e-02 -5.66617213e-02 -3.28421663e-03  4.76151109e-02
   2.68279538e-02 -1.38014117e-02  3.16590667e-02  5.75354807e-02
  -8.94575939e-03 -8.22033137e-02  4.87885140e-02  2.51773521e-02
  -6.88464567e-02 -4.46740817e-03 -4.97743078e-02 -8.04160684e-02
  -6.73821867e-02 -2.67086159e-02  4.55380268e-02  6.58818185e-02
  -2.02408414e-02 -1.25602016e-03 -3.02612633e-02  6.90184087e-02
   7.54187107e-02  8.86571966e-03  9.95744951e-03 -7.27036744e-02
  -3.49299088e-02  2.09437590e-03 -6.43777102e-02 -9.43212137e-02
  -9.57320407e-02  3.54448184e-02  4.86127697e-02 -4.10629213e-02
  -1.26498155e-02 -9.95604098e-02  4.57998030e-02 -6.64822310e-02
  -1.42399743e-02  7.01147914e-02  1.31723806e-02  2.74842931e-03
   3.45049202e-02 -9.13947634e-03 -9.10568759e-02  1.53603228e-02
   2.56064385e-02  1.18018137e-02 -5.96716814e-02  5.12610422e-03
   6.01521805e-02  7.06193522e-02 -1.01089433e-01  2.48512290e-02
   5.47225699e-02 -9.53307841e-03 -2.50161383e-02  4.50907387e-02
  -5.84530570e-02 -1.51607459e-02 -9.08722803e-02 -6.70402274e-02
   5.46481684e-02 -3.94330844e-02 -8.13527256e-02 -3.33655290e-02
  -1.44479210e-02 -6.56555698e-04  4.94069755e-02 -5.25720157e-02
  -7.80164078e-03 -5.98846711e-02  4.54430096e-02  2.46915384e-03
  -7.24933445e-02 -1.16018932e-02  3.90811414e-02 -7.66241476e-02
   4.81264740e-02  7.28974342e-02 -9.81878415e-02 -8.25885832e-02
   2.79385168e-02  9.28099453e-03 -9.36610028e-02  6.75961226e-02]
 [ 2.11481806e-02  7.21390126e-03 -9.63701159e-02 -7.50900246e-03
  -2.50536408e-02  5.42032123e-02 -8.44741762e-02  6.89987466e-02
  -4.16935682e-02 -5.47760800e-02  4.79164906e-02 -8.31771195e-02
  -5.72745949e-02 -9.50908437e-02 -3.30335163e-02 -6.98925778e-02
  -9.18908268e-02 -1.05445983e-03 -9.09001753e-03 -1.13608763e-02
   1.30994646e-02  3.00408085e-03  1.67181827e-02  4.79785018e-02
  -4.08853218e-02  3.58634517e-02 -3.35214175e-02 -1.90980900e-02
  -3.20057049e-02  5.04550412e-02  1.97081454e-02 -7.84975812e-02
   3.58967632e-02 -1.69904542e-03 -7.13779703e-02  6.17523938e-02
   6.35031983e-02 -1.91779807e-03 -5.41417068e-03  2.24166387e-03
   4.98889163e-02  5.57016023e-03  5.01504280e-02  5.70627190e-02
   7.68034831e-02 -1.94417313e-02 -4.71358150e-02 -9.43734422e-02
  -9.38128456e-02 -9.27467644e-02 -5.76384068e-02 -5.66123277e-02
  -1.19665181e-02 -8.55371356e-02 -6.08783290e-02 -7.64878616e-02
   5.33297583e-02 -5.85630313e-02  1.42766079e-02  3.83679308e-02
   4.47872393e-02  1.57788023e-02  1.48476986e-02 -7.29655614e-03
   2.48229597e-03 -6.76482767e-02  2.02858206e-02  1.24468245e-02
   5.89547232e-02 -7.72038326e-02 -4.96792458e-02  6.28528232e-03
  -5.85702732e-02  2.32997704e-02  6.64479733e-02 -8.14393386e-02
  -5.69634736e-02 -3.99715826e-02  6.36889786e-02  1.64407510e-02
  -3.43233608e-02 -2.22516973e-02 -4.93307635e-02 -5.52998111e-02
  -4.06305268e-02 -6.32436574e-02  3.37106064e-02 -5.89475734e-03
  -6.19749203e-02 -8.81923828e-03 -3.53026320e-04 -3.25779244e-02
   9.70667787e-03 -7.81492963e-02 -6.89202324e-02 -9.58956853e-02
  -4.80187759e-02  1.92397498e-02 -7.68935017e-04  4.96050753e-02
  -2.65170615e-02  3.57296504e-02 -2.45100958e-03  3.28923315e-02
  -8.31006393e-02  2.15476025e-02 -4.27364074e-02  6.61498383e-02
   5.14179133e-02 -5.53873368e-03 -9.54859424e-03  2.87169144e-02
   1.19820179e-03 -2.76669636e-02 -3.89811099e-02 -6.51013777e-02
   5.84630705e-02 -2.03552842e-02  3.66887525e-02  8.29518586e-03
   6.50862977e-02 -2.26235017e-02  6.22385778e-02  7.53892511e-02
  -7.10886195e-02 -5.65653965e-02  4.13351692e-02 -4.66307998e-02]
 [-1.12473462e-02  4.87100780e-02 -3.68291736e-02 -8.56825560e-02
  -9.45124924e-02  2.04647090e-02 -4.41768281e-02 -7.45350420e-02
   5.61807975e-02  1.18518090e-02  7.13969618e-02 -8.61180648e-02
   6.20829538e-02 -8.09742212e-02 -7.56615400e-02  3.54824997e-02
  -7.26075768e-02 -5.07132104e-03  6.69124629e-03  2.21905429e-02
  -6.29645586e-02 -4.70458418e-02  6.04409762e-02  4.91263978e-02
  -5.03768288e-02 -4.33622533e-03  5.00643849e-02 -7.73023739e-02
